-1.138626039028167725e-01,5.528169125318527222e-02,4.591568186879158020e-02,-9.276777505874633789e-02,-7.888802886009216309e-02,-3.689192468300461769e-03,5.416224896907806396e-02,1.064788922667503357e-01,-2.066048234701156616e-02,1.745539605617523193e-01,-5.942867696285247803e-02,-1.365694217383861542e-02,-9.031775407493114471e-03,7.355859875679016113e-02,3.213097527623176575e-02,2.155847288668155670e-02
2.954801777377724648e-03,-8.586297044530510902e-04,1.178999431431293488e-02,-1.227626489708200097e-04,5.855082417838275433e-04,-4.835985600948333740e-03,-2.918228041380643845e-03,-1.006200545816682279e-04,1.335607562214136124e-02,-3.513234201818704605e-03,-1.148730702698230743e-02,3.076232736930251122e-03,2.027215668931603432e-03,2.469595987349748611e-03,1.464490105718141422e-05,-1.341410819441080093e-02
3.787003159523010254e-01,1.441285848617553711e+00,4.792968034744262695e-01,3.466859459877014160e-01,3.880865275859832764e-01,3.013950288295745850e-01,1.569976687431335449e+00,2.080081552267074585e-01,-1.563207358121871948e-01,3.284488618373870850e-01,1.061983346939086914e+00,-5.504595637321472168e-01,2.773581743240356445e-01,3.148936033248901367e-01,4.134805202484130859e-01,-1.189262345433235168e-01
1.402700040489435196e-02,-7.353574037551879883e-04,2.724783718585968018e-01,5.020370706915855408e-03,6.057010963559150696e-02,-6.826870888471603394e-02,-6.773386895656585693e-02,-9.028540924191474915e-03,4.474265873432159424e-01,3.175047039985656738e-02,4.462376981973648071e-02,1.095497086644172668e-01,-8.551882207393646240e-02,-2.342292480170726776e-02,6.395192444324493408e-02,-3.465497791767120361e-01
