8.863188326358795166e-02
1.036463975906372070e-01
5.622820556163787842e-02
-6.566385924816131592e-02
5.387145653367042542e-02
1.106388494372367859e-01
1.584528237581253052e-01
-3.987338766455650330e-02
-1.320942537859082222e-03
6.493650772654291359e-08
1.426846086978912354e-01
1.158000486611854285e-07
5.471941828727722168e-02
-3.179330931857293763e-08
4.847342893481254578e-02
1.767401583492755890e-02
-6.349275708198547363e-01
3.311667029493037262e-08
1.357059627771377563e-01
-7.151103176283868379e-08
3.575778961817377422e-08
1.394768524914979935e-02
-7.470564544200897217e-02
1.555188447237014771e-01
1.464549750089645386e-01
1.511572152376174927e-01
6.116950418800115585e-03
-2.101783752441406250e-01
9.891422092914581299e-02
1.165481982752680779e-03
4.347045440226793289e-03
1.263210326433181763e-01
-4.509307061084655288e-08
2.776885926723480225e-01
1.623831540346145630e-01
-2.580746263265609741e-02
-5.061527730276793591e-08
1.772289574146270752e-01
9.149155020713806152e-02
1.893711835145950317e-01
1.083450466394424438e-01
1.177499443292617798e-01
5.998974442481994629e-01
-2.157718688249588013e-02
-4.668333381414413452e-02
1.453399807214736938e-01
3.076782077550888062e-02
-3.760413825511932373e-02
2.193252742290496826e-01
4.929731367155909538e-04
4.308092594146728516e-02
1.407584537815864678e-08
-1.187949348241090775e-02
1.260956227779388428e-01
5.613395571708679199e-02
-1.199441403150558472e-02
2.257776074111461639e-02
1.058617606759071350e-02
1.062906682491302490e-01
1.412836070358025609e-08
1.424165666103363037e-01
3.261084109544754028e-02
1.577645391225814819e-01
-1.149364834418520331e-07
