4.083822667598724365e-02,-1.357612852007150650e-02,7.973072119057178497e-03,1.767603680491447449e-02,1.162821985781192780e-02,-3.658505156636238098e-02,3.718347102403640747e-02,2.808448486030101776e-02,-1.854038611054420471e-02,5.362172611057758331e-03,5.566545296460390091e-03,-7.618790119886398315e-02,2.549359761178493500e-02,1.056111697107553482e-02,1.593426056206226349e-02,1.731798611581325531e-02
-1.920206123031675816e-04,5.553007125854492188e-03,2.217383589595556259e-03,-1.624206453561782837e-02,-2.020944142714142799e-03,7.599296513944864273e-03,-3.370168851688504219e-03,1.880658417940139771e-02,9.414659580215811729e-04,-4.687058739364147186e-03,1.868405495770275593e-03,1.130592357367277145e-02,4.576569888740777969e-03,3.367878962308168411e-04,2.612837124615907669e-03,-2.728735795244574547e-03
7.515374422073364258e-01,2.796712219715118408e-01,2.105958163738250732e-01,3.353081941604614258e-01,2.484836280345916748e-01,-7.769737839698791504e-01,3.430165052413940430e-01,7.379575371742248535e-01,-4.510450065135955811e-01,1.432610899209976196e-01,2.419833987951278687e-01,-1.724973082542419434e+00,5.640004873275756836e-01,2.752341926097869873e-01,4.072590172290802002e-01,4.137351512908935547e-01
-1.095257885754108429e-02,2.065639384090900421e-02,5.186406150460243225e-02,-3.821012973785400391e-01,-7.153379172086715698e-02,1.863576918840408325e-01,2.421265840530395508e-02,4.742291569709777832e-01,1.583077013492584229e-02,-1.140888929367065430e-01,4.124899581074714661e-02,3.232329487800598145e-01,1.151554733514785767e-01,3.174541518092155457e-02,5.906806886196136475e-02,-3.335649147629737854e-02
