4.553929144890389580e-08,-1.264817655055594514e-07,-1.897906804515514523e-05,2.921670093201100826e-04,4.016587510704994202e-02,6.906371563673019409e-02,2.133803442120552063e-02,1.297914236783981323e-01,-6.055760337630999857e-08,1.427535805851221085e-02,2.937964797019958496e-01,3.417194783687591553e-01,5.461595486849546432e-03,-1.884903311729431152e-01,1.135200187563896179e-01,-1.642171591520309448e-01
1.417239303691530949e-07,-3.819883431788184680e-07,7.614505593664944172e-04,-2.052938070846721530e-04,3.980200737714767456e-02,-4.901596531271934509e-02,-3.291323781013488770e-02,2.257233858108520508e-02,7.776201016440609237e-09,2.982236212119460106e-03,9.927267208695411682e-03,-1.457773447036743164e-01,1.980609667953103781e-04,1.056676357984542847e-01,-4.739691317081451416e-02,1.067567616701126099e-01
1.218648719714110484e-07,5.893993204608705128e-08,9.079253068193793297e-04,-1.178309103124774992e-04,-4.457102715969085693e-02,1.245109736919403076e-01,8.379812352359294891e-03,1.207536683978105430e-07,-2.324716774637636263e-07,1.080425083637237549e-02,-9.458679705858230591e-02,-2.962726652622222900e-01,-3.305744612589478493e-04,2.927623689174652100e-01,8.006477355957031250e-02,2.548932433128356934e-01
-1.280464942965409136e-07,2.153705302987418690e-08,1.280914759263396263e-03,-1.968822180060669780e-04,1.206372901797294617e-01,-4.769662022590637207e-02,-3.154059872031211853e-02,-4.043779801577329636e-03,-6.029011956343310885e-08,9.699302725493907928e-03,-2.810037136077880859e-02,-1.661928445100784302e-01,2.119781420333310962e-04,1.522299647331237793e-01,-4.595355316996574402e-02,1.361439228057861328e-01
7.365139254034147598e-08,-1.498325445936643519e-07,7.555634365417063236e-04,3.374358584551373497e-06,2.445605769753456116e-02,8.882050216197967529e-02,3.720514848828315735e-02,1.230758577585220337e-01,-3.572805269413947826e-07,-2.394182831048965454e-01,1.262147277593612671e-01,1.066409647464752197e-01,1.354400534182786942e-02,-7.575301080942153931e-02,9.387841820716857910e-02,-6.638743728399276733e-02
-2.016358280343411025e-07,-6.986478950921082287e-08,1.248599728569388390e-03,-2.014323690673336387e-04,1.135617196559906006e-01,-4.894004762172698975e-02,-3.181714937090873718e-02,-7.428159471601247787e-03,8.560640196719759842e-08,1.077123917639255524e-02,-3.547238931059837341e-02,-1.660531759262084961e-01,2.484554133843630552e-04,1.534952372312545776e-01,-4.770050942897796631e-02,1.375584602355957031e-01
-2.011763342579797609e-07,7.213386510329655721e-08,1.303675700910389423e-03,-2.002667170017957687e-04,1.254026591777801514e-01,-4.720711335539817810e-02,-3.166888281702995300e-02,-5.839108489453792572e-03,7.240561927801536513e-09,9.196603670716285706e-03,-2.838359028100967407e-02,-1.636205464601516724e-01,2.819859655573964119e-04,1.525038778781890869e-01,-4.573880508542060852e-02,1.378195136785507202e-01
1.248996461811202607e-08,1.425076279204517959e-09,1.210734946653246880e-03,-1.998480292968451977e-04,1.318397372961044312e-01,-4.889649152755737305e-02,-3.155624866485595703e-02,-1.074550114572048187e-02,-3.385800440014463675e-08,9.193223901093006134e-03,-1.291127875447273254e-02,-1.643450856208801270e-01,1.897238398669287562e-04,1.528719663619995117e-01,-4.760427027940750122e-02,1.395369321107864380e-01
