3.793670237064361572e-02,1.048797182738780975e-02,8.664892613887786865e-02,6.490527093410491943e-02,8.737250417470932007e-02,6.483317911624908447e-02,7.127793133258819580e-02,9.215606411316912272e-08,9.012351930141448975e-02,3.640791177749633789e-01,1.598234176635742188e-01,-9.484333395957946777e-01,7.039705663919448853e-02,8.521649986505508423e-02,1.452831625938415527e-01,8.493469655513763428e-02
6.774494051933288574e-02,-1.107231855392456055e+00,5.554411932826042175e-02,6.252820044755935669e-02,7.459164410829544067e-02,7.319132983684539795e-02,7.073734700679779053e-02,-1.481223250721086515e-07,7.726720720529556274e-02,1.715747117996215820e-01,9.680124372243881226e-02,-2.366525977849960327e-01,7.158061116933822632e-02,6.851346790790557861e-02,8.233751356601715088e-02,6.715333461761474609e-02
9.052206575870513916e-02,-9.048730731010437012e-01,1.023046523332595825e-01,1.053772568702697754e-01,9.142360091209411621e-02,7.604415714740753174e-02,9.839187562465667725e-02,7.358682552194295567e-08,9.100608527660369873e-02,-2.390638180077075958e-02,1.352539062500000000e-01,-3.994164466857910156e-01,9.941302239894866943e-02,1.104644015431404114e-01,1.194749027490615845e-01,1.101792231202125549e-01
1.979539543390274048e-01,-3.421800136566162109e-01,1.375170350074768066e-01,1.394531130790710449e-01,8.232998847961425781e-02,2.170639634132385254e-01,8.765127509832382202e-02,1.139669269323348999e-01,1.114343926310539246e-01,-3.374600112438201904e-01,1.555562466382980347e-01,1.809576340019702911e-02,8.991257846355438232e-02,1.038550138473510742e-01,1.325894892215728760e-01,1.047501787543296814e-01
7.806315273046493530e-02,-1.670431852340698242e+00,9.792839735746383667e-02,1.063161566853523254e-01,8.275358378887176514e-02,9.475509077310562134e-02,9.092645347118377686e-02,-2.248509675264358521e-01,8.395574986934661865e-02,-1.444783341139554977e-02,1.574756950139999390e-01,-1.438801169395446777e+00,9.341329336166381836e-02,8.739597350358963013e-02,1.345787942409515381e-01,8.830165863037109375e-02
8.277017623186111450e-02,-7.569378018379211426e-01,8.452872186899185181e-02,9.498106688261032104e-02,8.871579915285110474e-02,7.801054418087005615e-02,8.734467625617980957e-02,-1.604422368109226227e-02,8.810219913721084595e-02,1.542989015579223633e-01,1.272727251052856445e-01,-1.549112200736999512e+00,8.843906223773956299e-02,8.097526431083679199e-02,1.067606657743453979e-01,8.062001317739486694e-02
6.691261380910873413e-02,-9.928227066993713379e-01,5.240695178508758545e-02,6.086053326725959778e-02,7.458347082138061523e-02,7.322779297828674316e-02,7.052905112504959106e-02,-1.007045113965432392e-08,7.661061733961105347e-02,1.803880482912063599e-01,9.341711550951004028e-02,-2.642010748386383057e-01,7.077176868915557861e-02,6.490811705589294434e-02,7.947645336389541626e-02,6.402322649955749512e-02
-2.749664783477783203e-01,5.863683223724365234e-01,1.712439805269241333e-01,-6.422797441482543945e-01,-3.515325784683227539e-01,5.985947847366333008e-01,-3.802553713321685791e-01,5.480101108551025391e-01,-6.097755953669548035e-02,-7.623894810676574707e-01,-1.735332235693931580e-02,6.339259147644042969e-01,-4.618164300918579102e-01,4.688180051743984222e-03,-1.852227002382278442e-02,5.421992391347885132e-03
