2.043760893855051108e-08
-1.048051867513777324e-09
-6.859002262353897095e-02
-1.628522574901580811e-01
-7.419656962156295776e-02
3.731339871883392334e-01
-3.740379214286804199e-01
-2.549349460423400160e-07
2.864959537982940674e-01
-3.696709573268890381e-01
3.161162436008453369e-01
-1.492535918951034546e-01
-1.704552620649337769e-01
-5.545672029256820679e-02
3.153660520911216736e-02
-6.166815502695044415e-09
-1.610020206044282531e-07
-6.415534764528274536e-02
6.328141211042748182e-08
-6.881926953792572021e-02
2.423567920923233032e-01
-1.476029604673385620e-01
2.959632873535156250e-01
-3.879026174545288086e-01
-6.373588740825653076e-02
-6.687561422586441040e-02
-2.576680481433868408e-01
1.066790300541242686e-08
3.269727826118469238e-01
-4.232821027017052984e-08
2.782248031962808454e-08
1.155941902197810123e-07
-1.074278799251260352e-07
-1.920785196125507355e-02
2.265868484973907471e-01
5.825631618499755859e-01
1.212286669760942459e-02
-6.942623853683471680e-02
4.336813092231750488e-01
-6.063193082809448242e-02
-4.026072986107465113e-08
-3.506951630115509033e-01
-5.337848918429699552e-08
9.616893947850257973e-09
-4.585215821862220764e-02
1.025677036636807316e-07
8.519497640691042761e-08
-3.552189767360687256e-01
-4.223554953932762146e-02
1.901794206560225575e-07
4.347712695598602295e-01
-2.155208736658096313e-01
2.643748757691355422e-07
7.205923087894916534e-03
4.019015133380889893e-01
-2.039197683334350586e-01
2.588169678574558930e-08
-2.276003385759395314e-07
1.487075991235542460e-07
2.019615471363067627e-01
-1.014337292872369289e-03
-1.319051534665049985e-07
2.921233773231506348e-01
-2.878619511648139451e-07
