7.669432461261749268e-02,-1.993409730494022369e-02,3.646509430836886168e-04,-9.582016617059707642e-03,2.448833920061588287e-02,9.785245358943939209e-02,-2.127881627529859543e-03,-1.886576763354241848e-03,-2.949906513094902039e-02,-5.396392941474914551e-02,-6.165736541152000427e-02,-5.360046774148941040e-02,8.107122778892517090e-02,-6.296507269144058228e-02,-2.267827028390456690e-07,-5.183699727058410645e-02,1.868208199739456177e-01
-5.921378731727600098e-02,8.684065192937850952e-03,2.330810017883777618e-02,1.079498673789203167e-03,6.288351118564605713e-02,1.561957150697708130e-01,1.938222907483577728e-02,1.955919712781906128e-02,-1.548371743410825729e-02,5.601612851023674011e-02,5.592204630374908447e-02,5.467670410871505737e-02,-5.266657099127769470e-03,3.557885810732841492e-02,-4.002737341579631902e-07,6.156980991363525391e-02,2.291178330779075623e-02
-1.976398192346096039e-02,-3.536326577886939049e-03,7.745705544948577881e-02,-8.251531980931758881e-03,-1.339719891548156738e-01,2.185204774141311646e-01,5.066597834229469299e-03,7.982560992240905762e-02,-3.926357999444007874e-02,-5.904657393693923950e-02,-5.983312055468559265e-02,-5.763240158557891846e-02,-6.962163001298904419e-02,-5.813911929726600647e-02,-1.391293551478156587e-07,-5.893729627132415771e-02,-8.926505595445632935e-02
4.387887660413980484e-03,6.948231603018939495e-04,1.274078153073787689e-02,4.261907655745744705e-03,5.999289825558662415e-02,1.055669188499450684e-01,1.631537266075611115e-02,1.259964238852262497e-02,-2.385923638939857483e-02,3.834038972854614258e-03,-2.731311600655317307e-03,7.149152224883437157e-04,6.533291656523942947e-03,-4.738870542496442795e-03,-9.003765200077396003e-08,-6.953408941626548767e-03,4.948284476995468140e-02
-5.275052785873413086e-02,5.097141116857528687e-02,5.641955509781837463e-02,5.099908635020256042e-02,8.071579784154891968e-02,1.600402593612670898e-02,5.592192709445953369e-02,5.553535372018814087e-02,2.891970798373222351e-02,5.797663331031799316e-02,6.349980831146240234e-02,5.340670421719551086e-02,1.812782138586044312e-02,4.862597957253456116e-02,-4.956242705134172866e-08,6.567547470331192017e-02,4.649916291236877441e-02
6.861127447336912155e-03,6.362864375114440918e-02,6.570855528116226196e-02,6.029478088021278381e-02,9.441263973712921143e-02,-2.681507728993892670e-02,7.084915041923522949e-02,5.873182415962219238e-02,2.456470206379890442e-02,2.827455662190914154e-02,4.102051258087158203e-02,4.019421339035034180e-02,3.461204469203948975e-02,3.238601982593536377e-02,6.240247785171959549e-08,3.534594550728797913e-02,4.241055622696876526e-02
-1.198805216699838638e-02,2.779535762965679169e-02,4.603627324104309082e-02,3.313999623060226440e-02,4.115002229809761047e-02,-3.285134211182594299e-02,3.323575854301452637e-02,3.350334614515304565e-02,4.838841408491134644e-02,-1.428065448999404907e-02,-1.155493035912513733e-02,-1.752457022666931152e-02,3.450286984443664551e-01,-2.452602051198482513e-02,-3.428420711770741036e-07,-1.653498597443103790e-02,2.535360753536224365e-01
-4.945401549339294434e-01,2.471405764481460210e-07,6.084380999027416692e-08,1.319508129427049425e-07,-1.625915331260330277e-07,2.297396659851074219e-01,-1.017728479268953379e-07,-1.312309478862516698e-07,-4.647959173098570318e-08,-1.016933396458625793e-01,-1.073788255453109741e-01,-1.017264351248741150e-01,-5.447145178914070129e-02,-8.618962764739990234e-02,3.990012586996272148e-08,-1.082432195544242859e-01,-6.802070885896682739e-02
-3.073123283684253693e-02,-3.609836101531982422e-03,-1.124632661230862141e-03,-1.025943830609321594e-02,5.891579017043113708e-02,9.397480636835098267e-02,3.415483981370925903e-03,1.200507278554141521e-03,-3.014710918068885803e-02,2.050261199474334717e-02,2.385832369327545166e-02,1.480591110885143280e-02,4.981233552098274231e-02,3.647397272288799286e-03,-8.687379704497288913e-08,3.209561854600906372e-02,5.493775010108947754e-02
-3.882698118686676025e-01,7.437568157911300659e-02,1.189291924238204956e-01,8.011897653341293335e-02,9.240752458572387695e-02,-1.015819609165191650e-01,1.031807586550712585e-01,1.186015158891677856e-01,1.870031002908945084e-03,-2.084680050611495972e-01,-2.057917863130569458e-01,-2.110996097326278687e-01,2.621054053306579590e-01,-2.181743681430816650e-01,6.731804091941739898e-08,-2.049545198678970337e-01,2.767243385314941406e-01
1.076049823313951492e-02,-2.094527147710323334e-02,-1.424079854041337967e-02,-6.501735188066959381e-03,9.601693600416183472e-02,1.454765647649765015e-01,1.589298248291015625e-02,-1.385335065424442291e-02,-1.032078191637992859e-01,6.383100058883428574e-03,1.589579321444034576e-02,1.189290173351764679e-02,-6.003441289067268372e-02,9.673196822404861450e-03,-1.642317641881163581e-07,1.347274426370859146e-02,-2.768872864544391632e-02
6.547258291078605907e-09,-1.938453486616253940e-08,-3.658162439634793373e-09,1.414375248032229138e-07,-2.036960182749680826e-07,-4.478198434298974462e-08,-8.115966920740902424e-08,2.204319002885313239e-07,1.715117718958936166e-07,1.366618818110509892e-07,-7.061716900125247776e-08,2.495984858796873596e-07,-7.695932424667262239e-08,-1.777172542460903060e-07,-1.713035686634611920e-07,1.724238813949341420e-07,-2.006140107368992176e-07
-6.118303164839744568e-02,1.484317332506179810e-01,1.634038239717483521e-01,1.338807940483093262e-01,1.374510526657104492e-01,5.488872155547142029e-02,1.537044346332550049e-01,1.514826416969299316e-01,1.030263751745223999e-01,-7.140858471393585205e-02,-6.398244202136993408e-02,-7.519549876451492310e-02,3.215811550617218018e-01,-8.111587166786193848e-02,1.334410626441240311e-07,-6.735534965991973877e-02,3.785519599914550781e-01
-4.467295511290103605e-08,3.795792162418365479e-02,3.957399725914001465e-02,3.658918663859367371e-02,2.322277985513210297e-02,-2.473427969107433455e-07,3.403365239500999451e-02,3.960563242435455322e-02,4.605977982282638550e-02,-6.396800279617309570e-01,-6.406034827232360840e-01,-6.395505070686340332e-01,-6.289038062095642090e-01,-6.401103138923645020e-01,6.726006063217937481e-08,-6.409918069839477539e-01,-6.274402737617492676e-01
-1.589161038398742676e+00,2.074253559112548828e-02,6.980415433645248413e-02,3.012423962354660034e-02,7.809465378522872925e-02,-1.170623954385519028e-02,6.552863866090774536e-02,7.007724791765213013e-02,-8.484511077404022217e-02,-1.797827482223510742e+00,-1.798199653625488281e+00,-1.797963261604309082e+00,6.232324242591857910e-01,-1.798595666885375977e+00,8.481892876943675219e-08,-1.798768401145935059e+00,7.363328933715820312e-01
-8.486866019666194916e-03,-3.601596923545002937e-03,6.245388183742761612e-03,-3.463863162323832512e-03,8.949367702007293701e-02,1.079634130001068115e-01,1.926495507359504700e-02,7.780861109495162964e-03,-7.855691760778427124e-02,6.172727420926094055e-02,6.855491548776626587e-02,4.612693935632705688e-02,-1.199254766106605530e-03,4.471410810947418213e-02,6.942526198372434010e-08,6.902860105037689209e-02,-8.289150893688201904e-03
-8.460318297147750854e-02,1.174988895654678345e-01,1.178272292017936707e-01,1.170095354318618774e-01,2.113370299339294434e-01,7.953462749719619751e-02,1.396467685699462891e-01,1.127394288778305054e-01,2.202538959681987762e-02,-2.713901363313198090e-02,-1.864879578351974487e-02,-2.244123071432113647e-02,1.938508749008178711e-01,-5.376952141523361206e-02,-1.063669685663626296e-07,-1.612699031829833984e-02,2.122957557439804077e-01
3.871279582381248474e-02,6.703354418277740479e-02,7.601597905158996582e-02,7.643287628889083862e-02,9.731322526931762695e-02,-7.683147490024566650e-02,8.819951862096786499e-02,7.371082901954650879e-02,6.288400292396545410e-02,8.121637254953384399e-02,7.280412316322326660e-02,7.312030345201492310e-02,-1.629702188074588776e-02,6.791044771671295166e-02,-2.200769522175960446e-08,6.899701803922653198e-02,-1.230049692094326019e-02
-6.587260961532592773e-02,1.893112510442733765e-01,1.748659610748291016e-01,1.855061799287796021e-01,1.797020435333251953e-01,4.827808588743209839e-02,1.735429763793945312e-01,1.838370263576507568e-01,1.902817785739898682e-01,1.669637858867645264e-02,-5.808938760310411453e-03,3.169743577018380165e-03,-4.774763286113739014e-01,2.106490544974803925e-02,-1.449400599540240364e-07,2.735055750235915184e-03,1.493012011051177979e-01
-8.362122774124145508e-01,7.853315770626068115e-02,1.278703659772872925e-01,8.743093162775039673e-02,5.692165344953536987e-02,-8.203650712966918945e-01,1.122781261801719666e-01,1.280900388956069946e-01,-2.457711473107337952e-02,-9.816913604736328125e-01,-9.812575578689575195e-01,-9.815792441368103027e-01,6.895776987075805664e-01,-9.837570786476135254e-01,-2.808324595093836251e-08,-9.857143759727478027e-01,8.057528734207153320e-01
-1.662648618221282959e-01,8.024625130929052830e-04,-1.357500534504652023e-02,2.771390136331319809e-04,1.119357068091630936e-03,-4.259273037314414978e-02,-5.043632816523313522e-03,-1.366201881319284439e-02,1.783299446105957031e-02,5.022059008479118347e-02,4.958159103989601135e-02,5.058172717690467834e-02,3.773758560419082642e-02,5.123017355799674988e-02,1.532381332935983664e-07,4.925948753952980042e-02,3.305041417479515076e-02
3.091083839535713196e-03,8.967101573944091797e-02,1.033860296010971069e-01,9.769489616155624390e-02,1.268828213214874268e-01,3.061675727367401123e-01,1.146371886134147644e-01,1.108583211898803711e-01,3.947050496935844421e-02,-1.269498467445373535e-01,-1.163828149437904358e-01,-1.178581565618515015e-01,1.421259939670562744e-01,-1.241252571344375610e-01,5.083852983034375939e-08,-1.241240128874778748e-01,1.165029406547546387e-02
5.328797921538352966e-02,4.719288647174835205e-02,5.708564072847366333e-02,3.882739320397377014e-02,3.095318190753459930e-02,1.873420365154743195e-02,4.095416888594627380e-02,6.071966886520385742e-02,4.896980524063110352e-02,-7.711165398359298706e-02,-7.362477481365203857e-02,-8.122421801090240479e-02,8.700194954872131348e-02,-6.484811007976531982e-02,4.881358250941048027e-08,-7.922942191362380981e-02,7.430886477231979370e-02
-1.460490822792053223e-01,1.715293973684310913e-01,1.804022192955017090e-01,1.745912730693817139e-01,1.994731724262237549e-01,3.640946745872497559e-02,1.981494426727294922e-01,1.804167032241821289e-01,1.213637143373489380e-01,2.973685506731271744e-03,-7.351368549279868603e-04,6.641035899519920349e-03,2.217506766319274902e-01,-5.347483791410923004e-03,-2.276563861869362881e-07,1.793636381626129150e-02,2.251617014408111572e-01
-5.183240771293640137e-02,1.527417451143264771e-01,1.610706448554992676e-01,1.561046391725540161e-01,1.791161894798278809e-01,2.932242490351200104e-02,1.669494360685348511e-01,1.571736037731170654e-01,1.002492010593414307e-01,-4.934348165988922119e-03,-9.273703326471149921e-04,-4.215098917484283447e-03,1.461136043071746826e-01,-1.469613052904605865e-02,5.656846013835092890e-08,2.224463038146495819e-03,1.645093411207199097e-01
1.538546103984117508e-02,6.743111461400985718e-02,7.814947515726089478e-02,8.269751071929931641e-02,1.006899252533912659e-01,-4.044789448380470276e-02,9.318672865629196167e-02,7.751472294330596924e-02,5.286150053143501282e-02,3.279466554522514343e-02,2.408481203019618988e-02,2.957259677350521088e-02,4.251779988408088684e-02,2.299889735877513885e-02,2.524509667978236394e-08,3.904858976602554321e-02,2.934103086590766907e-02
4.516609385609626770e-02,-4.889502190053462982e-03,-9.144413634203374386e-04,-2.149974554777145386e-02,1.115204580128192902e-02,8.595611900091171265e-02,4.940238781273365021e-03,3.401920432224869728e-03,-3.738185390830039978e-02,1.879703137092292309e-03,1.445020735263824463e-02,1.042408682405948639e-02,8.935824781656265259e-02,1.154921017587184906e-02,-2.261525651192641817e-07,1.784001104533672333e-02,1.339017301797866821e-01
9.988216310739517212e-02,4.740097373723983765e-02,5.781742930412292480e-02,4.945175722241401672e-02,6.135835126042366028e-02,-3.242751061916351318e-01,5.592154338955879211e-02,5.171416327357292175e-02,1.608605030924081802e-03,-1.319296211004257202e-01,-1.362501829862594604e-01,-1.330771893262863159e-01,1.101419180631637573e-01,-1.546574085950851440e-01,-1.214224942813757480e-09,-1.230327561497688293e-01,1.736660487949848175e-02
-9.546906501054763794e-02,1.997205018997192383e-01,1.746696382761001587e-01,2.017241120338439941e-01,2.608856558799743652e-01,1.546507179737091064e-01,1.977428793907165527e-01,1.868874877691268921e-01,1.771804988384246826e-01,-1.235932186245918274e-01,-1.399216502904891968e-01,-1.342409253120422363e-01,1.979641467332839966e-01,-1.124237999320030212e-01,6.179940470474321046e-08,-1.315019428730010986e-01,1.028315275907516479e-01
1.627722638659179211e-03,1.426918506622314453e-01,1.559036821126937866e-01,1.482717990875244141e-01,1.650943160057067871e-01,1.143914982676506042e-01,1.576393693685531616e-01,1.537643969058990479e-01,1.228725463151931763e-01,-1.486291438341140747e-01,-1.576588898897171021e-01,-1.479880213737487793e-01,1.778955757617950439e-01,-1.451470255851745605e-01,-2.437086834561341675e-07,-1.631818711757659912e-01,2.267859317362308502e-02
5.731518566608428955e-02,7.457371801137924194e-02,8.080083131790161133e-02,7.829006761312484741e-02,9.644250571727752686e-02,-8.514128625392913818e-02,7.840573042631149292e-02,8.557255566120147705e-02,6.443879008293151855e-02,5.374104529619216919e-02,5.348875746130943298e-02,6.227736920118331909e-02,5.905631929636001587e-03,5.678804591298103333e-02,6.219511305971536785e-08,6.784188002347946167e-02,-2.756674773991107941e-02
-2.081909328699111938e-01,5.939272046089172363e-02,9.163554757833480835e-02,5.767259746789932251e-02,6.276480853557586670e-02,-5.088241100311279297e-01,7.006430625915527344e-02,9.623388946056365967e-02,3.778750309720635414e-03,-3.361949920654296875e-01,-3.236164748668670654e-01,-3.241237401962280273e-01,1.755928695201873779e-01,-3.391442596912384033e-01,9.462205241561605362e-09,-3.318749666213989258e-01,2.155172377824783325e-01
-1.205416545271873474e-01,1.333584487438201904e-01,1.340112835168838501e-01,1.315243244171142578e-01,1.189511194825172424e-01,4.522915375559932727e-08,1.278451830148696899e-01,1.340299248695373535e-01,1.478970646858215332e-01,-2.232814580202102661e-02,-2.265002205967903137e-02,-2.177492901682853699e-02,-8.444578200578689575e-02,-2.451114915311336517e-02,1.640312206063754275e-07,-2.241547219455242157e-02,-2.239308804273605347e-01
-4.257482588291168213e-01,8.600658178329467773e-02,1.292853206396102905e-01,9.083963930606842041e-02,1.072774231433868408e-01,-1.031248331173628685e-08,1.160470470786094666e-01,1.291441768407821655e-01,8.536281064152717590e-03,-7.392504811286926270e-01,-7.381563186645507812e-01,-7.395552396774291992e-01,1.295344084501266479e-01,-7.433899044990539551e-01,2.449995690767536871e-07,-7.443365454673767090e-01,2.760717868804931641e-01
-2.380457334220409393e-02,-4.725911654531955719e-03,9.324348531663417816e-03,1.169232768006622791e-03,7.656417042016983032e-02,7.954049110412597656e-02,1.792484149336814880e-02,5.577941425144672394e-03,-4.317647218704223633e-02,2.366738580167293549e-02,2.889188379049301147e-02,2.631549164652824402e-02,-4.031480848789215088e-02,1.811813004314899445e-02,-8.621631764071935322e-08,2.231857553124427795e-02,-1.944912411272525787e-02
-1.690704749535143492e-07,6.250559181353310123e-08,2.585206857474986464e-07,1.077665032767072262e-07,-1.151185173853264132e-07,1.850288668947541737e-07,4.001027420486025221e-08,-1.251099401855526594e-08,-3.095896206062320744e-09,1.592684384377207607e-07,-1.275037249115484883e-07,4.304779466224317730e-08,1.909403692934574792e-07,-1.438804133613302838e-07,-1.011076236068220169e-07,3.636052881006435200e-08,-7.860211326260468923e-08
-3.412155210971832275e-01,8.099975436925888062e-02,1.226617023348808289e-01,8.622700721025466919e-02,1.018908321857452393e-01,-9.762892723083496094e-01,1.104187816381454468e-01,1.229748949408531189e-01,7.905171252787113190e-03,-4.622927308082580566e-01,-4.589537978172302246e-01,-4.550051987171173096e-01,2.671621143817901611e-01,-4.570086002349853516e-01,1.387918047157654655e-07,-4.531356394290924072e-01,3.711910247802734375e-01
-4.171846061944961548e-02,4.428149014711380005e-02,4.656307771801948547e-02,5.353855341672897339e-02,6.488700211048126221e-02,-1.372288167476654053e-01,5.863832682371139526e-02,4.965410381555557251e-02,1.890048198401927948e-02,1.584690809249877930e-01,1.546574681997299194e-01,1.618615239858627319e-01,9.906756132841110229e-02,1.605186015367507935e-01,2.151075761958054500e-08,1.632896661758422852e-01,9.168023616075515747e-02
2.098815059525804827e-07,2.114223995874908724e-08,-3.707582720835489454e-07,-1.123072621567189344e-07,-1.919269010386415175e-07,-1.452177116334496532e-07,3.742471221812593285e-07,4.153162791453723912e-08,2.188532590707836789e-07,-1.796012583099582116e-07,-8.987884569933157763e-08,-1.311056649910824490e-07,4.534995046157064280e-09,-1.451910094374397886e-07,-1.663501194570926600e-07,-2.115522903523014975e-07,1.642819995595345972e-07
-1.599489394266129239e-07,-4.475058545949650579e-08,-1.837946399518841645e-07,-1.837932899206862203e-07,-8.766930648107518209e-08,2.265245910848534550e-07,1.137200911216496024e-07,8.874847168272026465e-08,5.124428525959956460e-08,8.619563374168137670e-08,-6.410861619343677376e-09,1.818710693157754577e-08,1.136305982640806178e-07,-1.988656777029973455e-07,-2.408630166428338271e-07,1.456212430639425293e-07,-1.621158247644416406e-07
3.245332464575767517e-02,5.153396353125572205e-02,6.411758810281753540e-02,5.149048566818237305e-02,7.789894193410873413e-02,-2.520612813532352448e-02,6.658897548913955688e-02,6.602193415164947510e-02,4.507371410727500916e-02,-7.236044108867645264e-02,-7.206662744283676147e-02,-8.584344387054443359e-02,4.301027655601501465e-01,-9.138400107622146606e-02,1.765951509469232406e-07,-6.486134231090545654e-02,2.768084406852722168e-01
-8.536904305219650269e-02,9.580006450414657593e-02,9.440530836582183838e-02,8.658188581466674805e-02,7.898856699466705322e-02,-3.173968568444252014e-02,8.799880743026733398e-02,8.021912723779678345e-02,1.105579584836959839e-01,7.067368924617767334e-02,6.988576799631118774e-02,7.234375923871994019e-02,8.003033697605133057e-02,6.669832766056060791e-02,1.385225600891715203e-09,8.008088916540145874e-02,1.098664700984954834e-01
-5.807236954569816589e-02,2.189472503960132599e-02,2.503323182463645935e-02,2.001600153744220734e-02,6.973777711391448975e-02,9.549713879823684692e-02,2.663516812026500702e-02,2.413274906575679779e-02,3.782780840992927551e-03,4.073544964194297791e-02,5.499931424856185913e-02,4.991584643721580505e-02,5.400322377681732178e-02,2.854885533452033997e-02,-1.374110691898522418e-08,4.376398026943206787e-02,5.760705098509788513e-02
-2.391877770423889160e-01,7.224291563034057617e-02,1.209555864334106445e-01,6.807408481836318970e-02,7.984066009521484375e-02,-5.300758481025695801e-01,9.383395314216613770e-02,1.143803223967552185e-01,1.863580197095870972e-02,-3.516151607036590576e-01,-3.485381603240966797e-01,-3.593049943447113037e-01,1.826525777578353882e-01,-3.500466644763946533e-01,1.511908322981980746e-07,-3.550275266170501709e-01,2.749541103839874268e-01
-7.049705088138580322e-02,2.402568012475967407e-01,2.097973674535751343e-01,2.349767833948135376e-01,2.117654532194137573e-01,-1.115084984348868602e-07,2.143804281949996948e-01,2.095370590686798096e-01,3.033838570117950439e-01,-2.112156599760055542e-01,-2.238953858613967896e-01,-2.118274718523025513e-01,-1.025288254022598267e-01,-1.840056627988815308e-01,-7.856962014329837984e-08,-2.328969240188598633e-01,-7.504322379827499390e-02
4.956390336155891418e-02,1.479533733800053596e-03,8.583351038396358490e-03,4.259571433067321777e-03,1.816241815686225891e-02,2.327285148203372955e-02,1.175925644929520786e-04,2.255976572632789612e-02,-7.977485656738281250e-03,-2.475230954587459564e-02,-2.365187369287014008e-02,-1.583283580839633942e-02,1.559292674064636230e-01,-2.941408567130565643e-02,1.876795749922166578e-07,-2.108103781938552856e-02,1.429328620433807373e-01
1.052050665020942688e-01,1.672357320785522461e-03,1.141264569014310837e-02,-1.663194969296455383e-02,-4.036213755607604980e-01,4.633447900414466858e-02,-1.241646036505699158e-01,2.245587296783924103e-03,2.660645842552185059e-01,-7.792203873395919800e-02,-8.201541751623153687e-02,-8.970422297716140747e-02,-6.843221373856067657e-03,-7.675749808549880981e-02,2.424271201562078204e-07,-9.286683797836303711e-02,2.173117682104930282e-04
6.807181239128112793e-02,1.331299543380737305e-02,2.249954082071781158e-02,1.631461270153522491e-02,1.250086352229118347e-02,-2.334473282098770142e-01,2.308357693254947662e-02,2.290347404778003693e-02,-2.125545218586921692e-02,-1.623212546110153198e-02,-1.581708714365959167e-02,-2.255467884242534637e-02,-1.647044271230697632e-01,-1.452714856714010239e-02,5.605269137731738738e-08,-1.583451405167579651e-02,-1.913858413696289062e+00
-4.699451848864555359e-02,7.080608606338500977e-02,7.250767946243286133e-02,6.509314477443695068e-02,-7.158498279750347137e-03,2.600254714488983154e-01,5.083600431680679321e-02,7.546553015708923340e-02,9.620242565870285034e-02,2.126754075288772583e-02,2.590316906571388245e-02,2.076654322445392609e-02,8.706246316432952881e-02,1.592491567134857178e-02,-4.993298929889533611e-08,2.835597284138202667e-02,2.127999961376190186e-01
-1.091102696955204010e-02,7.950954139232635498e-02,8.351501077413558960e-02,8.354866504669189453e-02,1.012889966368675232e-01,3.738994523882865906e-02,9.153037518262863159e-02,9.690436720848083496e-02,8.819518983364105225e-02,-6.752090156078338623e-02,-6.595414876937866211e-02,-5.277437344193458557e-02,1.890976577997207642e-01,-6.756190210580825806e-02,5.375216360903323221e-08,-5.865657329559326172e-02,1.558039039373397827e-01
-1.435207575559616089e-02,4.971538856625556946e-02,5.768260359764099121e-02,5.163103714585304260e-02,2.086077071726322174e-02,6.929722428321838379e-02,3.851114213466644287e-02,5.095893889665603638e-02,5.671581253409385681e-02,1.863251924514770508e-01,1.880799531936645508e-01,1.912813931703567505e-01,-3.737137019634246826e-01,1.986013799905776978e-01,-6.195320878532584175e-08,1.957712471485137939e-01,-3.500207960605621338e-01
1.572940178107273823e-08,2.899403455103310989e-07,-1.174742010334739462e-07,-1.210647297966715996e-07,-3.752894883746193955e-08,-1.810148972936076461e-07,-1.171544994349460467e-07,4.608159898111807706e-08,-2.402462087047751993e-07,-2.800594245400134241e-08,2.360753086350086960e-07,1.790729271533564315e-07,1.365050561474845381e-08,-1.099130670922932040e-07,-2.216958527867518569e-08,-3.694670525078436185e-08,-1.842520873651665170e-07
-1.714853942394256592e-01,-6.066189147531986237e-03,1.038519218564033508e-01,-2.574074454605579376e-02,-1.999926418066024780e-01,7.216028869152069092e-02,-2.310249023139476776e-02,1.036459356546401978e-01,-1.131246052682399750e-02,-1.455209031701087952e-02,-1.391789317131042480e-02,-1.584425941109657288e-02,8.205941319465637207e-02,-1.382010709494352341e-02,5.001998459874812397e-08,-1.498737651854753494e-02,3.257024288177490234e-02
-1.177214272320270538e-02,-7.051174342632293701e-02,-2.254511713981628418e-01,-3.500468283891677856e-02,1.742980778217315674e-01,1.684703864157199860e-03,-1.150287594646215439e-02,-2.244462817907333374e-01,-2.520373761653900146e-01,1.987049542367458344e-02,2.335912734270095825e-02,1.952608488500118256e-02,1.135793626308441162e-01,1.169678010046482086e-02,-2.426847345304850023e-07,2.452589571475982666e-02,4.497468098998069763e-02
-1.054913923144340515e-01,1.792509257793426514e-01,1.780594587326049805e-01,1.694897413253784180e-01,2.218650728464126587e-01,1.417133212089538574e-01,1.805420517921447754e-01,1.697699129581451416e-01,1.475280672311782837e-01,-1.025840491056442261e-01,-1.010682731866836548e-01,-1.152214854955673218e-01,2.263150960206985474e-01,-1.134599819779396057e-01,-2.201860915818087960e-08,-9.431304037570953369e-02,1.295993626117706299e-01
-7.703850045800209045e-03,1.198709234595298767e-01,1.370911300182342529e-01,1.248496994376182556e-01,1.469299197196960449e-01,2.668927311897277832e-01,1.413981616497039795e-01,1.363330334424972534e-01,6.458022445440292358e-02,-8.194743841886520386e-02,-8.085408806800842285e-02,-7.922209054231643677e-02,8.547993749380111694e-02,-8.912718296051025391e-02,1.848494690648294636e-08,-8.153865486383438110e-02,5.700947344303131104e-02
3.001520596444606781e-02,1.557369530200958252e-01,1.901300400495529175e-01,1.673064082860946655e-01,1.874698549509048462e-01,1.252900063991546631e-01,1.920018792152404785e-01,1.871947199106216431e-01,1.012190952897071838e-01,-1.847455948591232300e-01,-1.822626888751983643e-01,-1.922222226858139038e-01,2.865465879440307617e-01,-1.906422823667526245e-01,9.033239933842196479e-08,-1.772139072418212891e-01,3.441883027553558350e-01
-6.052451953291893005e-02,-5.518333613872528076e-02,-5.801006253136620217e-08,-1.483018398284912109e-01,-4.475716650485992432e-01,4.007406532764434814e-02,-2.214291989803314209e-01,4.005284992558699741e-08,-1.788501577948409249e-07,-6.984266638755798340e-02,-6.951767951250076294e-02,-6.992690265178680420e-02,1.093609854578971863e-01,-7.078876346349716187e-02,8.611209523223806173e-08,-6.911699473857879639e-02,1.214665547013282776e-01
-5.017206072807312012e-02,4.549566656351089478e-02,5.200938880443572998e-02,3.628427535295486450e-02,6.122259423136711121e-02,-1.812794059514999390e-02,5.158742144703865051e-02,4.047224298119544983e-02,2.566758170723915100e-02,4.018818587064743042e-02,4.326041042804718018e-02,4.143775254487991333e-02,1.420999318361282349e-01,2.760616131126880646e-02,7.280053893055082881e-08,5.530758202075958252e-02,1.379064768552780151e-01
3.810812160372734070e-02,6.184900179505348206e-02,6.561235338449478149e-02,6.258127093315124512e-02,3.703537955880165100e-02,-1.366096436977386475e-01,5.402505397796630859e-02,7.855050265789031982e-02,6.922892481088638306e-02,2.009145915508270264e-02,2.558089792728424072e-02,4.000132903456687927e-03,4.348865151405334473e-01,5.864421371370553970e-03,2.127721359101997223e-07,2.353631146252155304e-02,3.635616004467010498e-01
-1.822676956653594971e-01,2.034015357494354248e-01,1.951481997966766357e-01,2.258901745080947876e-01,3.058410584926605225e-01,2.613031864166259766e-01,2.301972806453704834e-01,1.841711401939392090e-01,1.867575794458389282e-01,-7.550168782472610474e-02,-7.449937611818313599e-02,-7.666708528995513916e-02,1.500191539525985718e-01,-4.660252854228019714e-02,4.545311682591091085e-08,-7.346795499324798584e-02,8.020035177469253540e-02
-1.323408335447311401e-01,1.302837878465652466e-01,1.395823061466217041e-01,1.346674263477325439e-01,1.436057239770889282e-01,-2.716332860291004181e-02,1.477175205945968628e-01,1.402475237846374512e-01,8.026291429996490479e-02,2.424092777073383331e-02,2.617053315043449402e-02,2.572322823107242584e-02,1.782863736152648926e-01,1.890539750456809998e-02,-1.749549767282587709e-07,2.753530442714691162e-02,1.993045210838317871e-01
5.245642736554145813e-02,4.748142138123512268e-02,6.151505559682846069e-02,3.129845112562179565e-02,2.728490717709064484e-02,2.086449787020683289e-02,3.758919984102249146e-02,4.499115422368049622e-02,5.397788062691688538e-02,-7.031390070915222168e-02,-7.609501481056213379e-02,-6.589777022600173950e-02,9.544909745454788208e-02,-5.690587684512138367e-02,-1.824258504257159075e-07,-7.932239025831222534e-02,9.216901659965515137e-02
-1.205182909965515137e+00,1.554674003273248672e-02,6.119341775774955750e-02,2.432705834507942200e-02,6.869470328092575073e-02,-4.678555205464363098e-02,5.741266906261444092e-02,6.209616735577583313e-02,-8.289834111928939819e-02,-1.360101580619812012e+00,-1.360145807266235352e+00,-1.360294461250305176e+00,8.157951235771179199e-01,-1.361534476280212402e+00,-2.406932821941154543e-07,-1.360076904296875000e+00,9.147180914878845215e-01
