3.878656402230262756e-02,1.976175606250762939e-02,-2.272142795845866203e-03,-6.691008806228637695e-02,3.569011017680168152e-02,-4.036660864949226379e-02,-4.123060405254364014e-02,1.480485498905181885e-02,7.392932474613189697e-02,-5.681601818650960922e-03,-4.964831843972206116e-02,3.563455119729042053e-02,4.312795773148536682e-02,5.389644578099250793e-02,-5.039837583899497986e-02,-9.036107361316680908e-02
-9.180421940982341766e-03,2.198699163272976875e-03,1.658985274843871593e-04,-5.264328210614621639e-04,5.109766032546758652e-03,1.089300215244293213e-02,8.708749897778034210e-03,6.915124598890542984e-03,3.433070844039320946e-03,-9.565863758325576782e-03,-1.353271212428808212e-02,-1.286853849887847900e-02,4.072955809533596039e-03,8.344787172973155975e-03,-8.468215353786945343e-03,3.679852001368999481e-03
-3.061125874519348145e-01,3.323408961296081543e-01,2.941993176937103271e-01,-2.145418524742126465e-01,-2.122782319784164429e-01,-2.570271790027618408e-01,2.219821214675903320e-01,-2.020414322614669800e-01,-3.889671862125396729e-01,-1.813839226961135864e-01,-1.248837471008300781e+00,2.538022398948669434e-01,2.642752230167388916e-01,-2.778259515762329102e-01,-2.541827261447906494e-01,-2.179846316576004028e-01
-1.096196845173835754e-02,3.112530894577503204e-02,-8.017908781766891479e-03,3.129870444536209106e-02,2.365080825984477997e-02,-2.000313811004161835e-02,1.390403835102915764e-03,2.825110219419002533e-02,7.591975852847099304e-03,-6.175495684146881104e-02,-7.834743708372116089e-02,-4.953572992235422134e-03,-5.075301975011825562e-03,3.546901978552341461e-03,-3.963144961744546890e-03,4.082388058304786682e-02
