-5.539018275158014148e-07
2.339430693609756418e-07
-2.784439629976986907e-06
-1.031874603540927637e-07
-1.120184037972649094e-06
1.880039661728005740e-07
7.339703955722143291e-08
6.719777161379170138e-07
1.559326946735382080e-01
1.338059405497915577e-07
-2.260030100842413958e-07
-2.044603661488508806e-06
5.338493025419666083e-08
-5.679649461853841785e-07
1.077625739753784728e-07
-1.608183879397984128e-07
3.578366714052094721e-09
-8.043463708418130409e-07
-1.745505926464829827e-07
1.118179895343018870e-07
-8.464038501188042574e-07
1.321734828252374427e-07
1.658785322433686815e-07
4.593158564603072591e-07
-2.495324451956548728e-06
8.684816956520080566e-02
1.327565200881508645e-06
7.543550850641622674e-07
1.899516433477401733e-01
2.182861864566802979e-01
1.052817779623183014e-07
-1.817760590938632959e-07
1.024544985739339609e-06
2.128467428974545328e-07
1.187507407962584693e-07
5.582578523899428546e-07
2.763086740742437541e-06
4.227171359616477275e-07
-1.054003995193397714e-09
4.560128985531264334e-08
-2.954076535388594493e-06
-3.644791846113548672e-08
-3.145649714042519918e-07
3.592801363083708566e-07
-4.811206508748000488e-07
-1.083916345123725478e-06
1.155464346425105759e-07
4.118994638702133670e-07
-2.051267387059851899e-07
7.758648621347674634e-07
2.392100384440709604e-08
-2.549114242356154136e-06
-1.629622090604243567e-07
-2.320750809303717688e-07
1.792112016119062901e-06
-6.140976438473444432e-08
1.799456867956905626e-07
2.788742392567655770e-07
1.990281134567339905e-06
3.800818149102269672e-07
-1.079634557754616253e-06
-1.112777212597393373e-07
-2.299872932098878664e-07
1.450913259759545326e-06
-6.019882903274265118e-07
-3.943589277355386002e-08
-2.903877657445264049e-06
1.126601176792974002e-07
1.921214476396926329e-08
-6.082117209871285013e-08
7.111299993312059087e-08
5.035273034081910737e-07
2.881676852703094482e-01
2.937522367574274540e-07
-1.791615602542151464e-07
-2.022659373324131593e-06
-3.579455665203568060e-08
-7.830747108528157696e-07
1.001792213628505124e-07
2.778485850285505876e-07
3.749427719412778970e-07
-5.853078164363978431e-07
-2.606502036428537394e-08
-7.861306983159010997e-08
-8.695124620317074005e-07
-1.095101822556898696e-07
-1.380481933210830903e-07
4.202901209282572381e-07
-2.513312892915564589e-06
1.268318593502044678e-01
1.270590814783645328e-06
6.854478442619438283e-07
3.498990833759307861e-01
4.315292239189147949e-01
1.760186449928369257e-07
1.975053152136752033e-07
8.814219540909107309e-07
-8.138936635759819183e-08
-9.939480349885343458e-09
5.660294846165925264e-07
2.851445060514379293e-06
-6.478826009015392628e-08
-7.817271097110278788e-08
-4.871931835737086658e-08
-2.971978574350941926e-06
-6.206395397612141096e-08
3.838296791514039796e-08
3.209176782092981739e-07
-4.725459348264848813e-07
-2.064438604065799154e-06
-6.857292333961595432e-08
3.479734402844769647e-07
-2.949388431261468213e-07
1.112320092033769470e-06
1.986287401223307825e-07
-2.523661123632336967e-06
-4.389190735309966840e-07
-1.926136405927536543e-07
1.748422732816834468e-06
1.075790407867316389e-07
-1.450409836678545616e-08
-1.421470301465888042e-07
1.971672190848039463e-06
1.359911721010576002e-06
-1.503000135016918648e-06
1.541675800353914383e-07
1.156953430836438201e-07
1.050502760335803032e-06
-5.738792195916175842e-02
1.350717593595618382e-05
-2.873165765777230263e-03
-2.303165383636951447e-02
-3.344743046909570694e-03
5.309195071458816528e-02
3.522092083585448563e-05
2.519347146153450012e-02
2.642025053501129150e-01
-1.095255557447671890e-02
-1.593744382262229919e-02
7.613356411457061768e-02
-3.735701087862253189e-03
-9.411811083555221558e-02
1.702555891824886203e-05
-6.604827009141445160e-03
-2.088429173454642296e-04
-8.893854171037673950e-02
1.643713912926614285e-03
-1.520956680178642273e-02
-8.030354231595993042e-02
2.258716383948922157e-03
-2.691612462513148785e-04
-4.710848629474639893e-02
-5.097460374236106873e-02
1.771967709064483643e-01
-6.515978276729583740e-02
2.977291680872440338e-02
2.244089096784591675e-01
3.535913228988647461e-01
-1.124155241996049881e-02
-3.741448381333611906e-05
4.911860078573226929e-02
3.891782034770585597e-05
1.945853047072887421e-02
1.369207352399826050e-02
5.666877329349517822e-02
1.300653209909796715e-03
-1.932404562830924988e-02
-3.272721078246831894e-03
-1.044757068157196045e-01
-1.964679220691323280e-03
-3.688520984724164009e-03
-9.513860940933227539e-02
2.730151265859603882e-02
-2.583153918385505676e-02
8.211008273065090179e-03
-1.553233899176120758e-02
-4.518451169133186340e-03
-2.634261548519134521e-02
1.794698800949845463e-05
-1.132059767842292786e-01
-1.969774998724460602e-02
1.752419769763946533e-02
1.374862790107727051e-01
-5.022965371608734131e-03
3.092178143560886383e-03
2.604984445497393608e-03
6.087453290820121765e-02
1.383715588599443436e-02
-1.737232320010662079e-02
-9.055197588168084621e-04
-3.363911435008049011e-02
2.075249701738357544e-02
1.951734951433081733e-08
4.969752254169179650e-08
-7.641986599082883913e-08
-2.124693487814965920e-08
-5.794099422473664163e-08
-4.949869776282866951e-07
-1.012911781117509236e-07
-3.121632516922545619e-07
-1.285948837903561071e-05
2.941142724921519402e-07
-2.282660460650731693e-07
-1.074287411029217765e-06
1.883412039660470327e-07
-2.162573082387098111e-06
-6.657276685473334510e-08
2.326094090676633641e-07
-1.491826111532645882e-07
1.762678891736868536e-07
1.338203645673274877e-07
1.042852559862694761e-08
-1.390609156715072459e-07
2.692431451123411534e-07
-7.266790902349384851e-08
2.103417671150964452e-07
-1.276345340528450834e-08
-3.028625087608816102e-06
1.462288764741970226e-06
-1.540150719847588334e-06
2.299211919307708740e-03
2.045860588550567627e-01
8.657056582705990877e-08
-1.493749550718348473e-07
-6.857152925476839300e-07
5.612008635580423288e-08
-1.642339242380330688e-08
2.150726459149154834e-07
4.008087216789135709e-06
2.119867872352187987e-07
-2.048469013971043751e-06
-7.942306723407455138e-08
1.856547271472663851e-07
-1.551059511939456570e-07
5.843805084282394091e-08
7.940147952467668802e-07
3.989158869899256388e-08
2.653410547281964682e-06
1.635774822261737427e-07
-2.360011848168142023e-07
4.499589678630400158e-08
3.479171084563859040e-08
2.229078006621421082e-07
2.780823749048977334e-08
9.974528580869446159e-08
-1.116649968935234938e-06
-3.703657469600329932e-08
-2.098475277989564347e-07
7.788763412008847808e-08
-6.211880787532209069e-08
-1.873635255833505653e-07
-5.927905633029695309e-08
3.331581410748185590e-07
-8.327229039650774212e-08
5.307058472681092098e-07
-3.164709880820737453e-07
