1.347854663436010014e-06
9.153932296612765640e-06
3.154799640178680420e-01
3.591875383790466003e-07
1.073913201689720154e-01
8.609379082918167114e-02
3.005956113338470459e-02
2.590884221717715263e-03
-1.940754242241382599e-02
6.147024035453796387e-02
3.122082352638244629e-01
-2.775315195322036743e-02
2.391045214608311653e-03
5.280889570713043213e-02
9.888681233860552311e-05
9.868905879557132721e-03
2.094302772093215026e-06
-9.957670234143733978e-03
1.626593002583831549e-04
1.307614547840785235e-05
3.580907359719276428e-04
4.159032541792839766e-04
1.844058829192363191e-06
1.312027312815189362e-02
5.166633985936641693e-03
-3.713058680295944214e-02
2.583847567439079285e-02
2.049116119451355189e-06
-4.397213924676179886e-03
-1.192983537912368774e-01
-3.282508580014109612e-03
2.770568971754983068e-05
2.366282977163791656e-02
7.162673864513635635e-05
-9.120538085699081421e-02
2.751815319061279297e-02
9.759951382875442505e-03
1.705065078567713499e-04
2.324021235108375549e-02
1.193495045299641788e-04
5.043438868597149849e-04
-4.898167844658019021e-07
3.197917938232421875e-01
8.904213085770606995e-03
-1.112756319344043732e-02
9.856354445219039917e-04
-8.092433034789792146e-08
1.039479225873947144e-01
6.007123365998268127e-02
5.056722511653788388e-05
2.328358677914366126e-04
9.832766227191314101e-05
1.996447736019035801e-06
1.572054228745400906e-03
1.125785987824201584e-03
1.166988746263086796e-03
-1.492468868491414469e-07
2.427117806291789748e-06
5.126844553160481155e-05
2.457644541209447198e-07
1.475655881222337484e-04
-1.288598809878749307e-07
-3.244471177458763123e-02
2.291773073375225067e-02
-4.568697139620780945e-02
-1.268936991691589355e-01
1.458454728126525879e-01
4.718422985661163693e-07
1.038558315485715866e-03
1.134544089436531067e-01
2.938989363610744476e-02
1.006155158393085003e-03
-8.070512861013412476e-02
7.125701010227203369e-02
3.435118496417999268e-01
-6.233569234609603882e-02
9.042810997925698757e-04
6.721519678831100464e-02
5.343277464930906717e-08
-1.381887774914503098e-02
-1.648358011152595282e-05
-5.730487033724784851e-02
9.912148470903048292e-07
1.062906449078582227e-05
1.462355954572558403e-03
-2.056315679510589689e-06
1.509998241999710444e-06
1.018644310534000397e-02
-9.298969060182571411e-03
-7.971069961786270142e-02
1.285263150930404663e-02
-3.016595263034105301e-03
-6.011274829506874084e-02
-2.904788032174110413e-02
9.341798659079358913e-07
1.027282337418000679e-06
2.858901955187320709e-02
6.802340521971927956e-07
-4.411048442125320435e-02
3.360371105372905731e-03
-2.546570450067520142e-02
-2.198831225541653112e-06
-5.565940216183662415e-02
3.701863420246809255e-07
-4.981162026524543762e-03
-2.578144893050193787e-02
1.822166442871093750e-01
-3.717557061463594437e-03
-1.874184818007051945e-03
2.444475830998271704e-04
2.087720663013215017e-09
1.059959456324577332e-01
5.522737279534339905e-02
1.448399757464358117e-06
-7.767468225210905075e-03
1.286664087274402846e-06
1.785930976438976359e-06
1.297909903996696812e-07
-1.014608703553676605e-02
-1.029048115015029907e-02
-8.830274055071640760e-06
-5.923779681324958801e-02
-1.468005008064210415e-03
-2.016977873608993832e-07
-1.415933948010206223e-04
-1.459721516994250123e-07
-4.258499294519424438e-02
5.296899416862288490e-06
5.317215994000434875e-02
5.678151920437812805e-02
-4.652172699570655823e-02
2.578482963144779205e-02
2.909879432991147041e-03
3.262674435973167419e-02
1.292118709534406662e-02
5.124696716666221619e-02
-2.334467135369777679e-02
-2.964347042143344879e-02
-8.426600694656372070e-02
2.985342033207416534e-02
1.878138072788715363e-02
-1.274276245385408401e-02
1.868163526523858309e-04
-6.309597939252853394e-02
7.098072767257690430e-02
-1.909796893596649170e-02
8.744897693395614624e-02
3.688385710120201111e-02
-3.595801070332527161e-02
-2.199731580913066864e-02
1.635850220918655396e-02
-1.781896129250526428e-02
-1.072192937135696411e-01
-1.088813506066799164e-02
-1.114495657384395599e-02
-1.738232676871120930e-03
-3.025307878851890564e-02
-3.455128520727157593e-02
6.353028863668441772e-02
-3.963425382971763611e-02
1.648593880236148834e-02
-4.780507460236549377e-02
-1.698788441717624664e-02
1.386073790490627289e-02
-1.784648187458515167e-02
2.955492958426475525e-02
3.505664318799972534e-02
-2.717722766101360321e-02
8.639997243881225586e-02
1.035567149519920349e-01
-6.099189631640911102e-03
4.875445738434791565e-02
-4.351477697491645813e-02
-5.678362771868705750e-02
-6.430381536483764648e-02
4.479119554162025452e-02
2.844972349703311920e-02
-1.054360810667276382e-02
2.506719529628753662e-02
-4.063468426465988159e-02
7.448791712522506714e-02
-1.575712487101554871e-02
-9.641981124877929688e-02
-6.250408291816711426e-02
-3.187256678938865662e-02
-1.643499918282032013e-02
2.045075595378875732e-02
-8.634795434772968292e-03
-9.170702844858169556e-02
3.213841468095779419e-02
-7.556193508207798004e-03
2.690586820244789124e-02
1.380523599436855875e-06
-3.713160008192062378e-02
3.468535840511322021e-01
2.998477555138379103e-07
1.303941309452056885e-01
9.915804117918014526e-02
4.203720763325691223e-02
3.287271829321980476e-03
3.467054921202361584e-05
6.976353377103805542e-02
3.184499144554138184e-01
2.710497705265879631e-03
2.210327191278338432e-03
5.814964696764945984e-02
1.260512799490243196e-04
3.652513027191162109e-03
2.107767386405612342e-06
1.856720919022336602e-04
-1.664842851459980011e-02
1.441571112081874162e-05
8.875577477738261223e-04
4.434169968590140343e-04
1.902226358652114868e-06
1.270303688943386078e-02
6.360645056702196598e-05
6.247202982194721699e-04
2.731227315962314606e-02
3.215794095012824982e-06
-1.384612079709768295e-02
-3.818291472271084785e-03
5.132935941219329834e-03
3.147483948851004243e-05
3.289580717682838440e-02
-4.559274390339851379e-02
-4.502139613032341003e-02
5.114389583468437195e-02
1.037871930748224258e-02
1.449134579161182046e-04
3.354007750749588013e-02
1.343322801403701305e-04
6.866162270307540894e-02
-1.579698391651618294e-06
3.898603022098541260e-01
9.936819784343242645e-03
7.337128045037388802e-04
4.807355289813131094e-04
1.054880840456462465e-06
1.335845738649368286e-01
6.221493706107139587e-02
2.389465043961536139e-05
1.562605320941656828e-04
3.884775098413228989e-03
1.829202460612577852e-06
2.456505353620741516e-05
5.224102642387151718e-04
1.279516145586967468e-03
-1.010616301755362656e-07
-6.811508443206548691e-03
9.898227290250360966e-05
1.673972747084917501e-07
3.769797331187874079e-04
-1.463182002225948963e-07
3.226327244192361832e-03
1.612507924437522888e-02
