5.790570378303527832e-02
1.675812342227800400e-07
-1.420031310317426687e-07
1.216239979839883745e-07
-2.425307741305005038e-07
-6.395363527644803980e-08
-2.323087118566036224e-02
-6.688242405652999878e-02
6.929491291884914972e-08
3.834484145045280457e-02
1.351541243366227718e-07
-2.104219980537891388e-02
-3.433455526828765869e-02
-5.064427099910062680e-09
-7.331826168410771061e-08
2.776447445285157301e-07
-1.931438222527503967e-02
1.102972930766554782e-07
8.625803142786026001e-02
1.839949845816590823e-07
7.887395098805427551e-03
3.818813354428129969e-08
-1.137123817329666053e-07
5.880186706781387329e-02
2.475320361554622650e-02
4.263133928179740906e-02
7.991808104179654038e-08
3.389140963554382324e-02
2.004245658326908597e-07
2.160179519705707207e-07
-3.831054642796516418e-02
-5.847461149096488953e-02
-9.946528822183609009e-02
-2.609529905021190643e-02
-2.449838802931481041e-07
4.644931550501496531e-07
1.037487429300654185e-08
-5.471575539559125900e-03
-8.650909364223480225e-02
-1.916114836931228638e-01
4.733954339641854858e-10
-1.269961595535278320e-01
-2.524718070162634831e-07
1.669090750056057004e-07
5.783734470605850220e-02
5.483046174049377441e-03
-9.673600085079669952e-03
-3.692304715514183044e-02
6.783540840160640073e-08
-9.138596368529761094e-08
-3.072634153068065643e-02
5.787958201608489617e-08
-4.099849775229813531e-07
2.211902849376201630e-02
-3.064947691200359259e-07
6.826783716678619385e-02
5.330670305170315260e-08
-3.953082486987113953e-02
-4.136745133109798189e-07
-1.653569938753207680e-07
-3.927727043628692627e-02
-1.340310973318992183e-07
1.262870341633970384e-07
9.671905942809644330e-09
