-2.218257755259855912e-08,1.150614323819354468e-07,8.234576398535864428e-08,4.070311661052983254e-07,-5.704779937332205009e-08,-7.380789668331999565e-08,3.660946674699516734e-07,-9.069645479087284912e-09,-1.476101800790274865e-07,1.729921592641403549e-07,2.344703915468926425e-07,-2.300365906648949021e-07,4.630711103459361766e-08,2.064274440272129141e-07,1.843426673531212145e-07,9.997530980854207883e-08,-8.718910748939379118e-08,1.036008185906212020e-07,-1.172058574638867867e-07,1.552116941638814751e-07,-4.645786333412615932e-08,1.239625504467767314e-07,-1.561715947673292249e-07,1.001193368210806511e-07,1.869521497610548977e-07,8.080169067170572816e-08,-2.727761625465063844e-07,-3.772514745037369721e-08,-2.022891152364536538e-07,-7.327123796585510718e-08,-1.563088858347327914e-07,-1.181896109869740030e-07,-2.908688543357129674e-07,1.251677304026088677e-07,2.771450269278830092e-08,3.497021054954529973e-07,-3.004859294719608442e-08,2.653039246069965884e-07,-6.040774280791083584e-08,-1.113668872676498722e-07,-6.008905018006771570e-08,-1.172291135276282148e-07,-4.599763769874698482e-07,1.323051090906801619e-08,-5.740366404438645986e-08,9.767016706518916180e-08,1.011628825153820799e-08,-1.150776256508834194e-07,1.020032911469570536e-07,-8.597552891842497047e-08,-4.749955451188725419e-08,1.958293527337673368e-09,-3.393872418655519141e-07,2.020755118792294525e-08,2.730286894347955240e-07,-1.047318392011220567e-07,-1.160571727609749360e-07,-6.860773282824084163e-09,1.010782639809804095e-07,-5.707558514700394880e-08,-1.320832581086506252e-07,-9.419391933107590376e-10,-4.418395604943725630e-08,1.122039563483667735e-07
-6.835286114892369369e-08,1.414775141483914922e-07,2.599144295345467981e-07,-1.258466113540634979e-07,-8.187337918741377507e-09,-6.062092605674251899e-09,-1.449681263920865604e-07,-5.546279879808935220e-08,2.005030950158470660e-07,2.541076327133851009e-08,1.149928365862251667e-07,1.059198169173214410e-07,-9.218340579764117138e-08,1.245511072056615376e-07,9.087674612828777754e-08,1.642564058101925184e-07,1.217605216652373201e-07,-1.386223544841413968e-07,2.988624103750225913e-08,7.909760313395963749e-08,1.968722500578223844e-07,-9.383343524405063363e-08,5.939476466210180661e-08,4.279884251445764676e-07,9.730551653319707839e-08,8.599195666647574399e-08,1.148781549886734865e-07,-1.375189810914889676e-07,4.210719737329782220e-07,-7.046575944968935801e-08,-6.064580304609989980e-08,2.098289009211384837e-08,3.740944265473444830e-08,-1.156559079618091346e-07,-1.243377454329674947e-07,8.759710112826724071e-08,1.482644904626795324e-07,1.854853337590611773e-07,-1.212794700222730171e-07,-2.559522727096918970e-07,-1.136116001276832321e-08,4.867595038149374886e-08,-3.099299661357690638e-08,-1.017618203036363411e-07,-7.520996092580389814e-08,2.247866035531842499e-07,-1.350273350908537395e-07,4.025809907659549935e-09,-2.739415094765718095e-07,1.121701842521360959e-08,1.254028774155813153e-07,1.069206803094857605e-07,1.844011592311289860e-07,-2.041807078967394773e-07,4.740351045029456145e-08,-7.599438589522833354e-08,2.410472887959258514e-08,-2.849706106644589454e-07,-9.680828583213951788e-08,-2.010973929600368137e-07,3.515341120419179788e-07,9.169550452270414098e-08,-3.405704163128575601e-08,-6.680318165308563039e-08
-2.093151039161966764e-07,2.710281137296988163e-07,5.034594607877806993e-08,-5.019216331447751145e-08,2.218995831526626716e-07,2.667982812454283703e-07,-3.126873764358606422e-07,3.761049782724512625e-08,1.463257603973033838e-06,1.498316919423814397e-07,1.416609052284911741e-07,2.119724769045205903e-07,-3.680958116092369892e-08,-2.426660614673892269e-07,2.829711753804531327e-08,-1.070609627618068771e-07,1.118377781494928058e-07,-6.411605681932996958e-07,-3.812526128132986969e-10,-3.589370862755458802e-07,5.950917270070021914e-08,1.893699135280257906e-07,-1.527034214632294606e-07,-3.216775610326294554e-07,-9.827452629451727262e-08,1.394608943883213215e-07,9.570199921427047229e-08,6.759485415841481881e-08,1.629034841243992560e-06,-2.392391934336046688e-06,5.887196152798424009e-08,-1.033250711657274223e-07,8.196683154437778285e-08,3.069504117547694477e-08,6.699116283925832249e-08,9.268211442758911289e-08,1.810148120284793549e-07,-1.782560161700530443e-07,-7.539388491295540007e-08,6.124678986196840924e-09,-1.485560403580166167e-07,1.641343061464795028e-07,-1.323806912978398032e-07,1.152683566374435031e-07,1.598390042545361212e-07,-1.937275868613141938e-07,-2.633022688769415254e-07,6.440748023806008860e-08,-7.960539960549795069e-08,-2.876697067222266924e-07,-2.470587467939822091e-08,-2.268986349918122869e-07,1.614617417544650380e-07,-2.267495347041403875e-07,1.132410929471916461e-07,-6.981934319583160686e-08,2.231096800642262679e-07,-3.767125349440902937e-07,1.752028992996201850e-07,-1.253187997818372423e-09,1.031923773098242236e-07,1.958193074358405283e-08,-3.157813921461638529e-07,-1.080962803712282039e-07
-2.715060816171899205e-07,-8.437464771304803435e-08,7.043286842645102297e-08,9.077406559754308546e-08,-1.558839386461841059e-07,-5.897564392398635391e-08,-3.865948485781700583e-07,-1.335906176791468170e-07,2.483944285813777242e-07,-1.068034336526579864e-07,-7.430306681044385186e-08,9.172669024337665178e-08,9.729323835472314386e-08,1.032699827874239418e-07,-1.757220076115117990e-07,-9.085179186740788282e-08,-9.018260271886902046e-08,-2.326113746065061605e-09,3.792137803770856408e-08,1.750180018689206918e-07,1.389113748473391752e-07,-1.158712734650180209e-07,-6.040492905867722584e-08,2.895003170522159053e-08,9.904491093948308844e-08,-8.563159070718029398e-08,2.971419803543540183e-07,-3.324101527368839015e-08,-2.482091154831778113e-08,2.997122692249831744e-07,-2.897817275027136930e-08,1.713503223754742066e-07,8.341611845708030160e-08,-1.869996708592225332e-07,-2.073586102824265254e-08,1.984882089800521499e-07,2.452056548918335466e-07,-1.801104758669680450e-07,1.870791521696446580e-07,2.427516392344841734e-07,1.892346368492781039e-08,-4.515426255125021271e-08,-4.030110289932054002e-07,2.904145368631816382e-08,-4.442665968440451252e-08,7.026795145748110372e-08,5.199437680403207196e-08,2.466047810401050810e-08,6.992426904162130086e-08,2.145239008655153157e-08,7.417025926770293154e-08,1.488331378141083405e-07,-2.398212188836623682e-07,-7.491637887824253994e-08,1.559713496135373134e-07,-3.158010519754839152e-09,-6.222837356517629814e-08,-2.712026798690203577e-07,-2.381645884952376946e-07,2.699530057270749239e-07,-3.014880567420163970e-09,1.096664590249929461e-07,4.203926451396000630e-08,1.399781126565358136e-07
2.032362544923671521e-07,-3.870814850870374357e-07,-1.384833012707531452e-07,-2.870120319187208224e-08,-5.646865020025870763e-08,-4.623755955890374025e-08,2.065105775272968458e-07,-1.651373935374067514e-07,-5.568293914848254644e-08,1.678224066381517332e-07,2.817261588461406063e-07,-1.138904082154112984e-07,-2.230495255162168178e-08,-1.229291157756051689e-08,1.296416343166129082e-07,6.954407605341828003e-10,1.878122724008335354e-08,4.335834091762080789e-08,-2.040666089442311204e-07,-2.271223422667389968e-07,1.286731361460624612e-07,-4.231653747410746291e-07,1.563029599083165522e-07,-9.748688967192720156e-08,2.222758155312476447e-07,-5.710759864996362012e-08,6.991101741959937499e-08,-1.451761306725529721e-07,-2.868368653707875637e-07,-2.418088911326776724e-07,-9.183526827882815269e-08,1.218787737400361948e-08,-1.406449143814825220e-07,4.921515972533541117e-10,-7.111658106850882177e-08,-5.031954586343090341e-08,-1.278653201097768033e-07,-1.997321845692567877e-07,6.868182111929854727e-08,3.579619800575528643e-08,3.164269344324566191e-07,-1.305662777895122417e-07,3.950605886871016992e-08,4.194439640059499652e-08,2.755897696715692291e-07,1.346851661310211057e-07,1.641079983016879851e-08,1.109918983388524794e-07,4.871894887514827133e-08,1.151328774540161248e-07,-5.999048369176307460e-08,2.351816021928243572e-07,2.861656334118833911e-08,-2.242981906874774722e-07,1.084735412604231897e-09,-2.017541760324093048e-07,-1.860177434309662203e-07,-1.313363995336658263e-08,-1.595445269231277052e-07,-7.231861332002154086e-08,1.652019392395231989e-07,7.379915700767014641e-08,-1.107837732661209884e-07,-2.581933529199886834e-07
-7.150442904446663306e-09,-7.238407562226711889e-08,1.776225957428323454e-07,2.383459047905489570e-07,2.590056169538001996e-07,1.398935296492709313e-07,3.246153141844843049e-07,-3.428636432545317803e-07,7.940240465131864767e-08,1.907455384753120597e-07,1.067598205395370314e-07,-9.041229098727399105e-09,1.478546352018383914e-07,3.413079596725765441e-09,-2.024894740770832868e-07,-1.266792004628314317e-08,3.962665573453705292e-08,-2.895052375606610440e-07,1.124752344594526221e-07,2.969159851318181609e-08,7.439167148959313636e-08,-1.966603235814545769e-07,3.842370333018152451e-08,6.156754039920997457e-08,-6.594153223460352820e-09,-1.037484409494027204e-07,-1.081241762790341454e-07,1.039610069142327120e-07,-1.918780299092759378e-07,-2.264196865553458338e-07,-1.044118178583630652e-07,-1.901168076301473775e-07,-8.587955235839217494e-09,1.524828485699458724e-09,1.716583142297167797e-07,-3.290784889031783678e-07,1.854702560422083479e-07,1.144850472201142111e-07,-9.444071480402271845e-08,1.250276682185358368e-07,-7.193260387339250883e-08,3.848911092063644901e-07,-6.363203297610198206e-09,-1.664566866566019598e-07,8.200628087706718361e-08,1.950452421795034752e-08,-5.281071580043317226e-08,-3.857694963471658411e-08,-3.676142057429387933e-08,-2.951184399080375442e-07,8.310964716429225518e-08,-1.995756626627098740e-08,-6.581178269016163540e-08,-3.958563610240162234e-08,1.034718479786533862e-07,-1.789522769968243665e-07,5.794416679805181047e-08,2.303521107194228534e-08,2.500700304608471924e-07,1.530752342659980059e-07,-1.449565871780578163e-07,-2.489990436060907086e-07,-1.278686738714895910e-07,4.621154126027704478e-09
-1.388871595509044710e-07,-4.269464071171569231e-08,-1.752059404225292383e-07,4.822715737873295438e-08,1.291757598664844409e-07,1.375522629132319707e-07,3.155377825692085025e-08,1.169673993217656971e-07,7.475955499103292823e-08,-5.213483333932344976e-08,2.375050343061957392e-07,-1.894079417752436711e-07,-9.915677168237380101e-08,-2.708801503104041331e-07,-4.283942871552426368e-07,-1.950924257698716247e-07,-4.314945840633299667e-07,1.992118114912955207e-07,3.149210670017055236e-08,-1.525545356706459188e-09,3.622070110509412189e-08,2.826108982389996527e-07,-8.690761177376771229e-08,-9.146641843926772708e-08,-4.896058669601188740e-08,1.642598390638738692e-09,-1.615091491657949518e-07,9.513080101442028536e-08,-1.156202031893371895e-07,5.310546384862391278e-07,-4.349184052898635855e-07,1.177606065994041273e-07,-4.427128885708953021e-07,6.264906460273778066e-08,9.880395879235948087e-08,1.617770948314500856e-07,1.277550580880415509e-07,1.196814309878391214e-07,1.938668425793821370e-08,-1.023410760581100476e-07,-3.609844867469291785e-08,1.986013984378587338e-07,1.252080039648717502e-07,1.494416039804491447e-07,1.142781016483240819e-07,3.719250329936585331e-08,4.999611036282658461e-08,-1.444055186539117130e-07,1.732508536633758922e-08,8.538226836662943242e-08,2.031516004308286938e-07,4.046446520078461617e-07,1.327552752172778128e-07,-2.184606451294257567e-08,7.014249092662794283e-08,-8.305039322920038103e-09,-1.342622368838419789e-07,-2.111758874434599420e-07,-1.576260046931565739e-07,-1.678474177424504887e-07,-1.110460701170268294e-07,1.591794358546394506e-07,-1.959603110890384414e-07,-2.184631568979966687e-07
-3.462630404627020653e-09,-1.361577375291744829e-07,4.662987507231264317e-08,5.379806822247701348e-08,-1.433388376881339354e-07,-4.836807221408889745e-08,-1.915440748234686907e-07,-8.495236869521249901e-08,1.813546077755745500e-07,-4.781213291948915867e-08,9.389344768351293169e-08,1.938054765560082160e-07,-8.791035099875443848e-08,-8.214225033498223638e-08,-2.061048434143231134e-07,-5.333573938059998909e-08,8.448435551144939382e-08,-2.552805256073042983e-07,2.688263123218348483e-07,1.317515199161789496e-07,3.597519082632061327e-08,-6.299515575847181026e-08,1.360273387263077893e-07,-1.451536206786840921e-07,1.410977148452730034e-07,6.627329440789253567e-08,-1.654320840316358954e-07,-3.879352394875468235e-09,-1.577178920797450701e-07,5.949410706307389773e-07,-1.388225001619503018e-07,-2.266723129196179798e-07,-3.276456368439539801e-07,7.146202563035330968e-08,-5.638849742695128953e-08,1.252382464400625395e-08,-2.671606011972471606e-07,1.173828110268004821e-07,2.070313342983354232e-07,5.191558294370679505e-09,-1.133703975142452691e-07,-1.822346007429587189e-07,-2.610472051856049802e-07,-2.193181387610820821e-07,4.959503030477208085e-09,2.306342992142162984e-07,2.277328370325903961e-08,4.990055657572156633e-08,3.458833575109565572e-08,2.009922184242896037e-07,8.217634928087136359e-08,-6.163645593915134668e-08,3.928599667801790929e-08,2.401351650860306108e-08,1.058443643842110760e-08,-7.003754465273459573e-09,4.499727879192505497e-08,1.869291139655615552e-07,-2.222815993491167319e-07,-1.046790387704277236e-07,1.849791715358151123e-07,-5.814121450953280146e-08,4.109674733854262740e-08,-8.652521898966369918e-08
-1.150052071352547500e-06,-2.516503911920153769e-07,-1.015355834965703252e-07,-2.862342682874441380e-07,8.676001783669562428e-08,3.062306745960086118e-07,1.606653654562251177e-07,2.469775779445626540e-07,-1.399195298290578648e-06,-3.296541422059817705e-07,-2.724075045534846140e-07,5.574730721491505392e-08,1.041823693981314136e-08,-4.192489484466932481e-07,9.643174081475081039e-08,9.054565452970564365e-08,1.066537222982333333e-07,-6.479660328295722138e-07,6.390629891939170193e-08,-3.120783276244765148e-07,-1.209651685485368944e-07,1.777764424559791223e-07,-4.056419129483401775e-07,7.067520613190936274e-08,-3.254400837704451988e-08,-1.229689132742350921e-06,-9.070281947742842021e-08,9.902667841288348427e-08,-1.553177753521595150e-06,-1.538172682558069937e-06,-5.762947452581101970e-08,-1.801486320118783624e-07,9.214495548803824931e-07,-1.667179958531050943e-07,5.765400601376313716e-08,3.781681812142778654e-07,-1.433193403954646783e-07,1.022744839929146110e-07,-7.130334722660336411e-08,9.773494014098105254e-09,-1.384794074965611799e-07,1.153502964257313579e-07,8.756683911315121804e-08,-8.404699087805056479e-07,-5.350880272203539789e-08,-2.533797953674365999e-07,-1.035740098132009734e-07,2.605056792504001351e-08,-2.192826684677129379e-07,-6.903098892507841811e-08,-9.058814498530409764e-08,-1.104151692743471358e-06,-2.187941561260231538e-07,-8.457107725234891404e-08,-3.590241988149500685e-07,-1.438327075220513507e-07,5.239665767931001028e-08,5.816140813408310350e-08,9.545232160235173069e-07,9.328592653901068843e-08,7.448070249438387691e-08,-3.777778090352512663e-09,-2.431360996979492484e-07,-3.755419086814981711e-08
-1.055125917193144858e-10,-8.011272711883066222e-08,4.344980553128152678e-08,1.062315178046446817e-07,-2.273740662417367275e-08,-5.918523271475351066e-08,-4.260859611804335145e-07,2.058728796328068711e-07,-2.871721882513611490e-08,7.306483240654415567e-08,-4.350126658891895204e-08,-1.665312936438567704e-07,1.598925649659577175e-07,-2.865035071408783551e-07,7.224743114875309402e-08,1.154417503812510404e-07,3.938405654935195344e-07,2.144880006937910366e-08,1.840589192170227761e-07,3.742163912079377042e-08,4.404316911177375005e-08,-1.742437660823270562e-07,3.482317367797804764e-07,1.536510438882032759e-07,-9.906649722779548028e-08,-1.284234656395710772e-07,-8.650132343746008701e-08,2.684648237050168973e-08,-2.893696944283874473e-07,-6.229222293541170075e-08,-4.427849198407329823e-09,-2.165630093031722936e-07,-2.960420886211068137e-07,-6.111416439580352744e-08,2.664195051238493761e-07,6.488191095499473704e-10,-1.686319279770032153e-07,-1.669685900651529664e-07,-4.506962270056646958e-08,1.829998268476629164e-07,6.775993988128448109e-09,1.913981577672529966e-07,2.271061845249278122e-07,2.196652673092103214e-07,-1.714512620765162865e-07,9.200962836075632367e-08,-9.918110777107358444e-08,2.679390576076912112e-08,1.086090293256347650e-07,4.106740192355573527e-08,-6.241285888108905056e-08,-1.856470674965748913e-07,-9.456927330120379338e-08,4.018817634232618730e-08,-2.965427725598601683e-08,2.057075647599049262e-07,-3.808229465107615397e-08,1.837725989162208862e-07,-5.523127200035560236e-08,-7.978663063568092184e-09,8.751650515392839225e-10,-1.189362066611465707e-07,-1.020316986455327424e-07,2.270687993188857945e-08
2.008590485047534457e-07,2.056231238611871959e-07,-1.326279441826727634e-08,1.731659864390167058e-07,-7.678095670371476444e-08,1.215848470792479930e-07,-4.139009490700118477e-07,-8.845767496268308605e-08,-4.592612867782008834e-07,3.771097922822264081e-08,-3.043729435159292507e-10,1.432241134580181097e-07,2.287634259801052394e-07,1.404668665827557561e-07,9.365165709596112720e-08,-1.253146848512187717e-07,6.524536644292311394e-08,-1.035868351095814432e-07,2.147085922388214385e-07,1.181223225898975215e-07,1.283012007746719974e-08,-6.899433913076791214e-09,-1.091166055289249925e-07,-1.138097616149025271e-07,-1.526840804899620707e-07,-3.584528656119800871e-07,1.413894636925761006e-07,1.280957206972743734e-07,-4.752766358251392376e-07,-3.885932642333500553e-07,2.933618645784008550e-07,-1.939654623583919602e-07,4.973023592924619152e-08,6.829832699395410600e-08,-6.184038880974185304e-08,-3.947874347431934439e-07,9.219282333106093574e-07,8.839860043963199132e-08,1.925315586959186476e-07,-1.746180977590938710e-08,2.218972383616346633e-07,-9.736074702004771098e-08,1.228101780270662857e-07,-2.625386663623885397e-08,-2.209740017633521347e-07,-1.947234835597555502e-07,-2.619137831061379984e-07,2.735860391567257466e-07,-1.553969894985129940e-07,-3.162709276693931315e-07,2.062084547560516512e-08,-2.346039984502112929e-08,3.684401121972769033e-07,-3.229465619369875640e-07,6.124341780378017575e-07,1.556131792312953621e-07,-4.946044640519176028e-08,-1.306056418570733513e-07,-4.770153694266809907e-08,-7.449913397294949391e-08,4.626584626521434984e-08,-2.787326138786738738e-07,3.318147037134622224e-07,8.753492863888823194e-08
-4.507858477609261172e-07,-8.221780234407560783e-08,-1.759536694123653433e-08,-1.913736156211598427e-07,9.647203569329576567e-08,5.205177089351309405e-08,3.910238604021287756e-07,7.773778065711667296e-09,-1.534956027171574533e-06,6.734105539862866863e-08,-9.038261111760093058e-11,2.830491041549976217e-07,1.670067746317727142e-07,1.144988317491879570e-07,1.494330348350558779e-07,1.368868254303379217e-07,-8.473655555008008378e-08,-1.713273292125450098e-07,6.213011971567539149e-08,-1.910372446900510113e-07,-1.141441572372059454e-07,-1.325189344925092882e-07,-3.749385868445642700e-08,-1.243157754515777924e-07,1.091251959906003322e-07,-5.060326770944811869e-07,-4.234456696394772734e-07,1.006715208973218978e-07,-1.409322976542171091e-06,-1.779986291694513056e-06,3.119829443676280789e-07,-1.787680190545870573e-07,4.552483687803032808e-07,-8.155839736900816206e-08,2.733281405653542606e-07,-1.722574416440636469e-09,2.940082310942671029e-07,9.897115660351119004e-08,-6.814951802880386822e-08,-7.454942618778659380e-08,-7.139256297250540229e-08,1.736670185437105829e-07,2.055067511719244067e-07,1.984062247828433101e-09,-1.137997003297641641e-07,-2.340717060178576503e-07,-4.786035034953783907e-08,9.841442327740423934e-09,-1.553981689994543558e-07,-2.361405293527241156e-08,-1.203429604856864898e-07,-5.268396989777102135e-07,1.800618463221326238e-07,3.690262246891506948e-07,2.203839244430128019e-07,2.896217949910351308e-07,2.039511315388153889e-07,5.480150733205846336e-08,-1.375136093884066213e-07,-4.105032758161542006e-08,1.111583571855589980e-07,1.808819405368922162e-08,1.701311092006108083e-08,4.146212688738160068e-07
1.012707215863883903e-07,1.522077326399084996e-07,6.660361151489269105e-08,-1.534826878923922777e-07,4.234933896896109218e-07,-1.796035746792767895e-07,-2.065217188373935642e-07,3.199774889495188290e-09,3.944105486652915715e-08,-7.922105282887059730e-08,-5.930375479579197417e-08,-1.262519333522504894e-07,-1.208389903695206158e-07,-1.053845224419092119e-07,-7.514694999599669245e-08,2.208609828358021332e-07,-1.386631964805928874e-07,-1.419828095094999298e-07,4.446284833647951018e-07,1.115329828493827335e-09,5.028706695497930923e-08,5.242948120098844811e-08,2.569696846421720693e-07,-6.714795830475850380e-08,-8.343803870047850069e-08,3.297619244335692201e-08,-1.048616269372359966e-07,-1.600573895643719879e-08,-5.372879741116776131e-08,-8.530276573992523481e-08,-2.140385113591491972e-08,2.150226805497368332e-07,1.259559638810969773e-07,3.505437859985249816e-07,-2.224896888947114348e-07,-8.613420732217491604e-08,-1.047883415594696999e-07,4.018336312583414838e-07,-1.004563046080875210e-07,7.636428023261032649e-08,8.768101622536050854e-08,8.984603994122153381e-08,-5.644954725880779733e-08,8.200184709039604058e-08,1.736408421493251808e-07,2.430764993732736912e-07,1.275214174256689148e-07,9.043674253916833550e-08,2.053984076155757066e-07,-2.163550334444153123e-07,-5.273174963349447353e-08,5.375621370262706478e-08,-2.526140718828173704e-08,2.789276720704947365e-07,8.005030593949413742e-08,-1.838129861653214903e-07,3.667136923013458727e-07,-1.515213625680189580e-07,-2.189020520404483250e-08,-5.607461872614294407e-08,-7.734033147244190332e-08,-4.185957607205637032e-07,1.496466239814253640e-08,-2.438015656025527278e-07
-2.518815165331034223e-07,8.025107689491051133e-08,-1.363442159174610424e-08,-1.011237955594879168e-07,3.022294947641057661e-08,3.211744399322924437e-07,-2.901258788767790975e-08,2.210235265920346137e-07,8.298102329717949033e-07,-1.363991088965121889e-07,-8.727644029704606510e-08,-2.418976805529382546e-07,-5.710978712158976123e-08,-1.843976775717237615e-07,8.246941973766297451e-08,-3.766976774954855500e-08,4.196468950112830498e-08,-8.619056046654804959e-08,-1.087893863882527512e-08,2.006573964763447293e-07,-3.578594771624921123e-07,5.770559141637932044e-08,1.563703193596666097e-07,-8.104827031729655573e-08,-2.018553999505456886e-07,6.860052508272929117e-07,1.080221068150422070e-07,-1.387169845656899270e-07,7.831855555195943452e-07,-3.099471967971112463e-08,1.647614311650613672e-07,6.464376411940975231e-08,-6.962412424371677844e-09,1.644204843387342407e-07,9.972604431141007808e-08,1.293439026994747110e-07,5.207613185120862909e-07,5.185960461062677496e-08,1.710327239834441571e-07,9.054551952658584923e-08,-5.187092977365637125e-09,2.209871752256731270e-07,-5.542657532942030230e-08,5.933964430937521684e-08,1.828773292800178751e-07,-5.565565075471567980e-08,-8.646455285088450182e-08,-4.091278071882697986e-07,-2.732299435592722148e-07,-5.859687490783471731e-08,1.715023643100721529e-07,-2.809980799156619469e-07,-2.160429879438652279e-08,7.226046250252693426e-08,2.712535618343281385e-08,6.288814091703898157e-08,-4.868292879933733275e-09,8.391685923925251700e-08,1.061107113287107495e-07,2.239897511913113703e-08,-2.513348533739190316e-07,9.011053236918087350e-08,-1.077520366266071505e-07,8.831970177425318980e-08
-2.475010951741296594e-08,4.900317094325146172e-07,-2.357087147686343087e-08,-2.410403112662606873e-07,-4.480390103367426491e-08,1.619418412701634225e-07,2.720300358305394184e-07,-6.275121933185801026e-08,-7.471299312555856886e-08,5.360816501820409030e-08,-7.740254659438505769e-08,-3.797663623572589131e-07,-1.072080806352460058e-07,6.476085445683565922e-08,1.758416168229359755e-08,1.241475988678075737e-08,6.503183413997248863e-08,1.420311548372410471e-07,-9.242866916281400336e-09,-1.134479248321440537e-07,1.186082769777385693e-07,-2.383652741855257773e-07,-7.061667872676480329e-08,9.810636214524492971e-08,7.969238424720970215e-08,-3.651374314017630240e-08,1.692489774995920015e-07,4.587233704000936996e-08,1.328461252114720992e-07,1.064889474378105660e-07,-1.885279914404236479e-07,-5.506519684672639414e-08,1.956696280558389844e-07,9.808005074773973320e-08,3.403714643468447321e-08,7.733473950111147133e-08,-1.639520235130476067e-07,1.842809922436572379e-07,-6.431157828501454787e-08,-1.400208020641002804e-07,-2.519152531021973118e-08,1.214004186067541013e-07,-8.071509682849864475e-08,3.913477042427615515e-10,8.295560860460682306e-08,1.602393808752822224e-07,-3.461791209247166989e-08,2.431580803374799871e-08,-2.048531371201534057e-07,-3.350423583015071927e-08,-8.103688031724232133e-08,6.449480594028500491e-08,-3.828368377867263916e-08,2.695746275094279554e-07,-4.244242290951660834e-08,-1.209651117051180336e-07,3.290245729203888914e-07,2.603435689252364682e-07,-8.909184501249001187e-09,-1.202670887323620263e-07,-1.050808440261619126e-09,3.209961718653175922e-08,3.807710982073331252e-07,-1.771164477304409957e-07
-5.793825863520396524e-09,9.157424329941932228e-08,3.409613213989359792e-07,8.784130045569327194e-08,-1.828132241143975989e-07,2.053591003914334578e-07,-1.961729481081420090e-07,1.765826453947738628e-07,-5.695400773220171686e-07,-1.209860585049682413e-07,-1.199211965285940096e-07,1.547138879232079489e-07,-1.417863337849212257e-08,-1.684459363104906515e-07,-2.675385530892526731e-07,1.153343198723177920e-08,-1.601157464392599650e-07,8.027674169852616615e-08,-1.671603833131030115e-08,-1.185465734465651622e-07,-5.578472794809385960e-08,-2.163596590776251105e-08,1.484580849364647293e-07,-1.143533268077590037e-07,1.849272734943951946e-07,-1.306619736851644120e-07,-4.617855964283990033e-08,-1.431899221415733336e-07,-1.029376974770457309e-07,-3.009810711773752701e-07,7.779919997119577602e-08,1.164025817956826359e-07,-1.796753537064432749e-07,5.727349972062256711e-08,-1.324510492395347683e-07,7.643852484306989936e-08,1.800465412316043512e-07,-3.840979729829996359e-07,2.373507612674075062e-08,-3.690751526619351353e-08,-6.218608916697121458e-08,2.111778343305559247e-07,9.664086775273972307e-08,7.426902470797358546e-08,2.585945537703082664e-07,1.759229064646206098e-07,-3.208996872672287282e-07,2.811270576330571203e-07,7.746756125470710685e-09,6.568467370016151108e-08,-1.129477738004425191e-07,6.506388672278262675e-08,-6.818875419867254095e-08,1.603676338390869205e-07,1.012809747180654085e-07,-1.504142375097217155e-07,6.599584878586028935e-08,6.795855966856834129e-08,1.623347998247481883e-07,-1.955488357907597674e-07,-8.343593371762381139e-09,9.911837395293332520e-08,1.025588858283299487e-07,-1.565336305020537111e-07
-1.584337496751686558e-07,-3.415076577084619203e-08,9.503937192789635446e-09,-2.136438865818490740e-07,4.412386189756034582e-08,9.635735409574408550e-08,1.520169945479210583e-07,8.987816357830524794e-08,1.120465640269685537e-07,-1.413951196127527510e-07,-2.028980077284359140e-07,-2.041865201363179949e-07,1.547679495672582561e-08,4.235264157159690512e-07,5.005875891583855264e-08,1.995285003886237973e-07,9.180118354379374068e-08,1.532353337552194716e-07,4.735240466402501625e-08,-1.455847353781791753e-07,-2.472254152507957770e-07,-1.488878496047618682e-07,1.750778864106905530e-07,-2.400714826933381119e-08,2.543224297824053792e-08,-1.865266909817364649e-07,-4.211101156670338241e-07,6.921227679868025007e-08,1.219610226144141052e-07,3.399904713319301663e-08,-1.691536510861624265e-07,3.864891766625078162e-07,-8.683083585481199407e-09,-6.685053222099668346e-08,7.088175379976746626e-08,1.212131905958813149e-07,2.508897800623799412e-08,1.010878918350499589e-07,-5.102759104147480684e-09,-4.673981948144501075e-07,1.618765566036017844e-07,9.995873284651679569e-08,6.006914077261171769e-08,1.038921695339922735e-07,3.693552130812349787e-08,-1.746067113117533154e-07,-6.768379989807726815e-08,4.355220895035927242e-08,-5.252560697499575326e-08,4.260352781670917466e-08,5.761764398926061403e-08,-9.722416649537990452e-08,5.227816401998097717e-08,1.345005244957064861e-07,5.927859092480503023e-09,-8.153187991410959512e-08,1.015871760046138661e-07,-1.209596405260526808e-07,3.192671016449821764e-08,-1.811273051544048940e-07,2.594300383407244226e-07,-3.201625631277238426e-08,1.444568766828524531e-07,-1.230016266617894871e-07
-2.827366358815197600e-07,-9.756458752008256852e-08,-1.143795529401359090e-07,8.628991565728938440e-08,-1.400939595441741403e-07,-2.581830216286107316e-08,7.518141842410841491e-08,1.635072237604617840e-07,1.120827619160991162e-06,-1.719128448485207628e-07,7.437472504534525797e-08,-2.616485694773018622e-08,-6.775801608682741062e-08,-2.147700399746099720e-07,-2.095766120646658237e-07,8.457763556179997977e-08,-1.574881736132738297e-07,-3.246058781769534107e-07,1.607672714953878312e-07,-2.238899909912106523e-08,-8.287701547260439838e-08,1.975035690549020728e-09,7.786507438822809490e-08,2.327407742086506914e-07,1.127754387653112644e-07,3.739126270829729037e-07,-2.033287671565631172e-07,-1.597582013346254826e-07,1.175952206722286064e-06,2.209298486377520021e-07,4.818413685825362336e-07,-1.239134945762998541e-07,2.310454618736912380e-07,7.985883065941834502e-09,2.021323197709534725e-08,-1.839824363969455590e-07,2.719991876176663936e-08,3.607966192475942080e-08,1.214861669041056302e-07,-1.766663082491959358e-08,-3.835528517015518446e-08,-4.232051651342771947e-07,1.119925414627687132e-07,-3.956593985776635236e-08,-1.301019949551118771e-07,-8.802739159818884218e-08,1.802817166662862292e-07,3.557279981691863213e-08,-5.607906139459828410e-09,-3.053814339182281401e-07,-2.416689710571517935e-07,-7.267146884260000661e-08,-6.507490724061426590e-08,1.666196567384758964e-07,-1.260802235947267036e-07,-1.135636862326094843e-10,-2.810658017438072420e-08,-9.989641114316327730e-08,-3.747978496448922670e-07,-1.870570685014172341e-07,4.592723001906051650e-08,-5.196891095238242997e-08,-1.247245933200247237e-07,3.135352955041526002e-08
2.412239439308905276e-07,2.544969390783080598e-07,2.113986425911207334e-07,-5.229292909803007205e-08,5.532116276185661263e-08,5.045689022153965198e-08,-8.084014524456506479e-08,1.242591736172471428e-07,-5.214614162696307176e-08,-3.891384210419346346e-07,6.280211550802050624e-08,2.608951943372517235e-09,-8.043351584774427465e-08,-1.684576034222118324e-07,-2.548853785810933914e-07,-8.632962078536365880e-08,4.382565634841739666e-07,-1.292425366727911751e-08,6.399283591917992453e-08,1.640675293401727686e-07,8.694799902286831639e-08,1.589369560406339588e-07,2.164913439628435299e-07,-7.487636821679188870e-08,2.823505838023265824e-07,-1.165017522453126730e-07,1.002662202154169790e-07,2.057125385590552469e-07,-5.223260401976403955e-08,-7.175700034167675767e-08,-1.231822466252197046e-08,-2.160415704111073865e-07,1.331594035036687274e-07,1.842273462671073503e-07,6.546152775399605162e-08,1.338356980795651907e-07,4.074520916219626088e-07,4.226992018629971426e-07,-1.075934790151222842e-07,-2.826700153946148930e-07,8.739732493268093094e-08,-7.653949474217824900e-09,5.670923730605181845e-09,-3.012813110103707004e-08,4.595034965859667864e-07,-9.679731682865622133e-09,1.046888513656085706e-07,4.340675374692182231e-08,9.662942801469398546e-08,-1.349829119590140181e-07,2.485215020442410605e-07,-1.657784842734599806e-08,2.438419528516533319e-07,-2.046071472250332590e-07,3.227629008506482933e-08,6.117591055954108015e-08,1.073705888643416984e-07,-1.074105497878008464e-07,-1.596294367800510372e-07,-3.333373399527772563e-08,2.545423605226915242e-08,3.741291365599863639e-08,-8.695297282201863709e-08,1.337149200253406889e-07
2.075374112564531970e-07,3.056410236013107351e-08,1.320207019261943060e-07,1.839662822078480531e-08,-2.622486761083564488e-07,-1.763481236594088841e-07,-1.165378620271440013e-07,-8.065060086437370046e-08,3.434368238686147379e-07,1.953586377112515038e-07,-4.451772497304773424e-07,2.623338213325610013e-09,1.672041918254763004e-07,2.148000532997684786e-08,8.324021649741553119e-08,2.139822754543274641e-07,1.560347442364218296e-07,-1.310181687586009502e-07,-8.305990917278904817e-08,-1.162466389814653667e-07,-1.580644521936847013e-07,-1.136373981580618420e-07,1.000648168769657786e-07,-1.618289360294511425e-07,1.154385809165603405e-09,4.095937526926718419e-07,-8.648535043676019995e-08,1.360271451034122947e-08,-4.172635925669965218e-08,-2.902232765222834132e-08,1.144415406884036202e-07,4.621358584699919447e-08,-1.156724920292617753e-07,1.711147206151508726e-07,2.732214454681525240e-07,1.247598078180089942e-07,2.020473885977480677e-07,1.723606430914514931e-07,1.076556017665097897e-07,1.227442947282497698e-08,8.891554159617953701e-08,9.098938136276046862e-08,1.559392899252998177e-07,-4.344468251815669646e-08,-3.574029676656209631e-07,2.390412490171911486e-08,-2.043110072236231645e-07,-1.823335371575751651e-09,-1.653004915169731248e-07,-6.146073872059787391e-08,1.250600547564317822e-07,3.656780833694028843e-08,5.425681948167948576e-08,-1.689874267185587087e-07,-2.194430805957381381e-07,4.839156986236048397e-08,-2.890823402879050263e-08,2.052803438346018083e-07,-7.799035195432679757e-09,-1.403554250600791420e-07,-5.733646801786562719e-08,-1.676018257512623677e-07,-1.386974730621659546e-07,-4.627318972438843048e-08
2.131474161615187768e-07,-5.335358110869492521e-08,1.726182752292970690e-08,-5.119633073036311544e-08,-1.031507679272181122e-08,-1.957588935397325258e-08,-1.970920635585571290e-07,-6.563573151652235538e-08,-1.736718502343137516e-08,-1.019560471604563645e-07,1.635756774476249120e-08,1.538519569521668018e-07,4.520655139117479848e-08,4.480670838802325306e-07,1.501861390806880081e-07,9.163466430095468240e-09,2.691657527975621633e-07,8.057755707113756216e-08,8.009708807321658242e-08,1.759500207754172152e-07,3.138956401471659774e-07,-1.662254689449582656e-08,1.829052251878238167e-07,-1.314926834083962603e-07,-1.343868376579848700e-07,-1.893194934154962539e-07,-1.661414614773093490e-07,-2.687057758521405049e-07,-2.218916677065863041e-07,-2.766116224961479020e-08,1.910032949581363937e-07,-6.232076543710718397e-08,-2.882867704556701938e-07,1.685617547764195479e-07,-2.557727363239337137e-08,-1.068729460484973970e-07,-1.548953889596305089e-07,-8.880638091568471282e-08,-1.789751422620611265e-07,9.106445730822088080e-08,-7.736702656302441028e-08,-2.481016103672573081e-08,2.079774219509999966e-07,4.229205075034769834e-08,2.779944168196379906e-07,-1.291584226237318944e-07,4.492937932809581980e-08,-2.905478524439786270e-08,7.656213085738272639e-08,3.269381068093935028e-07,-7.608472429865287268e-08,1.951830341795357526e-07,-8.536795093050386640e-08,6.441864996986623737e-08,2.746958784882735927e-07,-3.330128395262477170e-09,-1.525754527165190666e-07,-9.828397651290288195e-08,-6.397011986791767413e-08,-1.308040822323164321e-07,1.258712387652849429e-07,-2.554298816903610714e-07,2.620567158828635002e-07,2.079454333170360769e-07
-2.778789394142222591e-07,1.225991468345455360e-07,4.823668291464855429e-07,-1.075104449910213589e-07,-4.711774792554024316e-08,-5.856700369122336269e-08,2.597511183921596967e-07,-1.845470762873446802e-07,-1.517705072728858795e-07,-9.984907478610693943e-08,1.410426619941063109e-07,3.914385615644278005e-08,-7.600731066759180976e-08,-5.394553070914298587e-08,-8.718128441387307248e-08,-6.460815882292081369e-08,-2.083875330072260113e-07,-9.325197680709607084e-08,3.955189953330773278e-08,-6.993461454385396792e-08,-2.821602720359805971e-07,1.289583480001965654e-07,-9.046626558983916766e-08,-6.470558844284823863e-08,-3.578487195454727043e-08,3.131592904992430704e-07,1.384009351568238344e-07,1.177922470674275246e-07,-1.486631759917145246e-07,-1.196561072447366314e-07,8.501701387331195292e-08,2.020794056534214178e-07,-8.578814458815031685e-08,1.231674247037517489e-07,5.675697778428911988e-08,6.616086523081321502e-08,5.316758233675500378e-08,8.766954096017798292e-08,2.870550304123753449e-07,-6.112112060918661882e-08,-1.844146595431084279e-07,2.754452488318293035e-08,-4.896803034171171021e-07,1.059075813714116521e-07,1.119366572766011814e-07,-1.165975902495119954e-07,-1.720569713370423415e-07,4.447448631594852486e-08,-7.651535582908763899e-08,-3.682086635592440871e-09,-5.809133440948244242e-08,1.445919792786298785e-07,2.181784175547818450e-08,3.604248277611077356e-08,7.582423933172321995e-08,1.565593521490882267e-07,-1.123814001857681433e-07,-1.623718617338454351e-07,-1.559039830567598983e-08,-1.662789941292430740e-07,8.217547531330637867e-08,3.445858709483218263e-08,-3.179340808401320828e-07,8.303454279712241259e-08
6.022533938221386052e-08,6.809012381703283268e-11,1.441604098317839089e-07,-2.363445332775881980e-07,-1.119386041636971640e-07,-1.700496454759559128e-07,-2.842025423888117075e-07,4.803460456059838179e-07,-1.065301162839205062e-07,6.765074545000970829e-08,-1.277249737086094683e-07,8.490022906926242285e-08,-8.142504981378806406e-08,-2.536869203595415456e-07,-5.199391850396750669e-08,-1.952449366626751726e-07,-1.472809163516330955e-08,1.278675654248218052e-07,2.447688984830165282e-07,-5.072778819226186897e-08,-6.050186129868961871e-08,-1.123539519198857306e-07,3.017008154415634635e-08,-6.666861196436002501e-08,-3.227116351922632020e-08,7.900820975237365928e-08,-2.001095964487831225e-07,-5.517507162267065723e-08,-1.295795044597980450e-07,7.495049203498638235e-08,-3.918327884377958981e-09,-4.569998779402340006e-08,-2.972845436488569248e-07,2.045549791773737525e-07,-1.260261228708259296e-07,-2.196375277208062471e-07,-1.067886117311900307e-07,1.955296591305000220e-09,-1.611106625887259725e-07,1.751550797735035303e-07,-3.139422233289224096e-08,-7.901420673306347453e-08,2.722855718673145020e-08,3.595333453176863259e-07,1.767848516465164721e-07,3.048273242711729836e-07,-1.181585176368571410e-07,2.051803278391162166e-07,-8.915851879010006087e-08,-1.911785147967748344e-07,4.775127138145762729e-08,2.884908534284136294e-09,-7.351766839747142512e-08,2.531384950543724699e-07,-2.278349597872875165e-07,1.099514577163063223e-07,-2.709572299863793887e-07,3.595018682744921534e-08,-1.943502496715154848e-07,2.421813292130536865e-07,4.492712832870893180e-07,-2.101320148995000636e-07,3.081558475059864577e-08,1.650838754585493007e-07
-4.938625508543736942e-08,1.106935165751110617e-08,3.302584516973183781e-08,-4.059602431993880600e-08,-9.684185009461998561e-09,7.804777624187408946e-08,-3.669527970373565040e-08,-1.292187619128526421e-07,8.220170322204012336e-09,1.642623175257540424e-07,1.328291716617968632e-07,-9.807425271901593078e-08,-1.677114056519712904e-07,6.887291448265386862e-08,-9.062146943961124634e-08,-5.915446621429509833e-08,-1.214591236475826008e-07,2.886741690133476368e-08,-3.651528146519922302e-08,-4.782419438242868637e-08,-1.128536979422278819e-07,3.960872163588646799e-07,2.833161545368056977e-07,-1.315370212751076906e-07,-5.169257732973164821e-08,-1.008919596756641113e-07,1.540575027547674836e-07,2.334999891218103585e-07,2.329773849396588048e-07,1.469998096581548452e-07,2.266978782472506282e-07,1.820726680534789921e-07,1.413073658085295392e-08,3.984325473993521882e-07,-3.323772901353549969e-08,-4.198459180315694539e-08,-2.562328802468982758e-07,-4.690706489896001585e-08,2.027936716331169009e-07,-1.231128088363675488e-09,1.302770868960578809e-07,-3.148141303199736285e-08,3.404390724881523056e-08,-3.401028081384538382e-08,7.111206201670938754e-08,1.878406097333140679e-09,1.288616715555690462e-07,-2.005503034752109670e-07,-5.433029670598443772e-08,3.013631300063934759e-08,5.740996655845265195e-08,-3.892483491085840797e-08,-8.622644287470393465e-08,-2.355591703917525592e-07,1.435671777016978012e-07,-5.218318932520560338e-08,-8.634450665567783290e-08,1.225736241394770332e-07,9.243957777016476030e-08,-1.807597271863414790e-07,-2.162035031005871133e-07,1.396812887577425499e-08,9.847077109270685469e-08,5.599007479872852855e-08
5.793463486725158873e-08,2.000476584385069145e-08,4.723334257050737506e-08,-7.672292667848523706e-08,-1.026163047868067224e-07,5.429508576071384596e-08,3.638422896301563014e-08,-4.511775131277317996e-08,-9.548356416644310229e-08,-1.024901834512093046e-07,4.000182229901838582e-08,2.035824842039346549e-09,-8.824431318998904317e-08,1.465545267365087057e-07,-1.519252208481702837e-07,-1.438717731616634410e-07,-1.609326716334180674e-08,1.315855939765242510e-07,1.728372183151805075e-07,-2.934526577291762806e-08,-2.204341882361404714e-07,1.922027763612277340e-07,4.291442579074100649e-08,-5.181943762977425649e-08,1.918457712690724293e-07,1.690667694731473603e-08,1.665107731696480187e-07,7.608907992562308209e-08,-5.849395279255986679e-07,-2.407622332611936145e-06,-2.897606599105984060e-08,-4.086336105046939338e-07,1.356618639647422242e-07,1.604659587428614032e-07,2.695703358313039644e-07,-1.879635647128452547e-07,1.190565086517381133e-07,-8.530680162266435218e-08,1.918660501587510225e-07,2.706127411045144981e-08,-1.268157063805119833e-07,-2.179784956979347044e-07,4.643470958853868069e-07,8.441338650300167501e-08,-2.903590257119503804e-08,-6.187306667015946005e-08,1.188553255815349985e-07,6.697051446735713398e-08,5.839227323889417676e-09,-2.470231379447795916e-07,-1.110446845586920972e-07,6.307809741201708675e-08,3.490000066719289862e-09,1.833726059885520954e-07,1.082841691868452472e-07,-1.510793055103931692e-07,4.567221623119621654e-08,-1.821301509608019842e-07,3.926218710148532409e-07,5.043585105113379541e-08,2.325949850501274341e-07,-7.959162928727891995e-08,-1.175666071162595472e-07,2.312096967216348276e-07
-3.921714863963643438e-08,2.110998451598788961e-07,-2.833767887011617859e-08,-1.461129954805073794e-07,-1.972087204649142222e-07,-2.130779819253802998e-07,-4.032240781270957086e-07,-2.164136532201155205e-07,9.338935342384502292e-06,3.380307873612764524e-07,1.712777617512983852e-07,-1.670116489549400285e-08,3.433404458519362379e-07,2.773159906155342469e-07,-2.689531797273048142e-08,-1.270084908355784137e-07,-8.418814445576572325e-08,-1.346282232361772913e-07,-1.462024954435037216e-07,1.090853629648336209e-07,-4.189933022757941217e-08,1.215027509715582710e-07,-5.765101107613190834e-08,7.655351907942531398e-08,1.903919013557242579e-07,4.898027441413432825e-07,3.039943408111867029e-08,-1.034474550465347420e-07,7.557963726867455989e-06,2.027457114309072495e-03,1.034562089330393064e-07,4.658889452002767939e-08,-2.500857192444527755e-07,-1.356779506522798329e-07,5.623703813739666657e-08,2.118674728990299627e-07,8.375558735451704706e-08,3.266713477501070884e-08,-2.459418908529187320e-07,1.769941881946124340e-08,-2.287554963231741567e-07,-3.150103111693169922e-08,1.754716834057035157e-07,-1.884018843156809453e-07,1.225390207082455163e-07,1.249059788932527226e-08,-3.288967889147897949e-07,2.013171318537843035e-08,1.415798589476935376e-08,3.199893967575917486e-07,4.893160365782023291e-08,1.705078602753928863e-07,1.545881076481236960e-07,-2.640688876454078127e-07,2.971853518829448149e-07,-2.134733421144119347e-07,1.903340773878881009e-07,1.010767149978164525e-07,-3.613718320139014395e-07,1.911827496314799646e-07,-5.999309138360331417e-08,-2.015478095529488201e-08,4.099772610288709984e-08,1.478270377219814691e-07
-3.850184526754674152e-08,-2.989874587910890114e-07,-3.613401702295959694e-07,-2.767432647488021757e-07,6.383094053319382510e-09,4.038164149733347585e-07,9.014235757831556839e-08,-1.374030205170129193e-07,8.630997854197630659e-07,1.633631718789274601e-08,8.998704714713312569e-08,-2.447359648272140475e-08,4.794392225448973477e-07,-4.254631136291209259e-08,8.495514691730932100e-08,1.347387978967162780e-07,-1.732068142246134812e-07,1.063596002381927974e-07,-1.738798971473443089e-07,-2.692009459792643611e-08,-1.472853909945115447e-07,-2.248684296546343830e-07,-3.872546017191780265e-08,2.560468601586762816e-07,-3.983644774052663706e-07,3.249244286962493788e-07,-3.971948956404958153e-07,-2.641634750943921972e-07,8.582332498008327093e-07,1.184302050205587875e-06,4.072960280154802604e-08,-1.770764868069818476e-07,1.169668895073527892e-08,-1.622799032929833629e-07,3.290620753659823094e-08,1.001232092789905437e-07,-1.481304394701510319e-07,1.034411556410930189e-09,2.175182771679828875e-07,-6.367049820710235508e-08,-1.718044728704626323e-07,1.505739888330026588e-08,-2.594780390552386962e-08,-7.693355286164660356e-08,1.267069933419406880e-07,4.667469966079806909e-08,-1.023598912297529751e-07,1.258348731880687410e-07,1.757011460767898825e-07,-1.673123790624231333e-07,-3.869074660656224296e-08,-2.116120043638147763e-07,1.529282371848239563e-07,-1.684901107523728570e-08,-9.112065413319214713e-07,-1.304252208456091466e-07,-1.870080978960686480e-07,-2.146991029405853624e-08,-4.260632806563080521e-07,-2.908125118494808703e-08,9.481667717636810266e-08,-1.671163829541910673e-07,-1.928261781358742155e-07,-3.959971195399702992e-07
7.435768623054173077e-08,-1.911485858485661993e-09,2.494341400094413075e-09,-1.899421988582616905e-07,1.849628006311831996e-07,-1.441711194871686530e-08,3.660798597593384329e-08,2.446762721319828415e-07,1.662107962374648196e-07,-1.023320095328017487e-09,-2.317180047839428880e-07,-8.212947477659326978e-08,9.049852423004267621e-09,-2.082392853708370239e-07,-1.710998844828282017e-07,2.740657976119109662e-07,1.474052027106154128e-07,-8.751650426574997255e-08,4.385519858374209434e-08,2.314011737780674594e-08,4.103543744804483140e-07,-1.654988466270879144e-07,-2.645223844410793390e-07,-4.585803026202484034e-07,9.583220617059851065e-08,-2.135734575858805329e-07,3.234015650832589017e-07,-1.834634488773190242e-08,-1.292782769723999081e-07,-1.276896909985225648e-06,-2.786795150200305216e-08,-1.445225095153546135e-08,2.029570680406322936e-07,-1.091625705385013134e-07,3.275896887089402298e-08,6.143099806621421521e-09,-1.030220442288509730e-08,9.665031086569797480e-08,-1.455588432008880773e-07,-5.010106818303938780e-08,1.929911519482629956e-07,2.943831312052225258e-08,1.626367946983009460e-07,-1.964302072110513109e-07,-1.669389320113623398e-07,1.808191001373415929e-07,9.647362020359651069e-08,7.081899155991777661e-08,1.010025840741946013e-07,8.877167090304283192e-08,3.312446139602798212e-08,1.180429265446036879e-08,4.215453586198236735e-08,-1.404208802568973624e-07,-1.497038226716540521e-08,9.639612841283451417e-08,1.690308266688589356e-07,-3.527208747300392133e-08,-4.028299542824242963e-07,-4.423574040401945240e-08,-9.851800797378018615e-08,3.807206638839488733e-08,1.079852225416289002e-07,1.724792184631951386e-07
-4.509729123469696788e-08,6.707885091827847646e-08,2.959237406230386114e-07,-2.238785157260281267e-07,-2.077626248819797183e-07,1.085881251583487028e-07,-3.864888142857125786e-08,1.244004721456803964e-07,-1.519746206213312689e-06,-3.740785814443370327e-07,2.530219056495752739e-08,-5.688985993401729502e-07,-5.035947481246694224e-08,-6.128855289944112883e-08,-1.311597088715643622e-07,9.530815958669336396e-08,-1.909827034296540660e-07,9.618352692086773459e-08,2.404597410077258246e-08,6.333500124355850858e-08,7.411639302290495834e-08,1.211765408015708090e-07,-7.014778447000935557e-08,3.920409028523863526e-07,3.755399973215389764e-07,-1.679894694461836480e-06,-1.315865727491427606e-08,-3.373057779754162766e-07,-1.415971382812131196e-06,-1.483383698541729245e-06,2.369517630995687796e-07,-7.288220027490410757e-10,-1.656870836086454801e-07,-1.738476669288502308e-07,4.338810555282179848e-08,1.605476001032002387e-07,1.206483801752256113e-07,3.766341194477718091e-08,2.075812375323948800e-07,-2.968703327610455744e-08,5.973891461508173961e-07,9.589704319523661979e-08,2.077979814885111409e-07,-3.175538552113721380e-07,6.306094491037583794e-08,-9.686509372386353789e-08,8.142008312006510096e-08,-1.600659871314746852e-08,-1.007918868367596588e-07,-3.039571083718328737e-07,9.291056812799070030e-08,-2.551155944274796639e-07,-1.133358438210052554e-07,-7.917358324505130440e-09,-2.096131765938480385e-07,-3.981903518024410005e-08,1.206714195234326326e-08,-5.367905586695087550e-08,2.182150780072333873e-07,5.091452592864698090e-08,-3.038302054392261198e-07,1.271694429760827916e-07,-1.926247676919956575e-07,2.957266076464293292e-08
1.718544126561027952e-06,-2.166226380495572812e-07,-1.989403131119615864e-08,-3.405663733246910851e-07,1.035536278948256950e-08,1.460424755350686610e-06,-1.475925728300353512e-07,2.811919159739773022e-07,-3.473418701105401851e-06,-6.320568957107752794e-08,-1.379745867780002300e-06,1.839261358327348717e-06,3.623573832101101289e-07,-1.355533527203078847e-06,-8.557312192181143473e-09,-2.016715114905309747e-07,3.583759848879708443e-07,2.666033424247871153e-06,-2.169726229794832761e-07,-3.472220271305559436e-07,-9.929169664246728644e-07,-3.569250495161213621e-08,3.291368955160578480e-08,-1.102244908679494984e-07,-1.049804041031165980e-06,-3.673538230941630900e-06,-4.299703277865773998e-07,7.821919325579074211e-07,-3.523573241182020865e-06,-1.485424149905156810e-06,-1.019047175532250549e-07,1.710663752874097554e-07,-2.008918954743421637e-06,2.538919474659451225e-08,1.054831741953421442e-07,2.598054322788811987e-07,-2.394906005065422505e-06,-1.903757329557720368e-08,1.286217639062670060e-06,-2.049630865030849236e-07,-2.092234581141383387e-06,7.903381060714309569e-08,-5.597556906877798610e-08,2.192823785662767477e-06,1.588400166951942083e-08,-4.585413933000381803e-07,1.097635902169713518e-07,-6.311960305538377725e-07,1.815229779822402634e-07,-7.753652084829809610e-07,9.062454608965708758e-08,2.089723693643463776e-06,-4.934826165481354110e-07,7.651303235434170347e-07,-2.792577106447424740e-06,2.473867368735227501e-07,5.139283416610851418e-07,2.063716237898916006e-07,-2.070496066153282300e-06,-7.853557093540075584e-08,-2.519455506444501225e-07,-2.665246938704513013e-07,-5.471940767165506259e-07,-2.164870807064289693e-07
-9.840440640118686133e-08,5.213388831748488883e-08,9.352757501801534090e-08,1.318256579452281585e-07,4.476377455375768477e-07,2.042341549213233520e-07,2.183325875648733927e-07,3.728612796294328291e-08,-1.083053007278067525e-07,-1.060603427305295554e-08,-1.671897109645215096e-07,-8.288549224744201638e-08,-5.751145337740126706e-08,1.223127839011795004e-07,4.273077536254277220e-07,-2.493370132583550003e-08,4.997660951744364866e-08,2.193142876194542623e-07,1.119965560292257578e-07,-4.149594587943283841e-07,9.360279307202290511e-08,-1.714179376222091378e-07,-9.112230259233911056e-08,-2.418198334908083780e-07,6.422142462270130636e-08,7.031634652321372414e-08,-4.580481416383008764e-08,5.945512171479094832e-08,1.267744522692737519e-07,2.295400634011457441e-07,-1.509282157030611415e-07,-1.712443236101535149e-07,1.218659519963694038e-07,2.679274473393888911e-07,1.208880178182880627e-07,1.767807589203584939e-07,1.660780135637196508e-08,6.184500023209693609e-08,-1.723835936218165443e-07,3.022877237413013063e-08,-6.493763748949277215e-08,6.272495056691695936e-08,4.001386741947499104e-07,-1.428637386169384627e-08,-5.439909855908808822e-08,-6.703128008211933775e-08,3.600013087634579279e-07,-4.073635295753774699e-08,9.411255064151191618e-08,-9.987719984394516359e-09,-9.711622617203374830e-09,1.950242420889480854e-07,1.360550516693592726e-08,-2.156732961111629265e-07,9.681973267561261309e-08,-1.035966619156170054e-07,-1.431302365517694852e-07,9.288294222642434761e-08,-2.350483754298693384e-07,2.101487694972092868e-07,-2.568924912793590920e-07,-1.275947703049951087e-08,-6.615690040234767366e-08,-1.601390096084287507e-07
4.066439984740100044e-08,-1.180246456122802101e-09,4.264221900029951939e-07,2.672493621957983123e-07,1.290236184559034882e-07,-8.783810301338235149e-08,-2.071774645173718454e-07,-2.095732014595341752e-07,-2.361403517170401756e-07,6.135868346746065072e-08,4.202721299861877924e-07,3.140432269788107078e-08,1.240616285258511198e-07,-2.800701679461781168e-07,2.415281130652147112e-07,1.049040392331335170e-07,-4.047308834742580075e-07,4.048540631629293784e-07,1.982012349799333606e-07,2.294475791586592095e-07,-1.744095499134346028e-07,-6.943400077119576963e-09,1.163315559438160562e-07,-2.851315912266727537e-07,-3.531915027110699157e-08,-1.855242572901261155e-07,-1.522450929769547656e-07,-1.770136179857217940e-07,-2.039115898355703393e-08,6.395295315542171011e-08,8.853081823190223076e-09,-2.776300220830307808e-07,-1.502101980577208451e-07,-4.174787022748205345e-07,-1.611186775107853464e-07,-3.058957176449439430e-08,-1.175679216203207034e-07,-2.222436989995912882e-07,7.683954805770554231e-08,-7.627902220974647207e-08,-2.313031544076693535e-08,-8.529403316970274318e-08,1.828475575393895269e-07,-4.621231397550218389e-08,-4.411159011397103313e-07,1.631813972835516324e-07,1.064442969322954013e-07,-4.243222235800203634e-07,-1.798613702419515903e-08,-5.777219058700211463e-08,-3.073897687499993481e-07,-4.752822064801875968e-07,-1.021856945726540289e-07,-8.043709698313250556e-08,-4.097137207281775773e-08,-2.715690641252876958e-07,8.924175887159435661e-08,6.630490645420650253e-08,6.313697298310216866e-08,2.109200352151674451e-07,2.002692838232178474e-07,6.449782041784146713e-09,2.637202385358250467e-07,-1.719208952977169247e-08
-3.410978521856122825e-08,-3.290934458277661179e-08,-6.669956320592973498e-08,3.012788170053681824e-07,2.329779702492373872e-09,4.277608312008851499e-08,-1.911970457513234578e-07,1.457724465581122786e-07,-4.965939410794817377e-07,-5.761969390505328192e-08,-1.960078748197702225e-07,-3.852240411106322426e-07,-4.276836662597816030e-08,2.782990975447319215e-07,9.298118897049789666e-08,3.364775125191954430e-08,7.865060069889295846e-08,2.672319112662080443e-07,-1.106476261725219956e-07,2.051432090866001090e-08,3.605455276556313038e-07,-8.555218045103174518e-08,5.661103230636399530e-08,9.289617253216420067e-08,1.241370171101152664e-07,-6.756233119631360751e-07,3.861738377963774838e-07,-2.289093146146115032e-07,-4.820125241167261265e-07,-1.547355878983580624e-07,3.017231051671842579e-07,-3.722221038060524734e-07,-2.125210016856726725e-07,3.661260850051917259e-09,-1.165852268059097696e-07,3.179431189437309513e-07,4.275413800769456429e-07,-1.169229975062080484e-07,1.753278411342762411e-07,2.575328217346850579e-08,3.599031117573758820e-08,1.174432142647674482e-07,4.348324296188366134e-07,-1.345025850696401903e-07,-1.545340353459323524e-07,-1.005988039537442091e-07,-4.907872863668671926e-08,-2.634838267567829462e-07,-5.022237203888835211e-08,1.481653839618957136e-07,-2.833559449300082633e-07,-1.784445835539827385e-08,3.446264997819525888e-07,-6.549810649403298157e-08,2.485072627678164281e-07,-3.316288044175053074e-08,-6.594029144935120712e-08,8.623086245052036247e-08,7.525324718926640344e-08,-6.078835923517544870e-08,2.138192733980304183e-08,1.023504907493588689e-07,1.677333898442157079e-07,-2.427360357160068816e-07
2.817741915350779891e-07,-1.029923168971436098e-07,1.060467909042017709e-07,-1.486141343320923625e-07,-1.501885265042801620e-07,-9.133555067819543183e-08,5.634234412354999222e-08,-9.117555066495697247e-08,1.502109228113113204e-07,7.367138721292576520e-08,-1.623138672357526957e-07,-1.855751818879980419e-08,-4.448191859296457551e-08,2.586972414064803161e-07,-1.565809668591100490e-07,1.934624265231832396e-07,2.129581275767122861e-07,-6.171412536559728323e-08,4.136811924126959639e-07,5.179100881491649488e-08,5.578173727371904533e-07,2.729863446404579008e-08,-2.235006348882961902e-07,1.892511534151708474e-07,-2.999671622205823951e-08,4.437965230863483157e-07,1.376613028014617157e-07,2.125565679023111443e-08,-1.127070419215669972e-07,3.621988753366167657e-08,3.561358141723758308e-08,2.288889362489499035e-07,8.106598414769905503e-08,-7.428274528820111300e-08,-1.882812910025677411e-07,-1.363210060389974387e-07,5.111851564265634806e-08,-2.062331958541108179e-07,-1.340137885108561022e-07,-2.337473006264190190e-07,-2.596829631329455879e-07,3.680921167870110366e-08,4.142895306813443312e-07,1.255253323506622110e-07,1.907634583631079295e-07,-2.391927864664467052e-07,-7.619481579013154260e-08,-2.105425949139316799e-07,3.972081685787998140e-08,1.564705911505370750e-07,1.515190284351319860e-08,1.398839657440476003e-07,4.131639741444814717e-07,1.281804742347958381e-07,-2.257897424584598411e-09,2.668934939720202237e-07,2.113405059844808420e-07,-1.782542966566325049e-07,-2.140591703891914221e-07,1.319735218885398353e-07,-9.034177139710664051e-08,2.236551495116145816e-07,-6.437452526597553515e-08,-5.960314553021817119e-08
1.620083622810852830e-07,-1.247057639375270810e-07,9.474258177988303942e-08,2.594098589270288358e-07,-8.193266864964243723e-08,-4.147613097416069650e-08,-2.358608197639000537e-09,-1.376908542738419783e-08,2.530274798573373118e-07,-3.118957891956597450e-08,-1.133028177946471260e-07,1.886048011101593147e-07,2.522835131912870565e-07,4.880232040704868268e-08,-1.466863182031374890e-07,-1.827168034651549533e-07,-2.670105203605999122e-08,9.424923064216272905e-08,-7.761654785554128466e-08,-2.143426769407597021e-07,1.402914904247154482e-07,1.618338103526184568e-07,9.576671899935718102e-09,-3.472448284469464852e-08,-2.670647347713384079e-08,1.147149788494061795e-07,-1.586833633382411790e-07,-2.678291366464691237e-07,-1.330848817815422080e-07,2.769593265838921070e-07,-2.667073317752510775e-07,1.258671602499816800e-07,2.661709963547309599e-08,-1.638755549038251047e-07,5.384819257159279005e-09,1.132306053364118270e-07,-2.291218947902962100e-08,-8.662921402446954744e-08,8.228982295577225159e-08,4.792886798554718553e-08,-3.349131461050092184e-08,1.621280603103514295e-07,-2.075926097688807204e-08,-9.538749878856833675e-08,1.121386148383862746e-07,-8.916958726956636383e-09,-1.551533017618567101e-07,9.504300457763292798e-09,3.431418926780338552e-09,5.257605018016420217e-09,9.108740783858593204e-08,2.287050335780804744e-07,-1.448788680136203766e-07,-1.558721436367704882e-07,-2.948348196696315426e-07,-4.751757742837980913e-08,1.554072497356173699e-07,1.728521397126314696e-07,1.051607156909994956e-07,-5.077620457427656220e-08,7.082682884629321052e-08,5.959234172792093887e-08,-1.015970170215041435e-07,-8.144015595235032379e-08
3.602997082907677395e-07,2.072041098699628492e-07,-8.659619510353877558e-08,-4.206546577734115999e-08,1.849406885412463453e-07,-1.896523649236314668e-08,-5.453795637322400580e-08,3.288731065254069108e-08,7.701429467488196678e-07,3.736509057716830284e-08,1.123062602914615127e-07,-7.209539187869040688e-09,-1.803883122875049594e-07,-4.396637365289279842e-08,-9.347924390112893889e-08,5.078197418129093421e-08,3.478415067093010293e-07,-1.098943602784174800e-09,7.021870374046557117e-08,-3.097387235584392329e-08,1.058653253949159989e-07,-3.388277747262691264e-08,-1.016853232727044087e-07,1.559418150165470252e-09,4.785532681239601516e-08,-3.861380193370678171e-08,1.617785585494857514e-07,2.093707820449708379e-07,5.617739589069969952e-07,4.260148784851480741e-07,-1.187392015822297253e-07,8.815672458695189562e-08,-5.587640927728898532e-08,1.813590131405362627e-07,1.557092588200248429e-07,-2.300882187000752310e-07,4.222267424580650186e-09,9.225695407621969935e-08,-4.402666675673572172e-08,6.517640827041759621e-08,8.275780061239856877e-08,-1.276599590482874191e-07,6.578715527894019033e-08,3.435861317679922422e-11,-9.997935990213591140e-08,2.005255339554423699e-08,1.722393818681666744e-07,-1.830691154225405626e-09,4.219394966753498011e-08,1.335599808527376808e-08,-8.091456749070857768e-08,2.255573861020820914e-07,6.290115805995810661e-08,-1.403449942927181837e-07,-4.606512149507580034e-08,-4.752164528554203571e-08,9.249625065876898589e-08,1.863677994151657913e-07,3.126881154003058327e-07,3.403912955945997965e-07,1.089017658273405686e-07,4.049250534876591701e-08,2.223665944711683551e-07,-3.068143072937346005e-09
5.469044026540359482e-07,1.663037068055928103e-07,4.462343383693223586e-08,3.949541564907121938e-07,-1.023773137376338127e-07,-5.912367555538367014e-07,-1.900329849036097585e-08,-2.738680962011130759e-07,2.822657506840187125e-06,2.547228348248609109e-07,4.526925749814836308e-07,-1.234233309332921635e-06,5.980234618618851528e-08,1.588173290656413883e-06,3.546308580126833476e-09,3.402231030236180231e-08,-1.169640242437708366e-07,-1.941478785738581792e-06,-1.845599655325713684e-07,1.425537732302473160e-07,-6.636879561483510770e-07,-4.252502492363419151e-07,2.963027156965836184e-07,-5.541877357018165640e-08,1.633388592381379567e-06,2.860927679648739286e-06,-5.660047577293880749e-07,-5.036682182435470168e-07,2.850410055543761700e-06,3.063037411266122945e-06,7.274805113866023021e-08,-7.524202771946875146e-08,1.335621846010326408e-06,2.996348058559306082e-08,-2.164944987725903047e-07,-1.809457614854181884e-07,1.817482257138181012e-06,-1.138030327751948789e-07,-1.485135271650506184e-06,1.059052365803836437e-07,4.951433538735727780e-07,-1.386563184269107296e-07,8.777630000622593798e-08,-1.961324869625968859e-06,-1.823431716729828622e-07,4.173987235844833776e-07,6.712662781183098559e-08,1.451726490131477476e-07,-1.302092016430833610e-07,2.683969455574697349e-07,-2.793047793048231142e-09,-1.784974415386386681e-06,-5.462716945459078488e-09,-2.287449234472660464e-07,2.011269998547504656e-06,1.160290921120576968e-07,-4.991430380130168487e-09,-1.257641457641511806e-07,1.712849780233227648e-06,4.989985669112684263e-08,4.778935291938068985e-08,6.637471017256757477e-08,-1.579577857402370000e-10,1.823265023404019303e-07
-6.774155281163984910e-08,-1.959205064849811606e-08,4.884266218141419813e-07,-6.027483578918690910e-08,-6.422352782919915626e-08,-1.487500185248791240e-07,8.531009143553092144e-08,-1.523260273472715198e-08,1.056494127738005773e-07,1.054437461789348163e-07,1.042504607084993040e-07,-8.106054849577049026e-08,7.290837089612978161e-08,7.357117937090151827e-08,5.275772352320018399e-08,-6.776652838880181662e-08,-2.080172123442025622e-07,3.005467874572786968e-07,1.178266231249835982e-07,3.567272477411620457e-09,-7.211173169707763009e-08,1.740338539946151286e-08,-1.997016738641832490e-07,-4.282164525193365989e-07,-7.143096780737323570e-08,9.114869214954524068e-08,2.646234236181044253e-07,1.030630585319158854e-07,6.789504425341874594e-08,2.650842247930995654e-07,-4.714647516834702401e-08,-1.834410454648605082e-07,1.763446846325678052e-07,-1.498420374446141068e-07,1.934255351443425752e-07,4.297638867001296603e-08,7.014062930466025136e-08,1.783410397138140979e-07,4.118150442877777095e-08,1.371548989936854923e-07,1.600532044676583610e-07,-1.148811108464542485e-07,1.747681750430274406e-07,-4.461996283566804777e-08,7.399185619760828558e-08,1.854788109767468995e-07,-7.320029027368946117e-08,9.809739509591963724e-08,-1.743778739182744175e-07,9.008809342958556954e-08,-1.812560590508383029e-08,-1.307340795619893470e-07,2.769283753423223970e-07,7.879388874698634027e-08,-1.890358305445261067e-07,-1.223321532961563207e-07,-2.392183375832246384e-07,8.042355403858891805e-08,9.281493618118474842e-08,-8.755183245057196473e-08,-1.966158009736318490e-07,2.729094816800170520e-08,-8.256232142400676821e-09,2.682707167522835334e-09
-4.081856559423613362e-07,2.393930564892343682e-08,2.251552544407786627e-08,4.631994698911512387e-08,-1.151667774479392392e-07,-1.003439322744270612e-07,8.515385729879199062e-08,-2.625253081589562498e-08,3.239382238007237902e-07,1.430465914609158062e-07,-3.082344335325615248e-07,-2.859959602474759777e-09,-1.435968344232207983e-09,-1.805274507660215022e-07,-8.535930362540966598e-08,2.026993151105216384e-08,7.074486774172328296e-08,-2.474505436111940071e-07,-5.936561109365356970e-08,1.129489035633923777e-07,-4.858251259065582417e-07,1.256972410601520096e-07,-1.550571084862895077e-07,7.908558075087057659e-08,-2.823855993483448401e-07,2.110804189214832149e-07,-5.033188443803737755e-08,-1.483079330455439049e-07,1.174850652319037181e-07,3.787977220781613141e-07,-1.231153134995111031e-07,1.415553896322307992e-07,4.853799495663224661e-08,1.919289083218700398e-08,7.770915466664973792e-09,-3.372926826727962180e-08,7.845333129807841033e-07,2.020709599648284893e-09,6.511483263693662593e-08,1.305981953692025854e-07,-6.422116030080360360e-07,-3.701594142313524571e-09,3.187060215736892133e-08,-3.194172109033388551e-07,-3.882488552875429377e-09,1.278183106023789151e-07,1.839293162220201339e-07,2.458806136473867809e-07,2.719565372899523936e-07,-3.624780333666421939e-07,-1.129282338752091164e-07,1.151370696561571094e-07,3.099766843206452904e-08,7.808618107674192288e-08,1.093339051294606179e-06,1.195590328961770865e-07,8.892723002418279066e-09,-2.512372354601666302e-08,2.112120398578554159e-07,-4.396185104837968538e-08,-1.345773767980062985e-07,-1.057670075965688739e-07,-5.015622406290276558e-08,-4.895322192055573396e-08
-8.996064337907228037e-08,3.901124756566787255e-08,2.802381970923306653e-07,-2.263220721943071112e-07,-7.262819678999221651e-08,4.072920773978694342e-07,-1.809333904922993952e-09,-1.224512402586697135e-07,1.470422006377702928e-07,-1.868158250317719649e-07,-8.198237821943621384e-08,-2.068011184519491508e-07,-1.783259619969612686e-07,-1.914617371312488103e-07,-4.025399675811058842e-07,-1.219432874677295331e-07,-1.987650506407590001e-07,-1.867205945416117174e-08,-7.546973534999779076e-08,2.061271686670806957e-07,-6.457360512968080002e-08,-1.279659267439114956e-09,1.744370763390179491e-07,4.327988847308006370e-07,-1.878396886922928388e-07,-1.996988316932402086e-07,3.090808320393989561e-08,-2.094017617082499783e-07,-1.044656983140157536e-07,2.863739041458757129e-07,9.183121818523432012e-08,2.398510616785642924e-07,-1.026503184675675584e-07,9.267675693536148174e-08,-2.162137207051273435e-07,1.337871680107127759e-07,5.020429227897693636e-08,-2.684019193566200556e-07,3.001275317160434497e-08,9.414438295607396867e-08,-1.376445908363166382e-07,8.581368859950089245e-08,-3.157968109235298471e-08,-1.293022791060138843e-07,2.377840786493834457e-07,-2.993622416624930338e-08,7.937230606103184982e-08,1.308308839043093030e-07,-1.764687169725220883e-07,-1.964624090078359586e-07,1.772257576249103295e-07,4.497271177683614951e-08,-2.116595609891191998e-08,6.876748415152178495e-08,-1.472383672762589413e-07,-8.257590877747134073e-08,7.636877086270033033e-08,-1.615426441503586830e-07,-4.415550591829742189e-09,2.887506127535743872e-07,-1.709529229287909402e-08,7.942850999143047375e-08,1.158335081186123716e-07,-2.379942287689118530e-07
-1.943200977905235050e-08,-1.386174659501193673e-07,2.012266833162357216e-07,2.548447497474626289e-08,8.434847842408998986e-08,3.226846274628769606e-07,7.413278524381894385e-08,1.473975075327871309e-08,-2.339671937079401687e-06,1.400102149773374549e-07,-1.069171986500805360e-07,4.676988751839417091e-08,2.135906527200859273e-07,4.888449822715301707e-08,8.413245211613684660e-08,1.467836607815797834e-08,1.706224566078162752e-07,-1.318588374488172121e-06,9.205888495955605322e-09,-4.574777889843062439e-08,-9.343339257839033962e-08,-1.421865931661159266e-07,-9.169125014807377738e-09,1.384885450761430548e-07,-3.301862818716472248e-07,-1.970731318579055369e-06,-5.655401196236198302e-07,5.544083947484068631e-08,-2.175663894377066754e-06,-2.546415771575993858e-06,-1.925340313846390927e-07,-5.529805946480337298e-08,2.084720165385078872e-07,-9.943459389205600019e-09,6.528140517048086622e-08,-2.549170829979630071e-08,6.366914249156252481e-07,9.665065192621113965e-08,4.087379750217223773e-07,-8.160098730058962246e-08,-5.198940655759543006e-08,-7.897291709468845511e-08,-5.119876966830361198e-09,-8.136726705743058119e-07,4.770818762267481361e-08,9.427267144701545476e-08,6.973791499831349938e-08,-2.987852809610558324e-08,1.973163250568177318e-07,-5.863785190740600228e-07,6.200234281550365267e-08,-1.176862383545085322e-06,5.798799307399349345e-08,-1.789140071650763275e-07,1.740297420838032849e-06,3.370874424035719130e-07,1.992497118408209644e-07,8.074851365336144227e-08,4.939530029446359549e-08,1.231789923394899233e-07,-1.226011789867698099e-07,-1.954573392026759393e-08,-2.363840678754058899e-07,7.148157976644142764e-08
2.626036916808516253e-07,-2.101464531278907089e-07,8.623507596894341987e-08,3.097249035022286989e-08,4.496022540934063727e-07,1.590728686551301507e-07,4.629017951174319023e-07,1.138268785894069879e-07,3.723438979363891121e-08,-7.343307117935182760e-08,2.793491482577792340e-08,1.034524856891039235e-07,2.003511383463774109e-07,-1.253734751571755623e-07,-1.061269294666544738e-08,2.634465090523008257e-07,-7.421588676947976637e-09,1.316090969538663558e-08,1.551597961224615574e-07,-1.741035760005615884e-07,4.580336110393545823e-08,4.075300807926396374e-08,2.653823401033150731e-07,8.409644181028852472e-08,6.591892542928690091e-08,4.509655937567913497e-08,1.517916388138473849e-07,4.245344200626277598e-07,-6.960513587728200946e-08,-4.984178758604684845e-08,2.062882202835680800e-07,-1.997835568090522429e-07,1.953664536813448649e-07,-2.371700134062848520e-07,-6.184113487961440114e-08,1.420674493601836730e-07,-9.958345970062509878e-08,1.074845723536554942e-08,-4.139066902553167893e-07,-1.140512679853600275e-07,9.635058262347229174e-08,-1.436320786751821288e-07,5.208465836403775029e-08,2.837253703091846546e-07,3.527005532077964745e-08,4.421693233780388255e-09,6.269876706710419967e-08,-7.731980389280579402e-08,-9.002854461925835494e-09,-1.875848596455398365e-07,7.236635468643726199e-08,-1.002977043640385091e-07,2.212964034242759226e-07,1.765672266174078686e-07,-1.652111194516692194e-07,-2.190366217291739304e-07,-5.815607195813754515e-08,-1.155394713237001270e-07,-3.706031037609136547e-08,2.232016882430798432e-08,-4.684661689680069685e-07,1.077617639566597063e-08,-1.219111993577826070e-07,9.978717940839487710e-08
2.904036762174655451e-07,-2.428499357165492256e-08,1.371399491745250998e-07,1.900033197443917743e-08,4.312570922593295109e-07,-3.395922121285366302e-08,-1.089218173433437187e-07,2.148283329006517306e-09,-2.801303367050422821e-07,-1.122960071597844944e-07,7.578548633091486408e-08,2.731951909140661883e-08,2.409523744972830173e-07,1.418870265723626289e-08,1.613922790966171306e-07,2.314734359742942615e-08,2.100412359595793532e-07,2.975264123961096630e-07,1.493741841329665476e-08,-3.046010021989786765e-08,1.981097739189863205e-07,-1.973330228111080942e-07,-1.740200872291097767e-07,-2.900067102018510923e-07,-4.969264466581080342e-08,3.001672688185408333e-09,-1.682356298715603771e-07,2.216708026026026346e-07,-6.556669518431590404e-08,1.012990580306905031e-07,-3.702050932474776346e-08,-2.642071308400772978e-07,-1.503084945397858974e-07,-3.866411191211227560e-07,3.401947523684611951e-08,-8.710753007790117408e-08,7.482465491648326861e-08,-2.573042934272962157e-08,7.921723721437956556e-08,1.921622896361441235e-07,-2.853641412059459981e-08,1.492332728503242834e-07,-1.790114936284226133e-07,1.800092235271222307e-07,1.197654881934795412e-07,4.264723330038577842e-08,9.417895086016869755e-08,-4.123332359995401930e-07,8.842322785085343639e-08,1.054692404522938887e-07,-2.443566415877285181e-08,1.161901579393997963e-07,-6.034063804172262735e-10,-5.757123133776076429e-08,3.707782525452785194e-07,-2.939734855544884340e-08,-1.154948066073302471e-07,1.969881111563154263e-07,3.229583001029823208e-07,-1.781948952839229605e-07,2.180663187800746528e-07,-4.136851146085973596e-07,-9.158439340239965532e-09,-2.462693089455569861e-07
2.370040022015018621e-07,1.233776600884084473e-07,2.422758598186192103e-07,-2.245401304890037864e-07,1.124243667049995565e-07,-8.056736788830676232e-08,1.756821355058946210e-08,-2.550632416387088597e-07,-3.809875863680645125e-07,8.058276534939068370e-08,-1.274088106129056541e-07,-2.417911844077025307e-07,2.370017710973115754e-07,-1.720329301235778985e-08,9.245965060244998313e-08,9.036370585135955480e-08,-4.263993673703225795e-07,5.282639037318404007e-08,-1.320515110592168639e-07,-1.571214909290574724e-07,3.256312997024224387e-09,9.147848345492093358e-08,3.501928347304783529e-08,-2.086491548425328801e-07,5.643446154834919071e-09,-8.182128681255562697e-07,7.833975956827998743e-08,4.015457477635209216e-07,-4.301753904201177647e-07,4.823914423468522727e-08,-1.084172893683899019e-07,-2.155620926203027921e-08,9.402059930607720162e-08,2.637254965520696715e-07,1.016356243610516685e-08,1.156547355662951304e-07,5.032486001255165320e-07,3.561330075285695784e-08,-1.075273630135598069e-07,9.193011152319741086e-08,1.814002530409197789e-07,1.299063079329698667e-08,1.094450823302395293e-07,-2.980881106395827373e-07,-1.904047053358226549e-07,-7.998018958232933073e-08,-9.963350144914784323e-09,8.315259236724159564e-08,-2.331202466621107305e-07,-2.029346006793275592e-07,1.196848664619665215e-08,2.266307888021401595e-07,2.021194092094447115e-07,2.386928201758564683e-07,-1.976108450207902933e-07,-1.841659980073018232e-07,1.441255790268769488e-07,2.908692238179355627e-07,8.283262076247410732e-08,1.422992284005886177e-07,-6.806184060792475066e-09,1.288085655914983363e-07,-1.578482766717570485e-07,1.693735072194613167e-07
7.454968198317146744e-08,3.834499864296958549e-07,-9.090173591630446026e-08,-1.263551325791922864e-07,-1.176636814648190921e-07,1.008842644978358294e-07,-8.825961828051731572e-08,1.763416612732271460e-08,4.902729244804504560e-08,-1.891124554731504759e-07,3.243646062855987111e-08,-7.420521797030232847e-08,2.364671125576478516e-08,3.938764692179574922e-08,1.379384002575534396e-07,4.843231238282896811e-08,-5.559309901315145908e-09,-2.288433442743098567e-08,2.515131711788853863e-07,-1.474677162605075864e-07,-6.181960543472087011e-08,1.169078487350816431e-07,1.331682284444468678e-07,2.525700608657643897e-07,-4.150763643906429934e-08,1.301826557664753636e-07,-1.663492668058097479e-07,-2.177768436695259879e-07,1.244766423269538791e-07,1.067678283561690478e-07,-1.318727953503184835e-07,-3.991456054563968792e-09,9.003877643465330038e-09,2.328634707282617455e-08,-2.802016467740031658e-07,-1.948935732798418030e-07,2.888219086116805556e-08,-9.145627899442843045e-08,8.626423664281901438e-08,2.587201777259906521e-07,-4.901490324726864856e-09,-3.881288250795478234e-07,-2.014000131111970404e-07,1.385050012459032587e-07,1.678528747106611263e-07,2.826184175575008339e-09,2.214332965877474635e-07,-2.935737484222045168e-07,-9.770719344714962062e-08,-3.025713226634252351e-07,-2.081531960129723302e-07,1.581361601665776107e-07,-1.730670895483399363e-08,-9.592687888471118640e-08,-2.233862517186935293e-07,1.192068737054796657e-07,1.291387690116607700e-07,-2.415987765402860532e-08,1.613561266822216567e-07,1.265207743017526809e-07,1.618742118125737761e-07,5.102206657170427206e-08,3.837526918459843728e-08,1.933412363541719969e-07
1.828156399596991832e-07,-8.806731699451120221e-08,1.286230997266102349e-07,3.402359709525626386e-07,4.340099906130490126e-07,1.276208081435470376e-07,-4.189524247522058431e-07,-3.308115026356972521e-08,1.410380150446144398e-07,1.270958449595127604e-07,6.186841972066758899e-08,7.979677008052021847e-08,-5.441183059673448952e-09,6.018679954422623268e-08,7.006509150642159511e-08,1.626636958462768234e-07,-8.080536417764960788e-08,-1.610118545158911729e-07,-7.673899204974077293e-08,-3.263880046233680332e-07,2.650972987794375513e-07,-1.388415711289781029e-07,-1.155807609620751464e-07,4.592970412886643317e-07,-1.279792201103191474e-07,-7.955903669198960415e-08,1.026999143505236134e-07,-2.368330314084232668e-07,-9.486863632446329575e-07,1.096644766107601754e-07,-1.299132463827845640e-07,5.355533261308664805e-08,6.653095852016122080e-08,-6.330432711365574505e-08,1.411920447225156749e-08,4.772712358658282028e-08,3.594697517428357969e-08,5.182549145388293255e-08,-6.421727505312446738e-08,1.185300479988882216e-08,1.343059530256596190e-08,-1.259102901940423180e-07,6.553542419851510203e-08,2.145055191249412019e-07,1.770923461208440131e-07,-1.156717388539618696e-07,1.446195057042132248e-07,8.182033939263533284e-10,-1.631351551623083651e-07,1.445393280619100551e-07,4.492188168114807922e-07,5.418622208708256949e-07,8.606543921985121415e-09,1.126795723394025117e-07,4.257663022144697607e-08,2.840079389443417313e-07,-2.391794318157280941e-08,3.310653085009107599e-08,2.398149376858782489e-07,-1.807674152587424032e-07,-2.198340176562396664e-08,-2.482278382842650899e-08,4.414222587456606561e-08,-5.621969378921676253e-08
1.535068889779722667e-07,6.615451297875551973e-08,-1.541409773153645801e-07,-1.782343588274670765e-07,1.581428819008579012e-07,1.809954426335025346e-07,-1.090112267121412515e-08,3.100385725929299952e-08,1.913597031943936599e-07,5.976876593649649294e-08,2.485744801106193336e-07,5.823484627853758866e-08,6.970079180490529325e-09,2.673899928140599513e-07,6.092766824394857395e-08,9.820097801593874465e-08,2.386340156590449624e-07,8.277442020698799752e-08,-1.681237478123875917e-07,1.596402476877756271e-08,2.088889488049971987e-07,-5.539584080338499916e-08,-9.511431642295065103e-08,-2.747421490312262904e-07,-1.219849394828997902e-07,2.575494839618386322e-08,-7.338937990652993903e-08,8.295080533571308479e-08,-1.629343984177467064e-07,1.171338581684722158e-07,6.296191656929295277e-08,-2.363756976819786360e-07,1.078773621543405170e-07,-9.394658917472042958e-08,-1.775544546944729518e-07,-3.968254702613194240e-08,1.242262186451625894e-07,5.821175008691170660e-08,-5.012785742053438298e-09,4.663169193008798175e-07,-8.361326742090113839e-09,-1.503232738286897074e-07,4.710664214258031279e-08,1.903115673940192210e-07,2.878578930776143352e-09,-1.976962522576286574e-07,1.951632526697721914e-07,-7.766062992686784128e-08,-4.139505449529679026e-07,-2.485170469412878447e-08,5.628209365227121452e-08,1.748163356296572601e-07,2.394691591689479537e-07,-1.860869787151386845e-07,-7.501365217876809766e-08,-1.503423874282816541e-07,6.954520159752064501e-08,-9.214668494905708940e-08,1.419090835952374619e-07,-1.855147502283216454e-07,8.294001219155688887e-08,4.006444243032092345e-08,2.603045743398979539e-07,-9.963113711819460150e-08
-2.771916740584856598e-07,1.155988584855549561e-07,-6.357646498145186342e-08,-1.444481796397667495e-07,5.794620605570344196e-08,-8.049577004953789583e-09,4.204506751648295904e-07,-6.225628368383695488e-08,8.090871972399327205e-08,-2.828635388141265139e-07,-1.236347344502064516e-07,-1.338676014484008192e-07,7.255896150581975235e-08,1.316100792791985441e-07,-2.007752186727884691e-08,5.028818605978813139e-08,7.066626039886614308e-08,-1.037830443806342373e-07,7.359781761806516442e-08,-1.812322558691903396e-08,4.719367296956988866e-08,9.051374760815633636e-09,-1.924060377689329471e-08,8.325302047751392820e-08,-3.896358293786761351e-07,2.437455179915559711e-07,3.753899022740370128e-07,1.860516007923251891e-08,1.354939485054273973e-07,5.419468607215094380e-07,-1.105341596030484652e-07,-2.253844257893433678e-07,2.352870183131017257e-07,3.892913369440975657e-08,-9.051827021266944939e-08,9.568748993160625105e-08,4.112002613965159981e-07,-1.297073310979612870e-07,3.490662265903665684e-07,5.331049379719843273e-08,-7.419302505695668515e-08,-6.636344096477841958e-08,2.904004503534451942e-08,2.093915441037097480e-08,-1.421477264784698491e-07,-1.337211017471418018e-07,2.635684204221888649e-08,3.709892837377992691e-08,-1.665474371748132398e-07,1.014318584680040658e-07,-1.226750043770152843e-07,1.131714597590871563e-07,-1.619389848883656668e-07,1.103491200638018199e-07,1.752156180145902908e-07,-6.101472393993390142e-08,-2.422068234864127589e-07,2.032139718721737154e-07,-1.278519903280539438e-07,-5.008875447742866527e-08,4.690800992079857679e-08,5.558128179927734891e-09,4.888581628392785206e-08,1.190510872106642637e-07
1.049826252597085841e-07,7.280706881829246413e-08,-2.193784069959292538e-07,-1.677700680602356442e-07,9.611491602612431961e-10,-2.262750875559049746e-08,-6.801521834631785168e-08,-1.275173833192866368e-08,3.633173051298399514e-08,1.489972056845090265e-08,2.706334711888302991e-08,2.124109528267581481e-07,-1.001853036086686188e-07,3.953796934297315602e-08,-7.468114127107128297e-09,-2.595264447791123530e-07,6.030360211184415675e-09,-1.975506158657935885e-08,5.363660093848920951e-08,-1.572950338868395193e-07,-4.911503204141354217e-09,-2.551863786948160850e-08,2.289117517761951603e-08,-7.594519502163166180e-08,4.978755541173995880e-08,1.874023958237103216e-08,-4.756864058208520873e-08,9.266852174505402218e-08,1.839273089387916116e-08,-2.715278242249041796e-07,1.271353085030568764e-07,-1.152114847968732647e-07,1.505871551898962935e-07,3.287847150090783543e-08,-7.662299594812793657e-08,-1.204576420832381700e-07,5.988052720340419910e-08,4.444129686476117058e-08,2.270480337074332056e-07,7.776786503654875560e-08,-1.924249772855546325e-07,6.259665674690495507e-09,-1.272173033584067525e-08,9.357932384546074900e-08,-9.575678205919757602e-08,1.293169589189346880e-07,1.345458287005385500e-07,3.837999713596218498e-07,-1.045998132553904725e-07,1.407166223543754313e-07,5.972691496936022304e-08,3.970000150843588926e-08,3.951853955186379608e-08,1.639307924961030949e-07,2.075721852179412963e-07,1.509295799451138009e-07,-1.510052953790363972e-07,-1.509318110493040876e-07,2.341417015827573778e-08,8.609080737187468912e-08,-1.577998318680329248e-07,-7.904808541070451611e-08,-1.009224526171692560e-08,-1.202399175781465601e-07
3.370647760903011658e-08,-1.787909127415332478e-07,1.703251513163195341e-07,-1.718922106874742894e-07,-1.596426102423720295e-08,1.889423231205000775e-07,-5.168476135963828710e-08,3.856326458162584458e-08,3.670681962830713019e-07,-1.292242313155611555e-08,-2.178558133891783655e-08,-1.399559295123253833e-07,-3.571747697606042493e-08,-4.791501240219986357e-08,-1.574567392026438029e-07,1.800495539328039740e-07,-1.940775291586760432e-07,1.865607544004888041e-07,1.147601622619731643e-07,-1.007453107604305842e-07,-2.299080925638463668e-09,7.596024431677506072e-08,2.399148080201030098e-08,-2.259205587051837938e-07,1.053326101896345790e-07,-3.463390783053910127e-07,-1.929330117889094254e-08,1.718788382731872844e-07,-1.181216333634438342e-07,-4.915287732387696451e-08,-6.968124210970927379e-08,-2.776942551463434938e-07,8.358490788396011340e-08,1.913215328386286274e-07,-1.152919892888348841e-07,2.444709821247670334e-07,2.709971340664196759e-07,8.948489949034410529e-08,-2.313436198164708912e-07,4.576474452733236831e-07,-1.557056918954913272e-07,9.548024593186710263e-08,-3.845420621928496985e-07,-4.431416016359435162e-07,6.395660534508351702e-08,1.324641516475821845e-07,-1.094385453370705363e-07,8.174598775667618611e-08,-2.820976590101054171e-07,2.746489435878629592e-08,1.229379478218106669e-07,-8.342184543153052800e-08,8.633168846472472069e-08,-1.751856899545600754e-07,2.667156593361141859e-07,-3.554641381242618081e-08,1.137412084517563926e-07,7.411487246145043173e-08,3.039083935618691612e-07,-1.438895225192027283e-07,-1.732752110683577484e-07,2.462880788201005089e-09,1.178339061880251393e-07,2.856772596260270802e-07
-1.075029416597317322e-07,2.496697248943746672e-08,4.251409961852914421e-07,-5.715226691904717882e-08,-4.033598699493268214e-08,1.051107574312482029e-07,2.704865664782118984e-07,2.071926132884982508e-07,3.223119904305349337e-08,-1.526164226106629940e-07,1.515125944706596783e-07,2.693887424243257556e-08,-2.366352020999329397e-07,-5.104468669969719485e-08,-2.728335957158378733e-08,7.449280303717387142e-08,-1.773688929063155229e-08,8.656338934542873176e-08,-1.876306612302869326e-07,4.833295008666027570e-08,-1.502463646829710342e-07,-4.470469718853564700e-07,6.458899193262368499e-09,3.873111165120235455e-09,5.613333087239880115e-08,1.941993872378589003e-07,-1.382156256113376003e-07,2.139194208439221256e-07,-4.608462589317241509e-08,1.944316494473241619e-07,1.502163087252483820e-07,-2.215847985098662321e-07,2.117258617317929748e-07,-5.455883922422799515e-08,-5.499942190567708167e-08,-5.668859870411324664e-08,2.541358457008868754e-09,6.487261572374336538e-08,2.826286094048668929e-09,-1.729487166812759824e-07,1.479142502924801761e-10,2.546187261032173410e-07,-1.858666536236341926e-07,-2.185096725781932037e-08,-7.039207616799103562e-08,-1.280246095802795026e-07,-1.225164680818124907e-07,-1.495074712920541060e-07,2.719840495046810247e-07,2.068095170670858352e-07,2.974962320934082527e-08,-1.122997232982925198e-07,-1.896260073408484459e-07,1.759618157848308329e-07,-1.838382601704324770e-08,1.390065307305121678e-07,-1.307891750457201852e-08,1.771259547922454658e-07,1.891355907446268247e-07,1.854635058862186270e-07,8.592846256760822143e-08,-1.546718095823962358e-07,2.003825017027338617e-07,1.760941614747935091e-07
-4.981253098890192632e-08,-9.027716174614397460e-08,-1.526792630102136172e-07,1.511802167897258187e-07,3.097616740888042841e-07,1.516837215831401409e-07,-4.383980467537185177e-07,1.391426991403932334e-07,-8.431125024799257517e-07,-2.751005467871436849e-07,1.020592108602613735e-07,-1.294276597008092722e-08,1.035929884096731257e-07,3.680703075659153001e-09,8.285118724415951874e-08,-1.399556879277952248e-07,1.731019771966657572e-08,-4.032428080336103449e-07,-1.332208086068931152e-07,-1.335546642167173559e-07,7.974571758495585527e-08,1.583397732929370250e-07,6.298441235230711754e-08,3.950158600218856009e-07,-1.205141160198763828e-07,8.604775416642951313e-07,-1.569472516393943806e-07,2.096135034435064881e-07,-1.079836124517896678e-06,-1.690838303147756960e-06,-2.705244810385920573e-07,6.191557844203998684e-08,-2.385029063134425087e-07,1.983187445375733660e-07,-1.343565685374414898e-07,-5.140538661407845211e-09,-5.163963123777648434e-07,-3.535894776973691478e-08,2.397943319465412060e-07,-3.891019844104448566e-07,-1.805028375656547723e-07,8.044273158702708315e-08,-3.350108102040394442e-08,2.673589278856525198e-07,1.627679893090316909e-07,3.611078103205045409e-09,7.897343579088555998e-08,3.861373443214688450e-08,-7.192650031129232957e-08,-1.253258261613154900e-07,-6.043806166644571931e-08,5.467953769766609184e-07,2.375450804947831784e-07,-1.287399076232986772e-08,3.659090452856617048e-07,7.724980122247870895e-08,-3.284309286755160429e-07,4.920400442642858252e-08,-5.657594215335848276e-07,-2.106858687511703465e-08,2.746532743458374171e-07,2.608568365758401342e-07,-8.719324284811591497e-08,-2.975871211674530059e-07
-7.432997506384708686e-08,2.647062444793846225e-07,4.631882433159262291e-08,8.594177103304900811e-08,5.832215776990778977e-08,7.410773150695604272e-08,7.155729520036402391e-08,1.425346027872365084e-07,-7.945208579940299387e-08,1.827313980129474658e-07,2.430943766285054153e-07,7.185297334899587440e-08,-5.746975872966686438e-08,-4.096265371344998130e-08,2.108205023887421703e-07,6.371598715304571670e-08,-8.417491415002587019e-08,-6.121668150171899470e-08,-8.232805015495614498e-08,-9.186994276433324558e-08,-1.809313943113011192e-07,1.485863521111241425e-07,8.182396982192585710e-08,-2.020015870130009716e-07,8.187872424514353042e-08,8.088974112752111978e-08,1.254365766811815774e-08,-8.956084229794214480e-08,4.905972073032671688e-09,-9.908622899956753827e-08,1.933443058987904806e-07,7.443274796514742775e-08,-5.023099092227312212e-08,2.136963388466028846e-07,-1.336981902966272173e-08,-1.033051546528440667e-07,-1.713378168233248289e-07,-7.731674145361466799e-08,7.458825024286852567e-08,2.126449345496439491e-07,7.608318242091627326e-08,2.083371981598247658e-07,-1.192215304257615571e-08,-1.094869972462220176e-07,-1.034998664550812464e-08,2.551530542405089363e-08,-2.082978909356825170e-07,-1.296608616030425765e-07,-2.160320491384482011e-07,5.225176025192013185e-08,8.971107234856390278e-08,-3.569649038581701461e-07,-7.281825986638068571e-08,-2.723738532495190157e-07,-3.384585909316228935e-07,-4.351731064389241510e-08,2.519584541005315259e-07,-7.537724400208389852e-08,1.802182651999828522e-07,-2.888539256673539057e-07,-3.453515518003769103e-08,4.101781598819798091e-07,-1.538246579002588987e-07,1.343531152997456957e-07
-9.501384568011417286e-09,1.634652448956330772e-07,-1.115132448603617377e-07,-1.384428998107978259e-07,5.727933127808171321e-10,3.370989531958912266e-08,5.603886776839317463e-08,-9.404676148960788851e-08,-1.021914499688136857e-07,2.154474145754647907e-07,-2.706620527703762491e-08,3.923978511011227965e-07,9.377336596116947476e-08,-3.722981887221976649e-07,-8.022609421232118621e-08,-3.799511887336848304e-07,1.028690803650533780e-07,-1.116360266451010830e-07,3.329052731260162545e-07,-1.328130423416951089e-07,-6.373687000404970604e-08,-2.729212553731485968e-07,2.142160937523840403e-08,-2.230263760338857537e-07,-7.922330524934295681e-08,-1.336271679974743165e-07,-2.459637471474707127e-07,1.412570949099745121e-08,3.247005508910660865e-08,5.059838770193891833e-08,-6.796641827122584800e-08,1.653818628710723715e-07,-3.654678550901735434e-07,-4.324270108657657374e-10,1.029310325861843012e-07,-1.322033398309940821e-07,-2.693334977266204078e-07,-9.800085365441191243e-08,1.276866612442972837e-07,-5.981677730915180291e-08,-2.510485686002539296e-08,-6.095792315363723901e-08,-1.559004232376537402e-07,1.271342568998079514e-07,5.461499341663511586e-08,-1.754259386643752805e-07,1.950923262938886182e-07,-1.730296794733021670e-08,1.084683418639542651e-07,-1.246638845486813807e-07,1.829985336598838330e-07,-1.933865547698587761e-07,9.478080897906693281e-08,-2.270864918330062210e-08,-9.247403909284912515e-08,-1.310966553091930109e-07,1.890842753482502303e-07,7.688733916211276664e-08,8.016633046281640418e-08,-1.496035224590741564e-07,1.815265449067737791e-07,-1.056417886502458714e-07,2.487986137111874996e-07,-2.010262392104777973e-07
6.404594188325063442e-08,-1.786204393283696845e-07,1.485410683343957317e-09,5.467685859628090839e-09,-3.363317624405226525e-09,-3.834418293990893289e-07,-3.845331164598064788e-08,-3.914929536108502361e-08,6.012146513967309147e-07,-3.416431937353081594e-08,7.219107800437996048e-08,8.036123233523539966e-08,1.577245334338783778e-09,-8.373926618787663756e-08,1.475031723430220154e-07,1.696658280536667007e-08,4.841185230475275603e-08,-4.988685873286158312e-07,-5.760546528676968592e-08,-2.538831154197396245e-07,-3.908446046807512175e-07,-5.048187645684265590e-08,-2.752547629825130571e-07,-1.540806806588079780e-07,-9.852131199750147061e-08,2.143484891803382197e-07,1.292156639465247281e-07,-6.793710838337574387e-08,7.397202921310963575e-07,1.177998342427599709e-06,-2.353442596358945593e-08,2.281855842056756956e-07,1.394825943634714349e-07,2.234251184063396067e-07,-3.908989469891821500e-07,3.537560999689048913e-08,4.411558336414600490e-07,-2.005484134315338451e-08,3.187695654105482390e-07,-5.531813229708859581e-09,1.441312207361988840e-07,-4.565437095038760162e-08,1.184001661158617935e-07,1.488233714042053180e-08,-6.431255172856253921e-08,-2.000402758994823671e-07,-1.886600529132920201e-07,1.938751097441127058e-07,-1.617196687675459543e-07,8.982771504406628083e-08,1.707133634454294224e-07,-4.778184461429191288e-07,-1.977750372361697373e-07,2.089200705768234911e-07,-4.936405275657307357e-07,-1.767071466929337475e-07,-5.321966511928621912e-08,-6.906373783976960112e-08,5.325638241515662230e-08,2.435568369207885553e-08,1.772768456476114807e-07,-4.480910149595729308e-07,-4.097949979353643357e-09,1.242648384192079902e-08
1.050147986347838014e-07,2.113007724346971372e-07,-2.901143680844597839e-08,8.608773782725620549e-08,-5.726138141426417860e-08,1.276851122611333267e-07,-2.543513062391866697e-07,-8.674695806121235364e-08,1.240248366229934618e-07,6.936963359294168185e-08,-1.409396617191305268e-07,7.506915089550147968e-09,1.964430111911497079e-07,-1.270442169243324315e-07,7.142948987848285469e-08,3.190988095980173966e-08,7.831187787132876110e-08,3.679289761748805176e-08,-3.491293796287209261e-07,7.598809048658949905e-08,3.152923113702854607e-07,3.669630288527514494e-08,-7.033561644220753806e-08,-1.026404561343952082e-07,-6.088467330300773028e-08,-9.257212241209344938e-08,-3.883355859102266550e-08,3.001230552968081611e-08,3.976541620431817137e-07,4.220523521780705778e-07,-1.338897419600471039e-07,-3.291935968263715040e-08,-2.129452951749044587e-07,-1.222080499019284616e-07,-5.582362305744936748e-08,-1.983814854611409828e-07,-2.971202661683491897e-08,2.010676247721221443e-08,-1.348708877912940807e-07,-4.628845431398076471e-07,-7.092850751178048085e-08,8.321285349666140974e-08,-8.533221773632249096e-08,3.025072814466511772e-08,2.961023071179624822e-08,-8.337728729657101212e-08,-1.343067879133741371e-07,4.000181519359102822e-09,-8.962532405121237389e-08,-8.002816542784785270e-08,-7.833624948716533254e-08,7.287268033451255178e-08,1.901397155279482831e-07,1.331715111518860795e-07,-3.151168925796810072e-08,-9.024853753203387896e-09,2.372186358456929156e-08,9.277150780917509110e-08,-3.465409861291846028e-07,-2.253899999971054058e-08,-1.000109364213130902e-07,-8.304209586640354246e-08,5.433934191501066380e-08,8.753401203875910142e-08
-1.888311942366271978e-07,2.107918533056363231e-07,-1.630935457797022536e-07,4.411894849454256473e-07,-8.675866070007032249e-08,-8.270887974504148588e-08,1.243344200929641374e-07,1.655460546423626056e-09,3.316628749416850042e-08,8.073291724031150807e-08,-1.978163766125362599e-07,-1.039648438450058165e-07,7.048518568808503915e-08,-2.138389305628152215e-07,-8.932202888445317512e-08,3.832635115941229742e-07,9.912055176641842991e-09,-6.550738618216200848e-08,8.256316186283640945e-10,1.126002118212454661e-07,-1.786153518423816422e-07,4.142956129271624377e-07,-1.183955262717972801e-07,1.584934921083913650e-07,6.332388124974386301e-08,-1.006837280215222563e-07,2.679647437275889388e-08,1.439122030433281907e-07,8.882834023893337871e-09,-1.129804587662874837e-07,3.450883525601966539e-07,3.911313051219167392e-09,-1.994019953599490691e-07,-1.105928433275948919e-07,-3.059646047631758847e-08,8.883875324272594298e-08,4.763328576018466265e-08,7.969507009875087533e-08,-1.671678546699695289e-07,9.219037622187897796e-08,6.021995346827679896e-08,5.730617402832649532e-08,-1.984189310633155401e-07,2.481334320236783242e-07,-9.276600820840030792e-08,-9.250446453279437264e-08,-3.823296168548040441e-08,7.720870343064234476e-08,-2.049208660537260585e-07,2.548220550124824513e-07,-9.203559159232099773e-08,-4.471298211683460977e-07,5.248406154123586020e-09,2.525198681269102963e-07,2.600155823984096060e-07,9.210044993324117968e-08,-8.968254405772313476e-08,-5.593600604925086373e-08,6.758259729622295708e-08,8.160478870422593900e-08,3.740100495974729711e-08,1.624614220929743169e-09,3.174559992658032570e-07,-2.289137768229920766e-07
-2.706154855758313715e-09,-2.413194799544271518e-08,-4.073127684023347683e-07,1.829891544957717997e-07,9.032891767901674029e-08,5.026438820721068623e-09,4.321700828313623788e-07,-3.266215387043303053e-08,1.297564296010023099e-07,-1.823059818661931786e-07,-2.749460179529705783e-07,1.418896147242776351e-07,-1.508699654095835285e-07,-1.561988369758182671e-07,-9.745555473728018114e-08,1.315585507200012216e-07,-2.569316563949541887e-07,-4.891601079748397751e-08,-8.359733527640855755e-08,-2.480326770637475420e-07,1.968184335510159144e-07,-5.670368707910711237e-08,-1.469944663767819293e-07,2.804688392643583938e-07,1.021649467247698340e-07,1.468909971436005435e-07,-9.148327961838731426e-08,7.310330119025820750e-08,-3.629329503596068207e-09,1.985649618063689559e-07,2.705000099467724795e-07,1.242680269797347137e-07,1.160629281571345928e-07,8.294247066942261881e-08,-2.482087779753783252e-07,9.775547482604451943e-08,-2.621461021590221208e-07,-9.328086036930471892e-08,-2.763565731811468140e-08,-1.826243334335231339e-07,5.001230718448823609e-08,9.938167266909658792e-08,9.338252482393727405e-08,-1.954004176241141977e-07,1.057051761677030299e-07,1.679818666389110149e-07,4.193190648038580548e-07,-8.037168264252159133e-09,4.754097204795471043e-08,9.979100212831326644e-08,-4.852070034644384577e-08,1.036489720718236640e-07,1.547057060236056714e-08,-4.022735424769052770e-07,1.791771637726924382e-07,9.628877251088852063e-08,1.520518253528280184e-07,-9.772635678473307053e-08,-5.973955552462939522e-08,1.773250488668054459e-07,9.998341710115710157e-08,-1.995505556351417908e-07,1.674161751452629687e-07,5.105479417011338228e-08
7.154303460765731870e-08,-1.090433272565860534e-07,3.531346948193458957e-08,-9.931002864504989702e-08,-1.085658496435826237e-07,-6.261979734745182213e-08,-1.045643784891581163e-07,-1.043314554749485978e-07,3.748325241303973598e-07,-1.339399346989011974e-07,6.535639585081298719e-08,1.528486990309829707e-07,1.056711163016643695e-08,-2.076012464158338844e-07,-1.988171902667090762e-07,-2.251254649365819205e-08,9.938307243828603532e-08,-1.381906855613124208e-07,4.677062008795473957e-07,-2.404145504897314822e-07,-5.200914188208116684e-08,3.133697390467204968e-08,2.512441312774171820e-07,-9.844148252113882336e-08,-2.689225908625303418e-08,3.510775457016279688e-07,-3.166610724747442873e-07,-1.694199767143800273e-07,1.292403226216265466e-06,1.553445940771780442e-06,-1.175163930611233809e-07,-2.106157666048602550e-07,-5.601408226141302293e-09,-1.883915468070540555e-09,-3.818667337895931269e-08,-1.810967802384766401e-07,8.300084175516531104e-09,1.640914746303678839e-07,1.827885682814667234e-07,-1.001872860229013895e-07,6.325620915959007107e-08,9.042703652539785253e-08,7.619625108645777800e-08,-3.374014170276495861e-07,-7.326055140310927527e-08,1.524365984550968278e-07,-6.578089539743814385e-08,-1.001729685867758235e-07,-1.873808912478125421e-07,-5.652382739640415821e-08,1.361233259444816213e-08,-2.471261950631742366e-07,2.241107495137839578e-07,2.917688561865361407e-07,1.650501388894554111e-07,1.481613338683018810e-07,-1.903737114616887993e-07,-1.601792121164180571e-07,-3.160000119351025205e-07,-1.366828854543200578e-07,4.291670165912364610e-07,1.189902665288400385e-08,-2.056403189953925903e-07,-8.895603542669050512e-08
-1.304090790910095166e-08,-6.030327881489938591e-08,-9.627261476907733595e-08,1.099066864185260783e-07,7.383580680198065238e-08,-4.231478101246466395e-08,-1.796018693767109653e-07,4.757176697012255318e-08,-1.689888193823207985e-07,-6.954501685640934738e-08,-1.062396748352512077e-07,7.023175641052148421e-08,-7.012372549297651858e-08,-1.035922903014352414e-08,-2.598891342131537385e-07,1.522901129646925256e-07,6.802723362397955498e-08,-1.290674145337789014e-08,-1.258404136450508304e-08,2.462930304147903371e-08,3.011500950833578827e-07,1.544762255889509106e-07,9.830556280121527379e-08,6.901522908719925908e-08,-1.416875221593727474e-07,-4.303475620304197946e-08,7.711214067285254714e-08,3.932279071250377456e-07,2.986664924264914589e-07,6.980540945278335130e-08,9.537198764064669376e-08,-5.193540530967766244e-08,-1.643676199591936893e-07,-2.000792562739661662e-07,-3.064127085394829919e-08,7.903156351574125438e-09,1.136597020945373515e-07,6.270140318065386964e-08,-1.734357191196522763e-08,2.663624343313131249e-07,-7.710282545758673223e-08,2.489116690540527088e-09,-2.942874921529892163e-08,-1.433371181747133960e-07,-1.578286799031047849e-07,-1.519966303931141738e-07,4.937946940231086046e-08,6.143904585087511805e-08,-1.794178530190038146e-07,-5.161959037991437071e-08,-9.616112350840921863e-08,1.612949205309632816e-07,-8.201713086464224034e-08,3.558056249630681123e-08,-2.264398659690414206e-07,-6.605787916669214610e-08,7.838506377311205142e-08,-2.782430499337351648e-07,3.678838993437238969e-07,-1.524626327409350779e-07,4.141099907428724691e-07,-2.706009638586692745e-07,3.546632854067865992e-07,2.732418238338141236e-07
1.545918735246232245e-07,7.841116911322387750e-08,-1.861820031479055615e-08,1.426703875040402636e-07,-4.174472678641905077e-08,1.547416594860351324e-08,4.849709256404821645e-08,-9.492362096352735534e-08,5.880285414150421275e-08,4.328125768893187342e-08,1.386559347338334192e-07,-3.397136936200695345e-07,1.116742893714217644e-07,2.416840061414404772e-07,2.537366299293353222e-07,-4.377593754156805517e-08,-7.617378372515304363e-08,6.582443745628552279e-08,-1.719169802072428865e-07,-2.231585760625875992e-08,-6.317505807373891002e-08,5.221307119995799439e-08,8.824446950939091039e-08,-5.069946240610079258e-08,1.247960170758233289e-07,-3.892718325460009510e-07,5.894503019021612999e-08,1.303776002714585047e-07,1.440083110537671018e-07,-8.279232019958726596e-07,8.568531484343111515e-08,-1.020813584773350158e-07,8.644450133488135180e-08,3.109862589667500288e-08,1.202750894435666851e-07,1.180445963200327242e-08,1.218489416032753070e-07,-7.857969563929145806e-08,-1.353817680183055927e-07,1.205333006737419055e-07,2.388245157192159240e-08,-2.460159187478438980e-09,3.834115247514091607e-08,-2.913089645062427735e-07,-1.957319000212009996e-07,9.882798934768288746e-08,4.841871259486651979e-08,-3.830527361969870981e-08,1.801758031660938286e-07,2.115956760917470092e-07,1.082136833474578452e-07,-4.939068531939483364e-08,1.732208545490721008e-07,-1.978612544917268679e-07,4.940429931821199716e-08,4.903737860217916023e-08,-1.731675070004712325e-07,1.796759363514865981e-07,4.071405257377591624e-08,7.680228009121492505e-08,-2.334837212458751310e-08,2.005650969749694923e-07,1.505427889014754328e-07,1.070723953944252571e-07
