-2.258665716681207414e-07,1.446153845563458162e-07,-2.172044162307429360e-07,-5.522095491983236570e-08,5.882722007299889810e-07,-3.338692522447672673e-08,-8.945096396928420290e-08,1.612496447478406481e-08,6.390691709157181322e-08,4.213599140712176450e-07,1.033029661812179256e-07,6.942984498436999274e-08,7.241526844836698729e-08,9.443205328807380283e-08,-8.832491005250631133e-08,2.076393457173253410e-07,-1.808653991020037211e-07,-3.834613693243227317e-08,1.219487000270191857e-08,3.219728625936113531e-07,1.335915271738485899e-07,-4.046001222945960762e-08,2.434522343719436321e-07,-2.415259530152980005e-07,3.529417256231681677e-07,3.381072701813536696e-07,-3.432357686961040599e-07,2.059716734947869554e-07,9.169466466119047254e-07,2.486706307536223903e-07,-9.453209770526882494e-08,-9.083513674568166607e-08,2.096318638677985291e-07,2.079137573218758916e-07,2.387974689099792158e-07,2.271526788888422743e-08,-4.018660604288015747e-08,-2.056442838238581317e-07,2.582747526957973605e-07,8.896233083532933961e-08,7.823034309240028961e-08,-3.163967505770415301e-07,-1.391174038190001738e-07,-1.372531244214769686e-07,-1.453191913469709107e-07,-3.402693948828527937e-07,-7.070829610711371060e-08,5.430848659671028145e-07,6.057396149117266759e-07,1.346475784202993964e-07,-2.268341745548241306e-07,-2.448133216148562497e-07,-5.926219870389104472e-08,-2.836663881566892087e-08,-1.412424310842652631e-08,-4.244798290642393113e-08,-2.852368368166935397e-07,2.161056329441635171e-07,-4.157618249678307620e-08,-6.613363012775153038e-08,-1.868954626615959569e-07,2.763023019269894576e-07,-8.446668253725420072e-09,3.489386699584429152e-07
4.066243786127188287e-09,-5.515057068805617746e-07,-6.216230303834890947e-07,2.063034969523869222e-07,-1.999898273652434000e-07,2.127073770452625467e-07,-5.264271862870373297e-07,-1.234427827512263320e-06,-1.007006630970863625e-06,2.562118766036292072e-07,1.255273360811770544e-07,4.515654836723115295e-07,3.594325619360461133e-07,-1.172565688989379851e-08,-4.052020017297763843e-07,-4.384035605653480161e-07,2.877833935599483084e-07,7.416492309175737319e-08,-5.778866096761703375e-08,-1.780393574790650746e-07,2.977721749175543664e-07,-8.018135844167773030e-08,-3.718620291692786850e-07,-2.964055454413028201e-07,-3.375754999979108106e-07,-1.159785938398272265e-06,5.690461080121167470e-07,-6.821081655061789206e-08,3.222640998501447029e-07,2.425530283289845102e-07,-7.058537221382721327e-07,-9.736083939060335979e-08,2.146044266737590078e-07,-2.116078146041644459e-10,-2.256483924156782450e-07,-6.912221124366624281e-07,8.869641021647112211e-08,2.448958298373327125e-07,3.242746515752514824e-07,5.492768195836106315e-07,4.629798127098183613e-07,-2.791758788589504547e-07,-6.898430910950992256e-07,6.145608466567864525e-08,-7.339180285725888098e-08,-1.346129749890678795e-07,-4.911282189823396038e-07,1.000243628368480131e-06,1.434085561413667165e-07,2.393905447206634562e-07,-3.747733785530726891e-07,-6.276189310483459849e-07,-4.524202097400120692e-07,-2.790962696508358931e-07,-1.187005068459257018e-06,4.955483063895371743e-07,9.729212990805535810e-08,-3.517234574701433303e-07,3.013903437931730878e-07,1.758174477117790957e-07,1.190534248962649144e-06,-2.145562518762744730e-07,4.681618293034262024e-08,-6.563244880908314371e-08
3.704199400544894161e-07,5.823000101372599602e-04,-8.648210205137729645e-03,2.148656079725697055e-07,1.505374559201300144e-03,7.410794496536254883e-02,2.704398473724722862e-03,5.337994918227195740e-02,3.385813441127538681e-03,-1.114351907745003700e-03,1.631460711359977722e-02,-1.022260448735323735e-06,-6.956788897514343262e-02,-1.036942936480045319e-03,2.547607437008991838e-06,3.485114779323339462e-03,1.029109284900187049e-06,-8.707156777381896973e-02,-2.276858168670514715e-07,-4.281426981833647005e-07,-1.631901795917656273e-06,-7.941500257402367424e-07,7.129316941245633643e-07,9.881956502795219421e-03,1.056060909832012840e-06,7.325863838195800781e-02,-6.721486151218414307e-02,3.961374610662460327e-02,5.911289528012275696e-02,-1.730797067284584045e-02,2.057828381657600403e-02,1.485820803281967528e-06,9.863601624965667725e-02,1.326881601926288567e-06,1.784360967576503754e-02,7.520466297864913940e-02,6.657751649618148804e-02,2.509022749563882826e-07,-1.487077586352825165e-02,-1.442657890038390178e-06,-2.746338956058025360e-02,2.488477039150893688e-04,-1.663047878537327051e-04,-8.756167441606521606e-02,-2.695214003324508667e-02,-4.273980483412742615e-02,9.709718824524316005e-07,-8.603757619857788086e-02,-2.371737764406134374e-06,-6.144859641790390015e-02,2.731087151914834976e-03,1.301547058574215043e-06,8.464689358333998825e-07,-1.237001129084092099e-06,1.235584467649459839e-01,-3.415746241807937622e-02,-2.341177918196990504e-09,9.392727166414260864e-03,7.662692666053771973e-02,1.417859039065660909e-07,-6.796680390834808350e-02,3.070240836677839980e-06,-6.034465879201889038e-02,3.796942532062530518e-03
-3.959814591780741466e-07,-1.075491766755476419e-07,-3.346882948562779347e-08,-2.537287002724042395e-08,1.960225688435457414e-07,-2.020102840560866753e-07,8.416758845442018355e-08,-9.886244356493989471e-08,1.621995835421330412e-07,2.569115054029680323e-07,1.526374937554919597e-08,-1.234671884731142200e-07,7.278126901155701489e-08,2.621469263885956025e-07,-3.830012218486444908e-08,1.292906972594209947e-07,9.249479404616067768e-08,3.604163794079795480e-07,1.789406525176673313e-07,1.753044642782697338e-07,-1.543934580183758953e-08,5.921771162320510484e-08,-1.120070862725697225e-07,-5.923142509800527478e-08,-5.509683091986516956e-07,-5.440970340941930772e-08,2.269106289531919174e-07,-2.665256886302813655e-07,-2.518469321977079289e-10,2.867761494940168632e-08,2.094170810096329660e-07,-1.078448761404615652e-07,-1.421719986183234141e-07,2.629947637444729480e-08,3.019985683749837335e-07,-9.229400887988958857e-08,1.364163466632817290e-07,-8.944716967107524397e-08,4.842147660610862658e-08,1.349439742170943646e-07,1.415375692204179359e-07,-1.638493642985849874e-07,1.470454691343547893e-07,1.866195376010182372e-08,-1.215974343438119831e-08,-1.790399437595624477e-07,2.232275448932341533e-07,-7.472192464774707332e-08,6.946009278863130021e-08,-3.157859680413821479e-07,8.237402759903034166e-09,-1.128721152099387837e-07,2.100486113931765431e-07,-4.463279168476219638e-08,-1.557109214900265215e-07,-4.096231975836417405e-08,1.953892052597439033e-07,4.031574007967719808e-08,-5.148747561634081649e-08,-8.383155147839715937e-08,-1.355589631657494465e-07,-3.134728032705424994e-10,2.873803737202251796e-07,6.922477524540227023e-08
-6.391176299302969710e-08,1.382894652124377899e-06,-4.212002269923686981e-03,4.180178336810058681e-07,8.658215665491297841e-05,-9.178899063044809736e-07,8.046638981795695145e-07,1.724346702758339234e-06,8.002673089504241943e-02,-9.966445759346242994e-06,-1.206988375633955002e-02,-6.360709221553406678e-07,-8.553368502361990977e-07,-2.886330321416608058e-06,1.443136511625198182e-06,3.619505548613233259e-07,7.790762168724540970e-08,-6.395067657649633475e-07,2.481053229530516546e-08,9.949250170393497683e-07,5.111530754220439121e-07,-1.256078689948481042e-06,1.436059733350703027e-06,5.834352805322851054e-07,1.048365106726123486e-06,6.082664802670478821e-02,-8.417610501965100411e-07,8.724048825570207555e-07,8.814254403114318848e-02,9.085645526647567749e-02,1.306807007495081052e-06,1.729431915009627119e-06,7.747073595965048298e-07,5.355572625376225915e-07,9.501318345428444445e-07,1.198457312057144009e-06,-9.119316359829099383e-07,2.404891290552768623e-07,-4.480523614347475814e-07,-1.052957713909563608e-06,-4.320992843531712424e-07,6.155188998491212260e-07,-4.426265601068735123e-03,-9.261007676286681090e-07,-1.695373953225498553e-06,-1.175789293483830988e-06,-3.445414975544736080e-08,-1.391833961861266289e-06,2.229285655630519614e-06,-1.616388431102677714e-06,9.419487128070613835e-07,9.441324664294370450e-07,1.302074679188081063e-06,-2.471662128300522454e-07,2.448545536026358604e-03,-6.395886771315417718e-07,-8.652142469145474024e-07,1.778428668330889195e-06,1.469137771437090123e-07,7.906196941576126846e-08,-1.134623857979022432e-06,3.455433272847585613e-07,-1.460158159716229420e-06,4.505538129251362989e-07
-1.012498103136749705e-07,2.849021711881505325e-07,-1.247605609933088999e-06,-8.467886658536372124e-08,1.461752674458693946e-07,4.634837806224822998e-02,-5.766876753909855324e-08,-3.663714096546755172e-07,-3.428470449762244243e-07,5.295693874359130859e-02,7.908149063587188721e-02,-8.862158438205369748e-07,-4.053920577007374959e-07,2.012582495808601379e-02,6.848631528555415571e-07,8.587834798845506157e-08,4.050234281294251559e-08,-8.027904527807550039e-07,2.419332076897262596e-07,1.488957792616929510e-07,1.827902735840325477e-07,-5.461295700115442742e-07,-2.173251942849674379e-07,7.075490771057957318e-07,1.327896939073980320e-07,-1.727382397120891255e-07,-2.237965048834666959e-07,-1.159753878710034769e-06,-3.560722063866705867e-07,9.315218676420045085e-07,2.441490494220488472e-07,-4.935743618261767551e-07,-4.955012400387204252e-08,1.556675499614357250e-07,6.943284347471490037e-07,7.937185131368096336e-08,6.372421701428265806e-09,1.580631732167603332e-07,-5.671396934303629678e-07,-5.969764060864690691e-07,2.830775258644280257e-08,-1.326006326962669846e-08,-8.417116532655199990e-07,-1.320543816518693347e-07,2.601494486498268088e-07,-3.696040664635802386e-07,-2.877616509522340493e-07,2.592979185283184052e-02,-2.241873741149902344e-02,9.257342270529989037e-08,3.532416883444966516e-07,1.448521942393199424e-07,5.244663725534337573e-07,-3.156546313221042510e-07,8.467674916801115614e-08,-5.019399509365030099e-07,2.652402599778724834e-07,4.120569201404578052e-07,4.433324818364781095e-07,-3.776389405629743123e-07,5.372904752221074887e-07,-3.521925009408732876e-07,8.016019705792132299e-07,1.935594724500333541e-07
2.839445869540213607e-07,-1.001775231657120457e-07,3.969831539052393055e-07,-6.015513065449340502e-08,-1.360241867587319575e-06,1.579330444201332284e-07,4.420488153300539125e-07,3.155459467052423861e-07,5.067920483270427212e-07,-3.512814998885005480e-07,1.730498524921131320e-06,9.611491122996085323e-07,1.376923933094076347e-06,8.308750807373144198e-07,-1.273085445063770749e-06,-9.155039606412174180e-07,3.289986523213883629e-07,-1.876353223906335188e-07,-6.178296985126507934e-08,1.214385481063118277e-08,2.350115977378663956e-07,-2.420817395432095509e-07,6.691431053695851006e-07,-5.913044560656999238e-07,-1.018974444377818145e-06,1.295724842975687352e-07,-7.759128948237048462e-07,3.492742166599782649e-07,9.862925480774720199e-07,2.650358946993947029e-04,-1.437005153093195986e-06,-4.786301133208326064e-08,7.431658133327800897e-08,2.220481860604195390e-07,-5.561687643762525113e-08,1.073974772225483321e-06,1.455263031857612077e-06,1.933557172151267878e-07,-8.575081267281348119e-08,-2.917251720191416098e-07,1.348804971712525003e-06,3.564525030697041075e-08,-1.458467693282727851e-07,-1.296821494634059491e-07,-1.350486229512171121e-07,-2.427279923722380772e-07,-5.254572243984512170e-08,-1.509556227574648801e-06,-1.637788159314368386e-06,-3.824320913281553658e-07,-1.057562940331990831e-06,-1.120109573093941435e-06,-8.101067692223296035e-07,-9.447435189713360160e-08,8.506272024533245713e-07,5.148021955392323434e-07,1.343628639460803242e-07,3.550898668436275329e-07,-4.999930638405203354e-07,1.564119287422727211e-07,6.325034291876363568e-07,5.942738425801508129e-07,9.709949608804890886e-07,-1.974088803535778425e-07
4.473691319617500994e-07,-1.664361093389743473e-06,1.032424506774987094e-06,-2.223951582891459111e-07,-1.003700589308209601e-08,-1.444045807375005097e-07,5.786930614704033360e-07,2.085655381733886315e-07,1.850871512942831032e-06,2.562509280323865823e-07,8.392652830480074044e-07,1.017471049635787494e-06,7.167623721215932164e-07,6.431050110222713556e-07,-1.446887978318045498e-07,-8.749681796871300321e-07,3.222094733246194664e-07,9.764620756413933123e-08,-1.357027485937578604e-07,3.183037335929839173e-07,1.247304766138768173e-07,-2.130095992924907478e-07,-2.821482603110325726e-08,-3.536638075729570119e-07,-1.558087774355954025e-07,4.743848762700508814e-07,-9.582514621797599830e-07,-8.581621955272566993e-07,1.079926050806534477e-06,-1.958126318868380622e-07,-8.881094686330470722e-07,-1.041832646819784713e-07,-7.563284754041887936e-08,-6.495056936728360597e-07,-1.219216528625111096e-06,4.371766806343657663e-07,1.548021373309893534e-07,4.654702649986575125e-07,1.600405084900557995e-06,1.542771883578097913e-06,7.573166840302292258e-07,-1.024841367325279862e-07,-2.026293515200450202e-07,1.891300982492793992e-08,7.316339747376332525e-07,-1.373812210658797994e-07,-3.997630670937724062e-09,-5.382594281400088221e-07,-8.521544714312767610e-07,1.073388830263866112e-06,-1.309062440668640193e-06,-9.034631602844456211e-07,-1.434734485883382149e-06,-3.396646377495926572e-07,1.424730271537555382e-06,8.387806360588001553e-07,-1.014312829283881001e-07,-1.461784336242999416e-06,-2.357196535740513355e-07,-3.463566145001095720e-07,-1.794118986708781449e-07,4.554701718006981537e-07,6.108635375312587712e-07,-3.858197885620029410e-07
1.021922546584619340e-08,-3.110963291419466259e-07,-2.266656373706155136e-08,2.156476330839041111e-09,-2.700401182664791122e-07,-1.302659029533970170e-07,-2.951250088756296464e-08,-3.632310097145818872e-07,7.159116677257770789e-08,2.072438007871824084e-07,-1.684691568470952916e-07,-4.208274262396116683e-08,8.766067480792116839e-07,3.292221322226396296e-07,-1.129253277554198576e-07,-2.220215264969738200e-07,-3.188746688920218730e-07,6.652300044152070768e-08,2.671839354206895223e-07,-1.878773332464334089e-07,-4.714492547464033123e-07,1.449563598043823731e-07,-1.863383687350506079e-07,-8.284598607133375481e-07,-6.888128467608112260e-08,-9.740340374264633283e-07,4.263372943569265772e-07,-6.841308390903577674e-07,6.126283551566302776e-07,-3.135309611934644636e-07,-6.221809911721720709e-08,7.884834474225499434e-08,-1.444426089847183903e-07,5.861731011691517779e-08,-3.835461654944083421e-07,-3.677298252569016768e-07,-8.303810261622857070e-08,-2.099861546867032303e-07,9.011131396619020961e-07,1.193514407304974156e-07,1.813700691855046898e-07,-5.909991429575711663e-08,2.743896914125798503e-07,-4.426761961440206505e-07,-2.306206070556982013e-08,1.742743194199647405e-07,2.585744951488777588e-08,3.581089060844533378e-07,7.136025601539586205e-07,-4.110454909778127330e-08,-1.447130326681644874e-08,-6.250029400689527392e-07,-2.826053844273701543e-07,1.657044919056716026e-07,-4.721167954357952112e-07,8.695026849636633415e-07,-1.263185396283006412e-07,-5.542926260204694699e-07,-8.651064575815325952e-08,8.350328073447599309e-08,8.852621817823091988e-07,-7.005965141360093185e-09,3.547617950516723795e-07,8.220907687928047380e-08
1.691426945171770058e-07,4.415442589333906653e-08,-2.362053379556527943e-07,2.676704582427191781e-07,1.690202964255149709e-07,1.159441918134689331e-01,-2.186672531934163999e-07,-2.355600145165226422e-06,1.469899046924183494e-07,8.866978436708450317e-02,1.953542977571487427e-01,6.851703204802106484e-08,-2.813864057316095568e-07,6.278525106608867645e-03,4.326796272380306618e-07,1.787998797908585402e-07,1.328925378629719489e-07,-2.473541371728060767e-07,6.285254272597740055e-08,4.545952094758831663e-07,-8.508574467214202741e-08,-2.396671447968401480e-07,-9.925857824555350817e-08,8.795399821792670991e-07,6.692500846838811412e-07,5.514544199058946106e-08,-6.022075922373915091e-07,3.729167872279504081e-07,-3.466184352873824537e-07,8.833977460653841263e-08,4.112753231311216950e-07,-7.510064392590720672e-08,-8.059809708527154726e-09,-1.756107366190917674e-07,4.950339302922657225e-07,-1.300678604820859618e-06,6.007166462040913757e-07,-1.700345677591030835e-07,-1.090951741389289964e-06,-5.887209226784761995e-07,3.331991251798172016e-07,-1.262320949990680674e-07,-1.288951239075686317e-06,-7.026069681614899309e-08,3.043901131150050787e-07,-6.335807825053052511e-07,-3.218315498543233844e-07,2.455389676470076665e-06,-1.407194031344261020e-05,1.947431655935361050e-07,3.851293399748101365e-07,9.499480029262485914e-07,6.087429369472374674e-07,-7.585485661820712266e-08,-5.519615910998254549e-07,-7.020875614216492977e-07,1.337839137249829946e-07,5.349025400391838048e-07,9.644553529142285697e-07,-5.973778911538829561e-07,5.309938728714769240e-07,-6.690507916573551483e-07,4.910637017019325867e-07,1.653761927400410059e-08
-9.984321422962239012e-07,-5.158474668860435486e-03,-3.364756330847740173e-02,1.636857405173941515e-07,2.269608103233622387e-06,1.036952584981918335e-01,-2.478928864002227783e-02,-7.089509814977645874e-02,-5.512855132110416889e-04,1.516857892274856567e-01,8.988352119922637939e-02,-1.219984483213920612e-06,1.020160019397735596e-01,7.238987088203430176e-02,3.988774111007842293e-08,9.921013770508579910e-07,-1.144668112829094753e-05,1.563093263712289627e-07,4.079135464962746482e-07,4.442276840563863516e-04,6.554134306497871876e-04,-1.053110850079974625e-06,-5.266100913286209106e-02,-7.908683841151287197e-08,1.558879461072137929e-07,-5.318320170044898987e-02,1.172011438757181168e-02,-1.321288850158452988e-02,5.803246423602104187e-02,3.250468894839286804e-02,-2.429763413965702057e-02,-7.157234475016593933e-03,1.021063440020952839e-06,-2.450773628481783817e-08,4.190256959191174246e-07,-1.081664189696311951e-01,-9.291912874687113799e-07,-3.231239315937273204e-05,2.417215050343202165e-08,4.490274935960769653e-03,9.528787806630134583e-03,-5.561151397159846965e-07,-4.184138961136341095e-03,-1.410384015798626933e-06,6.141610071063041687e-02,-5.792298338747059461e-07,1.801995210826135008e-07,1.558472216129302979e-01,-4.823558777570724487e-02,5.235797539353370667e-02,-3.471448272466659546e-02,-5.231529846787452698e-02,3.444027925070258789e-07,-2.266244507609371794e-07,-5.258220434188842773e-02,5.520292744040489197e-02,1.580046273375046439e-06,-1.312453206628561020e-02,1.061859734363679308e-06,-3.793936222791671753e-02,7.198727130889892578e-02,-3.069924423471093178e-05,-7.631289804521657061e-07,1.567612116559757851e-06
1.828053086683212314e-07,-3.418270750898955157e-07,4.617941939955017006e-08,-3.146731444303441094e-07,1.308017090195789933e-06,3.266970068216323853e-02,7.696004900026309770e-07,-3.328359525767154992e-07,-9.019512071972712874e-05,7.241071015596389771e-02,1.373504251241683960e-01,-2.040946355919004418e-06,2.969089223370247055e-07,4.110991937977814814e-07,-6.014757332195586059e-07,-5.036068841945962049e-07,-9.611499081074725837e-07,-3.518398159485514043e-07,-2.854834804111305857e-07,-2.677961958852392854e-07,3.918320885532011744e-07,2.172364190755615709e-07,-1.755991689833535929e-07,-1.118955196943716146e-06,-2.770580351807439001e-07,-1.757847144290280994e-06,-1.365949970022484194e-06,-4.432231435202993453e-07,1.513971574604511261e-02,-1.583356424816884100e-05,-1.559874078793654917e-07,-3.411251157103833975e-07,-1.283025198972609360e-06,-1.857703523455711547e-06,-7.569025228804093786e-07,-7.238205871544778347e-04,-3.241304966650204733e-07,-8.071185675362357870e-07,-1.577106800709771051e-08,5.141474730407935567e-07,-1.088475642063713167e-06,6.815352548983355518e-08,3.529734504681414364e-09,-5.219652621235582046e-07,8.372770139430940617e-07,-1.476769170949410181e-06,-4.571316196688712807e-07,2.453943341970443726e-02,6.442608082579681650e-07,-4.838116183236707002e-07,3.190904465100175003e-07,-3.605093468195263995e-07,1.203734996124694590e-06,3.799326009357173461e-07,2.627301576296758867e-08,1.359425425562221790e-07,-3.147572442685486749e-07,-1.081842810890520923e-06,5.736800972044875380e-07,4.466767506983160274e-07,-1.931231565777125070e-07,-2.140378825288280495e-07,-8.416915306952432729e-07,3.745176400116179138e-07
-6.337427862490585539e-07,2.126157028214947786e-08,-6.502387464024650399e-07,4.789009153682854958e-07,1.370270474865264987e-08,-1.858156508660613326e-07,-2.613166394382915314e-08,-9.370720022161549423e-07,-1.290153159061446786e-04,5.744758482251199894e-07,3.839212695311289281e-06,8.573328158512083519e-11,8.256735782197210938e-06,-2.044798748102039099e-07,1.140183059078481165e-08,1.136660614520224044e-07,-7.769648391331429593e-07,-2.860232655166328186e-07,3.342672414419212146e-07,1.372716496916837059e-06,8.813358931547554675e-07,-5.267758069749106653e-07,-3.388575819940342626e-08,-4.794659616891294718e-06,-2.368753087012009928e-07,-1.776230419636704028e-05,5.511351446330081671e-07,-8.711093073543452192e-07,3.005465492606163025e-03,2.946497872471809387e-03,-2.535809073833661387e-07,-4.391833954286994413e-07,-1.005316221380780917e-06,-3.590886024085193640e-07,-8.588503241924172471e-09,-1.073377370630623773e-05,3.809313113833923126e-07,-5.837230787619773764e-07,3.632965785982378293e-07,2.678815214096630370e-08,1.305668035911367042e-07,-1.044041297859621409e-07,-1.218765646626707166e-06,-6.691642084888371755e-08,3.505695644889783580e-07,-1.287754571421828587e-06,8.505126061209011823e-07,5.796784069389104843e-03,5.394125537350191735e-07,-2.529788503125018906e-07,-4.054401614439484547e-08,-6.507036687253275886e-07,6.464213697654486168e-07,2.454481489166937536e-07,-5.581932782661169767e-06,6.695457273053762037e-07,-1.786278325255352684e-08,-1.311285213745350120e-08,1.462516792116730358e-07,-9.470087434237939306e-07,4.943307772009575274e-07,-8.907280175662890542e-07,-1.526720296851635794e-07,6.282943445512501057e-07
1.969050487105050706e-07,1.367032496091269422e-07,-3.727901639649644494e-05,2.417050097847095458e-07,8.836283882374118548e-07,1.121595595031976700e-02,-1.207725262020176160e-07,-8.946731782089045737e-07,-5.467257579994111438e-08,1.087224227376282215e-03,5.891420319676399231e-02,7.097705179148761090e-07,-2.119890467611185159e-07,5.657495876221219078e-07,1.599837133881010232e-07,3.383252078492660075e-07,-1.297903935437716427e-07,-2.870427238121919800e-07,1.569718932614705409e-07,5.561421971833624411e-07,-1.624002550215664087e-07,-4.062594030074251350e-07,2.071745370813005138e-07,-2.002712022886043997e-07,-1.445573190039795008e-07,-6.463320687544182874e-07,1.401853495508476044e-07,-7.543118272224091925e-07,4.522396181982912822e-07,4.945646878695697524e-07,-2.263074634356598835e-07,-5.238860012468649074e-07,-8.766382819658247172e-08,-2.922882629263767740e-07,2.082252876789425500e-07,-8.502553328071371652e-07,-2.710064279654034181e-07,-6.682545858893718105e-07,-1.849277282417460810e-07,3.332320943627564702e-07,-1.843123129674495431e-07,1.554726765107261599e-07,3.572282878394617001e-07,-1.854559457115101395e-07,1.160908027486584615e-07,-6.314380698313470930e-07,-7.119986378256726312e-08,6.726646688548498787e-07,-1.949914121723850258e-06,4.621017808403848903e-07,-2.042754942976898747e-07,-6.783657795494946185e-07,1.299275425026280573e-07,5.321560365700861439e-07,-8.945365266299631912e-07,2.660073050719802268e-07,-6.217391046448028646e-08,-2.304627884086585254e-07,1.770881965512671741e-07,-4.081238387243502075e-07,1.184773282147943974e-06,-7.520935696447850205e-08,6.101936946834030095e-07,1.073067323886789382e-06
5.918284529116135673e-08,-4.577392687110659608e-08,-4.787818852491909638e-07,-3.025405135304026771e-07,-4.543514364740985911e-08,7.127690082597837318e-08,2.676939629964181222e-07,1.879406674731853855e-08,4.375196169803530211e-07,3.131485186713689473e-07,8.335312884355516871e-08,-4.900851990896626376e-08,-1.246922352038382087e-07,2.334279969318231451e-07,-9.385297516928403638e-08,6.848799216641054954e-08,2.666849852062114223e-08,-4.772620059156906791e-07,4.569685785327237681e-08,-5.842802863753604470e-08,2.923720217040681746e-07,5.219957444069223129e-08,1.165114511536557984e-07,-2.515502295352689544e-08,-1.650095384775340790e-07,2.303648471979613532e-07,-2.743007030403532553e-07,2.614565346448216587e-07,3.841360296519269468e-07,9.141994894434901653e-08,1.625811307803814998e-07,-5.066771890938071010e-08,2.989344238812918775e-07,3.462028530520910863e-07,-3.087309892180201132e-07,3.359640388111984066e-08,3.193779321009060368e-07,2.871331048481806647e-07,-1.907357294328448916e-08,-2.647853492021567945e-08,1.736266312946099788e-07,1.927156212389036227e-08,-2.632581299621961080e-07,-3.459299691144224198e-08,-9.276298840177332750e-08,-2.540236039294541115e-07,-3.769741852011065930e-08,7.809023259142122697e-07,-2.997489367828620743e-09,-1.225464814069709973e-07,-9.942500156512323883e-08,1.259773085848792107e-07,5.690761639698393992e-08,-6.305586452981515322e-08,2.538331216328515438e-07,-3.423120986667527177e-08,3.126444028112018714e-07,-7.222609355039821821e-08,-2.382809327627910534e-07,3.430005222071486060e-07,4.693933064459088200e-08,3.668444659155056797e-09,-3.153273198108763609e-08,-1.648092506911780220e-07
-8.654708381072850898e-07,1.302013856729899999e-07,9.418000672667403705e-07,-7.237466093101829756e-08,1.872939492386649363e-07,-1.507915612819488160e-06,-1.544816882415034343e-06,2.093639928091306501e-08,2.046155557036399841e-02,-9.268937333217763808e-07,1.772504858672618866e-02,4.205286927572160494e-07,1.235273884958587587e-06,-8.954463055488304235e-07,-1.021960542857414111e-06,-2.666970431164372712e-07,-2.354678088067885255e-07,3.982254838774679229e-06,-5.360871213611062558e-08,1.565054361662987503e-07,-7.923961931055600871e-08,-2.740842433013312984e-07,3.862219841721525881e-07,-5.665799562848405913e-07,-3.363275027368217707e-07,5.122941453009843826e-03,2.610963747429195791e-06,3.016446896708657732e-07,3.399935364723205566e-02,3.630875423550605774e-02,-3.022439898359152721e-07,-2.070453177793751820e-07,-3.443764171606744640e-06,6.442784865612338763e-07,-1.257704866475251038e-06,-1.599180563971458469e-06,-5.563184117818309460e-07,-1.136481955654744525e-06,6.530804057547356933e-07,1.353902376877158531e-07,1.457751864109013695e-06,7.388479730252583977e-07,-6.782569244023761712e-07,2.045807832473656163e-06,-1.297178187087411061e-07,1.709353000478586182e-06,-4.615157536136393901e-07,1.709378807390748989e-06,1.188187411571561825e-06,4.933691570840892382e-07,-3.763885843000025488e-07,-2.620404302433598787e-07,-5.037693995291192550e-07,3.125061311948229559e-07,-3.846556865028105676e-06,1.148488422586524393e-06,1.119842991670338961e-07,1.125902372223208658e-06,-3.306965709271025844e-06,-1.005683216703801008e-07,1.603494524715642910e-06,-1.159204430223326199e-07,1.221332922796136700e-06,-6.488605777121847495e-07
-5.005940124647167977e-07,-3.343268062394599838e-08,4.193450422462774441e-07,-1.370640489994912059e-07,-1.062371893567615189e-06,-5.889881435905408580e-07,3.833575874523376115e-07,-4.296879581033863360e-07,4.059789262100821361e-06,3.161786708005820401e-07,6.423459808502229862e-07,-2.794908766645676224e-07,3.329963931264501298e-07,4.536276243527481711e-09,-1.708670964717384777e-07,2.289648080022743670e-07,7.524103295963868732e-08,-2.373933938315531122e-07,-2.562016909735120862e-08,-4.073826076478326286e-08,1.026192649078438990e-06,-9.298118897049789666e-08,9.126272004778002156e-08,1.418694779431461939e-07,1.336008921271059080e-07,3.614949491748120636e-06,6.857642915747419465e-07,-7.330893936341453809e-07,3.810386715485947207e-06,3.344286369610927068e-06,-7.073401775414822623e-08,-1.536885463337966939e-07,-4.149590040469774976e-07,1.130741722477068834e-08,9.357928831832396099e-08,-5.477202194015262648e-07,6.362765248013602104e-08,2.478573151165619493e-07,9.830491620732573210e-08,-2.395378260189318098e-07,-2.409111914403183619e-07,1.089527046360672102e-07,4.402936610858887434e-07,-1.208375266514849500e-07,-1.236804934023894020e-07,-1.111497951455930888e-07,4.062212255462327448e-08,6.637208684878714848e-07,5.872321366950927768e-07,6.377663908097019885e-07,-4.778894080459394900e-08,6.048304612704669125e-08,5.336670483302441426e-07,4.371763964172714623e-07,2.128906544385245070e-06,-1.455259592830770998e-07,4.277120524420752190e-07,7.048252115282593877e-08,-7.910262525001598988e-07,-2.414004995898721972e-07,3.974018056851491565e-07,6.606340008374900208e-08,5.411687311607238371e-07,-8.396877149152714992e-08
-3.013283560449053766e-07,5.937832270319631789e-08,6.564866339431318920e-08,1.964548772548369016e-07,-1.231975943483121227e-07,4.672668296734627802e-08,1.535756695147938444e-07,-8.543618150724796578e-07,-1.742179279062838759e-06,-3.213918731148623920e-08,-1.247779096047452185e-06,1.492489332122204360e-07,5.555393158829247113e-07,-5.559992928283463698e-07,-3.484298929379292531e-07,-3.348522170654177899e-07,-7.770434535814274568e-07,-6.513610628644528333e-07,-2.546595112562499708e-07,1.969340104324146523e-07,-9.377143328492820729e-08,-2.689259304133884143e-07,-2.680207842331583379e-07,-6.669133654213510454e-07,-6.875548592688573990e-07,-2.423736532364273444e-06,-8.044110018090577796e-07,-3.905333016973600024e-07,4.865106717488743016e-08,-5.937330911365279462e-07,-4.093164420737593900e-07,7.811704705318334163e-08,1.757120173806470120e-07,-5.662460011990333442e-07,2.983354718821829010e-08,-9.822172160056652501e-07,6.563384431501617655e-07,-3.507906853883469012e-07,-8.334568235568440286e-08,2.096238915783033008e-07,-7.925437017775038839e-08,5.460883585328701884e-07,-8.386731451537343673e-07,-3.714721970027312636e-07,9.416124839844997041e-07,-1.700775413837618544e-07,-2.396041338670329424e-07,1.351339847133203875e-06,4.140006808484031353e-07,3.631917877555679297e-08,-2.286208200530381873e-07,-7.848493623896501958e-07,-3.024036299148491480e-10,-1.163409848459195928e-07,-3.505224981381616089e-07,3.789788252106518485e-07,1.084546568108635256e-07,4.732089564640773460e-08,-1.041159691794746323e-07,6.087262960363659658e-08,8.633976449345936999e-07,1.958561739456854411e-07,-2.144813464610706433e-07,5.874903763469774276e-07
-2.676120800515491283e-07,1.637325652836807421e-07,2.386104469564997999e-08,1.092719017492527200e-07,-7.329885676199410227e-08,-1.808713818718388211e-07,1.190066143408330390e-07,-1.862784984041354619e-07,2.642808851760491962e-07,7.607215479765727650e-08,2.669392245024937438e-07,-1.323147529319612659e-07,4.953203713853326917e-08,-3.202795539891667431e-08,1.324693243986985181e-07,9.418889845846933895e-08,1.546119108297716593e-07,-9.872682227296536439e-08,-1.668397686671596603e-08,3.248106565933994716e-07,-1.814192351901056099e-08,-1.494902761578487116e-07,-1.191211929096880340e-08,-4.199143290861684363e-07,-1.892329493102806737e-07,-5.946395376099644636e-08,-1.257474480098608183e-07,5.252990717963257339e-07,3.421371275180717930e-07,2.005528330073502730e-07,1.279279437937930197e-08,2.946986832341735862e-08,2.361589857002854842e-08,-5.914799761086442231e-09,1.205423387773407740e-07,-1.498598294347175397e-07,7.840033511286037538e-09,8.941825946351400489e-09,-4.260230355157546001e-07,-1.056896579143540293e-07,1.706936458845120796e-08,-3.907234713551588356e-08,5.093800226063649461e-08,2.717742688673752127e-07,2.829106904300715541e-07,4.299367617477400927e-08,-1.885837122017619549e-07,4.723245581317314645e-07,8.301202001348428894e-07,-4.744346711049729493e-07,4.014030139387614327e-07,2.824621958552597789e-07,4.274895957223634468e-07,-2.486958123881777283e-07,1.755509693168733065e-08,1.305967742837310652e-07,-1.592943874584307196e-07,8.375499760404636618e-08,4.669077569019464136e-08,-1.443186619098923984e-07,3.270156412327196449e-08,-2.735324642344494350e-07,2.747698957250577223e-09,1.097370656566454272e-07
-5.037087902337589185e-08,-1.850197008934628684e-07,-4.350279709797177929e-07,1.507566480540845077e-07,-2.850375580010222620e-08,-1.435277141581536853e-07,-1.348280562751824618e-07,-1.199243939709049300e-07,-2.703979617990626139e-08,-1.772631321728113107e-07,-3.720222991887567332e-07,3.183863839240075322e-07,1.424497213520226069e-07,-2.436108843539841473e-07,1.719053166482353845e-08,6.378058969858102500e-08,-1.541189078579918714e-07,-4.752924454010098998e-08,6.504718186306490679e-08,1.526876474144955864e-07,2.204932627591915661e-07,1.650379175544003374e-07,-1.560670170874800533e-08,-2.807101111557130935e-07,-1.753059706288695452e-07,2.439344086724304361e-07,-2.113081905008584727e-07,3.580182594831171627e-09,1.029772818128549261e-07,-5.173849899620108772e-07,-4.983625601084895607e-08,4.491136351703062246e-08,-2.703308723539521452e-07,-1.025970348678129085e-07,-2.722920200426415249e-08,-9.009192503128815588e-09,-6.313580769301552209e-08,-2.244498631398528232e-08,-7.013121461341143004e-08,-6.967935917145950953e-08,-1.427986262569902465e-07,-1.682746386677536066e-07,-1.232402837558765896e-07,4.544426346342334000e-08,-1.914298906058320426e-07,-3.681142857203667518e-08,1.067098196472215932e-07,1.791813986073975684e-07,4.756743123834894504e-07,-1.617815286181212286e-07,3.431588595503853867e-07,-5.908785638553126773e-08,8.972861564870981965e-08,-9.121644239939996623e-08,-9.616722707050939789e-08,9.919371279920596862e-08,3.023380088507110486e-07,1.150105006786361628e-07,1.174636068412837631e-07,-1.370609794548727223e-07,-6.709344546607098891e-08,1.673672471724785282e-07,-2.341021456686576130e-07,4.558002331123134354e-08
-6.230459348444128409e-08,4.258859576111717615e-07,1.064122727711946936e-07,3.730816899860656122e-07,2.696697549708915176e-07,4.329839953243208583e-07,7.566332982378298766e-08,-6.039123832124460023e-07,1.209979245686554350e-07,-5.870199402124853805e-07,1.528840357423177920e-06,9.688041018307558261e-07,1.396260245201119687e-07,9.804539331526029855e-07,2.757178378942626296e-07,-3.895164581990684383e-07,1.280743617826374248e-07,1.693267108748841565e-07,-1.434568304148342577e-07,2.430750498660927406e-07,-9.582968374388656230e-08,1.356126855256434283e-08,5.411872550098451029e-08,2.294168837124743732e-07,2.534511907015257748e-07,6.226669029274489731e-07,1.022674837258819025e-06,1.245586247478058795e-07,6.917713335496955551e-07,1.473558540965314023e-06,-1.008461595120024867e-06,1.625354713041815558e-07,1.121374495482996281e-07,4.679105813920614310e-08,3.340348797564729466e-08,-6.175176849865238182e-07,-2.268813226180554921e-08,6.908811656103353016e-08,-1.758285748110210989e-07,-2.142319459608188481e-07,-5.261308615445159376e-07,1.780444875976172625e-07,7.952517222520327778e-08,-4.166486533563329431e-08,9.701022918306989595e-08,-6.166403920815355377e-08,-2.225043829184869537e-07,1.077238039215444587e-06,-1.876098387754154828e-08,-2.010804394103615778e-07,6.196374968681084283e-09,3.711557212682237150e-07,2.801419896059087478e-07,-2.087076609313953668e-07,-7.239326009766955394e-07,3.078088539609780128e-08,1.324798404311877675e-07,2.293977559020277113e-07,1.032935159628323163e-07,-1.684185804151638877e-07,-2.370979679255924566e-08,2.798308287310646847e-07,3.076512484767590649e-07,1.039043127093464136e-07
9.416466184575256193e-08,1.219522545170548256e-07,-6.535408942909270991e-07,9.503059317239603843e-08,3.268972648129420122e-08,-3.280708682495969697e-08,2.939522971701080678e-07,-2.471476179266574036e-08,1.202295862867686083e-07,5.896209032130173000e-08,-6.626216872973600402e-07,-9.508519305256868392e-09,-8.348081337317125872e-08,3.839216589085481246e-08,3.337349596677086083e-07,2.373656684540037531e-07,1.024188911458168150e-08,-9.690773339343650150e-08,9.424139335578729515e-08,8.077178925702810375e-09,3.330503517418037518e-08,-1.384421377537137232e-08,8.533260142939980142e-08,1.313868214225522024e-08,-5.025972882322093938e-08,4.199611396416003117e-07,-2.437317050407727947e-07,-6.639988470169555512e-08,-5.045120587965357117e-08,2.071088687216615654e-07,3.200910896339337341e-07,3.090295308538770769e-08,9.735418871059664525e-08,7.796371193080631201e-08,1.405799991971434793e-07,3.226822684609942371e-07,8.966625841821951326e-08,9.375243337217398221e-08,-6.551349542860407382e-07,-5.856217057953472249e-07,9.419481017403086298e-08,6.191260837340450962e-08,-1.581740605161030544e-07,-1.060255598872572591e-07,1.876481547924413462e-07,-4.159272748438525014e-08,-7.144227254229917889e-08,-2.694462182262213901e-07,3.973111972754850285e-07,-2.273613972647581249e-07,4.520922516348946374e-07,-6.854104128706239862e-08,-5.177521700261422666e-08,-5.850122164474669262e-08,2.940774663784395671e-07,-5.514352210411743727e-07,4.137455889008379017e-08,4.330590286372171249e-07,-1.180724353844198049e-07,-2.075412552926536591e-08,1.890162621975832735e-07,1.248236856099538272e-07,-1.040912920302616840e-07,4.974453204908968473e-08
-5.609343745049955032e-08,-6.902909177597393864e-08,-4.507256505803525215e-07,8.334475154470055713e-08,-1.063185379734932212e-07,-2.317036518206805340e-07,2.980034139454801334e-07,1.320099300983201829e-07,1.219645469063834753e-07,-1.863164698079344817e-07,1.787429255273309536e-06,-2.625747868023609044e-07,-8.667210238400002709e-08,-8.871653278674784815e-08,2.676404164958512411e-07,-7.625769882224631147e-08,6.633301552483317209e-08,-8.326318123863529763e-08,1.334179255962908428e-08,4.106909727852325886e-07,2.783780814752390143e-07,-1.875067709988798015e-07,1.555056883262295742e-08,-1.153124742359068478e-07,-5.899447685919767537e-08,-1.534911859835119685e-07,-3.935157906198583078e-07,1.482388114482091623e-07,3.302933180293621263e-07,8.395503527935943566e-07,1.043677699819056670e-09,1.824065787303652542e-09,-4.573735523649702372e-08,-6.569272414935767301e-08,7.255374612213927321e-08,-6.938533942957292311e-07,6.847589872904791264e-08,3.470698572982655605e-07,-3.461291839812474791e-07,-2.163407941679906799e-07,1.334492338855852722e-07,-2.438681008243293036e-07,-3.371109187355614267e-07,-1.615477458472014405e-07,2.419547513454745058e-07,-3.193574968918255763e-07,-1.533489211169580813e-07,7.287845846803975292e-07,-8.261032036216420238e-08,3.569200046626974654e-08,7.660995038349938113e-08,-2.720010172652109759e-08,2.028703249834507005e-07,-7.806318080838536844e-08,6.672546959407554823e-08,-6.816253517172299325e-08,-8.409850238422222901e-08,2.286229516812454676e-07,3.506522148200019728e-07,7.011409763890696922e-08,2.865639885385462549e-07,1.802138598350211396e-07,-5.348946388039621525e-07,-1.992390536997845629e-07
-6.589369831999647431e-07,-2.983789499921840616e-06,2.259460836648941040e-02,-6.459259793700766750e-08,-5.749005358666181564e-03,7.243159413337707520e-02,-1.382237882353365421e-03,-2.161463722586631775e-03,-8.379045873880386353e-03,1.122734397649765015e-01,1.748858243227005005e-01,1.723332161418511532e-06,2.484781481325626373e-02,1.701441593468189240e-02,-1.090478144760709256e-05,-1.212162260344484821e-06,-7.746040182610158809e-07,9.536057063996850047e-07,4.748839899093582062e-07,-3.784030511155833665e-08,-5.745767452935979236e-07,5.313814313012699131e-07,-2.595328680854436243e-07,-5.246593445917824283e-06,-3.587494347812025808e-06,-7.407663390040397644e-03,1.455850247293710709e-02,-1.111487677007971797e-06,3.479043925835867412e-06,-3.752619773149490356e-02,-2.444149140501394868e-05,-4.253479062299447833e-07,4.621134337412513560e-07,-7.264879059221129864e-06,-1.650529520702548325e-05,-2.351174689829349518e-02,9.418841386832355056e-07,-3.185641048730758484e-07,8.118028745229821652e-06,9.230566888618341181e-07,8.093451469903811812e-05,-1.227844904860830866e-06,1.803266070783138275e-02,-2.379673418317906908e-07,1.608171987754758447e-05,5.661299269377195742e-07,1.204226833806387731e-07,3.916015848517417908e-02,-7.500715553760528564e-03,1.416556824551662430e-05,-1.998819061554968357e-05,-1.282779220491647720e-02,-1.390900251863058656e-06,5.178827109375561122e-07,-6.115128286182880402e-03,3.467255504801869392e-03,-5.521931143448455259e-07,-5.173754971110611223e-07,-7.940731848066207021e-06,-7.662777079531224445e-07,3.041642048629000783e-05,-1.022576498144189827e-06,4.711115707323187962e-06,-8.249198799603618681e-07
-2.963745941997331101e-07,-1.071654651241260581e-06,1.925319281781412428e-07,7.319454198295716196e-08,-4.480971824705193285e-07,3.540456191331031732e-06,2.141229060725891031e-07,-6.735891133757831994e-07,-1.417820691131055355e-03,1.264996681129559875e-04,2.637395262718200684e-02,-2.613651588490029098e-07,1.115535724238725379e-06,4.192776259515085258e-07,-8.940896805142983794e-07,-1.374313114865799434e-06,-6.839822503934556153e-07,9.482943141847499646e-07,8.144630214701464865e-08,-2.072537483854830498e-07,-2.726016532506037038e-07,8.700648663761967327e-07,-1.033337639455567114e-06,-7.692452186347509269e-07,-6.552209583787771408e-07,-1.099019186767691281e-07,-1.347484499092388432e-06,-6.386325708263029810e-07,4.962017992511391640e-04,-2.535243947932031006e-05,-1.111103642870148178e-06,4.116422758215776412e-07,-3.730191338036092930e-07,-6.162514978313993197e-07,-1.217321937474480364e-06,-8.964356652541027870e-07,5.141339443071046844e-07,4.430714852787787095e-07,7.877941357037343550e-07,7.327739126594678964e-07,1.476571014791261405e-06,-1.125419316849729512e-06,1.377439531324853306e-07,6.682837039306832594e-08,9.259071589440281969e-07,-5.100963562654214911e-07,2.350193426536861807e-07,2.577815018594264984e-02,-2.566125942848884733e-07,7.956446665957628284e-07,-1.069020754584926181e-06,-1.152350137090252247e-06,-2.076510128290465218e-07,5.837337084813043475e-07,8.832250841805944219e-07,1.559703264319978189e-06,-7.045357364177107229e-08,-1.063178615368087776e-06,-5.300712473399471492e-07,-8.188163036493278923e-08,1.749207001466857037e-07,-5.918363399359805044e-07,-1.174892005906258419e-07,-5.737136348216154147e-07
-7.707873805884446483e-08,-5.335467108125158120e-07,2.848853171144583030e-07,1.268598111892060842e-06,3.271029527240898460e-07,-1.221666025230661035e-06,-1.176270529867906589e-06,-1.137039248533255886e-06,-6.618199869990348816e-03,3.170313220834941603e-07,4.665026441216468811e-02,1.144461862168100197e-06,4.325195277488091961e-06,3.499340266444050940e-07,-6.853098284409497865e-07,-5.280806476548605133e-07,-5.743482347497774754e-07,5.276333467918448150e-07,2.855117315903044073e-07,6.938377623555425089e-07,3.456428601111838361e-07,-1.312421886723313946e-07,-1.059940700542938430e-06,-6.193828312461846508e-07,-5.737829269492067397e-07,-2.149817300960421562e-03,1.492675096415041480e-06,-1.228451196766400244e-06,-5.284625217427674215e-07,-1.441505082766525447e-05,-7.007857902863179334e-07,-1.233490536378667457e-07,-2.381747435720171779e-06,-7.339320404753379989e-07,-7.948754614517383743e-07,-4.383030500321183354e-06,4.984823931408755016e-07,-2.413299853287753649e-07,4.969909923602244817e-07,8.177461268132901751e-07,5.295713094710663427e-07,1.859205553955689538e-07,-2.394148452822264517e-07,-5.813728307657584082e-07,6.945105610611790325e-07,-8.536491691302217077e-08,6.978836495363793802e-07,1.015342399477958679e-02,8.405697826674440876e-08,1.189166027870669495e-06,-7.261766654664825182e-07,-6.990176188992336392e-07,-5.504465772077082875e-09,-2.848490510132251075e-07,-4.699334112956421450e-06,9.877011279968428425e-07,9.077658660316956230e-07,-3.758167395062628202e-07,-6.941439210095268209e-07,-8.805971560832404066e-07,1.098084453587944154e-06,-4.001328761660261080e-07,1.068945380211516749e-06,3.870111697779066162e-07
4.544032776720996480e-07,-1.823184675231459551e-06,8.412815191150002647e-07,-5.761624422007116664e-08,-2.092882823490072042e-06,7.888077391271508532e-08,-1.233893954122322612e-06,-7.827243280189577490e-07,-4.128350639120981214e-08,1.786131491599007859e-07,-5.921988748013973236e-03,4.144013843188076862e-08,1.143678787229873706e-06,-1.014350488048876286e-07,2.138069561397060170e-07,2.650932344749890035e-07,3.723197039562364807e-07,-2.788550261811906239e-07,-3.842738180992455455e-07,1.425163702606369043e-07,-2.291871084025842720e-07,-4.345805280081549427e-07,2.537131535973458085e-07,3.144122047160635702e-07,2.579183160378306638e-07,3.334617417749541346e-07,1.516048655503254849e-06,-6.031183943377982359e-07,8.871590466696943622e-07,3.628735663369297981e-03,-5.450147568808461074e-07,4.384981764360418310e-07,-2.019849287826502859e-10,1.307879813339241082e-07,-1.619015392861911096e-06,4.962804567298917391e-08,-2.154323830438897858e-08,1.300212630894748145e-07,-2.564362659995822469e-07,-6.891384032314817887e-07,1.663579041633056477e-06,2.613850114130400470e-08,1.354160644950752612e-06,-2.165216557159510558e-07,-4.268564737230917672e-07,6.776593295398924965e-07,1.499073079003210296e-07,-3.086669551066734130e-07,5.257485895526770037e-07,1.485349116592260543e-06,-1.910015043904422782e-06,-1.401129679834411945e-06,4.396699750941479579e-07,-3.667675230190070579e-08,-1.347118313788087107e-06,1.490342356191831641e-06,1.128710422904077859e-07,3.620867516929138219e-07,1.956221495902354945e-07,-1.587334708119669813e-08,1.196599441755097359e-06,-1.371139717321057105e-07,1.189674321722122841e-06,-4.641632500579362386e-08
2.868959256829839433e-07,2.374268319726979826e-07,8.598977387919148896e-07,-1.739753514584663208e-07,-2.288747538159441319e-07,-2.441581727907760069e-07,3.001968877924809931e-07,1.196838752548501361e-07,4.824990355700720102e-06,2.760228312581602950e-07,5.167352128410129808e-07,6.514275696645199787e-07,-1.067981614255586464e-07,7.112193429748003837e-07,-6.275223451979172751e-09,-1.479461531062042923e-07,-6.879243414914526511e-07,-1.286339738726383075e-06,6.729275270345169702e-08,1.169194092653924599e-06,8.603095693615614437e-07,-3.086686035658203764e-07,2.659489268808101770e-07,-8.210555506593664177e-07,9.254336674757723813e-08,4.155798251304076985e-06,-1.980221213671029545e-06,2.873125879432336660e-07,4.304615231376374140e-06,4.951949449605308473e-06,-8.119266681205772329e-07,5.041330268795718439e-07,-1.052207039720087778e-06,2.907167981902603060e-07,1.427769404926948482e-07,1.089989382307976484e-06,2.298764556485366484e-08,4.762223113630170701e-07,-3.043022900328651303e-08,8.091583367786370218e-07,8.388198011743952520e-07,-1.242824055225355551e-06,6.719323550896660890e-07,-1.599119627826439682e-06,-2.995420089746403391e-08,7.344744812343151352e-10,-3.786869342548015993e-07,-6.946188477741088718e-07,-8.027743660932173952e-07,-6.626693220823653974e-07,2.033802530831962940e-07,1.388639105925904005e-07,-4.123860151139524532e-07,-4.810659426368601999e-09,3.066398903683875687e-06,1.018711714095843490e-06,3.615418222580046859e-07,-9.705762522571603768e-07,-4.424647670475678751e-07,-6.033830004525952972e-07,-7.241294497362105176e-07,5.686734638743473624e-08,-6.012181188452814240e-07,-7.049039822959457524e-07
-2.066783508780645207e-07,-5.630736836792493705e-07,3.688012100155901862e-07,6.554746505571529269e-07,-6.130184715402720030e-07,2.909385443672363181e-07,-8.474001447211776394e-07,-1.342973519058432430e-06,-1.569983680838049622e-07,7.364391194641939364e-07,-1.109009872379829176e-06,-8.541939600092973706e-09,7.993020290086860768e-07,9.889490684145130217e-07,-5.306871457833040040e-07,4.454276165688497713e-07,4.509168505251182069e-08,7.335813165809668135e-07,2.866507031740184175e-07,1.077082174560928252e-06,3.291740426902833860e-07,-5.845602117915404961e-07,4.644792852559476160e-07,-2.308214419599607936e-07,-4.730023306365183089e-07,-3.849091854135622270e-07,1.659109670981706586e-06,1.987920938972820295e-07,2.099422147239238257e-07,2.125780582673542085e-07,-1.200357587549660821e-06,-2.619977568230069664e-09,5.470778674521170615e-08,-4.994541669134378026e-08,-1.033605030897888355e-06,-2.287701818204368465e-06,1.414169048530311557e-07,-5.548552621803537477e-07,5.431112981568730902e-07,-3.295372152933850884e-08,8.169621992237807717e-07,3.797988767928472953e-08,-6.162729704328739899e-08,-7.040057425911072642e-07,6.215470307324721944e-07,8.026994180454494199e-09,5.803642579849110916e-07,9.260257343157718424e-07,-9.318593896523452713e-08,1.193879256788932253e-06,-8.752163012104574591e-07,-7.120761438272893429e-07,-3.403928872103278991e-07,4.245358695698087104e-07,-6.009520348015939817e-07,1.630601559554634150e-06,-2.915164145633752923e-07,-1.094507410925871227e-06,-5.524585731109254993e-07,-6.080250614104443230e-07,8.213815476665331516e-07,1.654489665270375554e-07,4.339446491030685138e-07,3.058240736208972521e-07
-2.806849295211577555e-07,-1.967053549378761090e-06,-1.589134285495674703e-06,-1.523181936136097647e-07,-5.228865234130353201e-07,1.070321786755812354e-07,-4.423645236784068402e-07,-1.890597786768921651e-06,3.019057203346164897e-06,1.780563252395950258e-07,4.651150788959057536e-07,1.644337430661835242e-06,5.027705469728971366e-07,3.350177166794310324e-07,-1.516014208391425200e-06,-1.536132117507804651e-06,-2.652014075010811212e-07,1.886631139313976746e-06,3.240244694779903512e-08,1.794872304117234307e-07,-2.938634509064286249e-07,1.830807377700693905e-06,-3.416237177589209750e-07,-1.375692249894200359e-06,-1.042548888108285610e-06,2.577825625849072821e-06,-1.715752546260773670e-06,-1.615372752894472796e-06,1.448583248020440806e-06,2.875203563235118054e-06,-1.658950736782571767e-06,-3.453663737218448659e-07,3.627088460689265048e-07,-1.420768285242957063e-07,-1.660811790316074621e-06,-7.140441198316693772e-07,-5.319796869684978446e-08,8.464404004371317569e-07,1.107297975977417082e-06,1.530508626501614344e-07,9.760112789081176743e-07,-2.787452046959515428e-07,-4.893847744824597612e-07,-2.506470053731391090e-08,1.109961090151045937e-06,1.765989736668416299e-06,-1.569681842283898732e-07,-5.056874101683206391e-07,-1.184425855171866715e-06,1.163942215498536825e-06,-1.836628143792040646e-06,-1.603066380084783304e-06,-1.623949515305866953e-06,6.411294748431828339e-07,1.157478664026712067e-06,1.093092237169912551e-06,-1.684310575456038350e-07,-1.912926336444797926e-06,-1.198307018057676032e-06,-5.564176603911619168e-07,1.034335923577600624e-06,-1.496995452043847763e-07,1.258310931007144973e-06,-1.684546532487729564e-06
-7.870952458688407205e-07,-1.192445665765262675e-06,1.702229184274983709e-07,-5.312527306955416861e-08,-6.221402486517035868e-07,1.384240846391548985e-07,-8.997036502478295006e-07,-1.269652557311928831e-06,-5.241780627329717390e-07,6.230251301531097852e-07,-1.024957896333944518e-07,8.851733355186297558e-07,1.251131607205024920e-06,5.558289899454393890e-07,-1.069507902684563305e-06,-1.118965997193299700e-06,-5.169562768969626632e-07,4.015948888991260901e-07,4.533623609859205317e-07,1.924778558759498992e-07,6.294206968959770165e-07,2.430670065223239362e-08,9.375023779512048350e-08,-6.068561901884095278e-07,-5.240512450654932763e-07,-1.068041797225305345e-06,7.482726687157992274e-07,-1.082463086277130060e-06,1.103292902371322270e-06,1.136179321292729583e-06,-8.234221127167984378e-07,3.055609170132811414e-07,2.312736846477037034e-08,-9.428150065105000976e-07,-8.855429314280627295e-07,-1.066009645001031458e-06,1.461537948443947244e-07,2.297164343190161162e-07,6.531547001031867694e-07,-4.662212838013601868e-09,1.000220322566747200e-06,-9.579307516105473042e-07,8.161380549154273467e-08,-2.217702785856090486e-07,8.975155765256204177e-07,1.340807358474194189e-07,9.872265138710645260e-08,1.247510226676240563e-06,-4.115973339935408148e-08,1.142458245340094436e-06,-7.751725661364616826e-07,-8.102885544758464675e-07,-3.892826896390033653e-07,4.857311637351813260e-07,-1.133398313868383411e-06,1.048981630447087809e-06,2.950060888906591572e-07,-1.033128796734672505e-06,-5.793299919787386898e-07,-3.811146882526372792e-07,1.103547447200980969e-06,-3.833300468158995500e-07,1.083559368453279603e-06,-8.643137334729544818e-07
-6.319035072976930678e-09,-1.765674384479609671e-09,-2.884092396016058046e-07,1.324764298260561191e-07,-1.188282539033025387e-07,5.774921305601310451e-07,8.110981752906809561e-08,7.095405152313105646e-08,1.896944183954474283e-07,-2.977369888412795262e-07,1.779710032678849529e-07,3.918766111610239022e-08,-8.151251762456013239e-08,-1.541815493055764819e-07,1.529185453819081886e-07,1.057208294241718249e-07,-2.436525221582996892e-07,-3.058844129100179998e-07,-4.580716250757177477e-08,-9.754668894856877159e-08,6.437186783614379237e-08,-4.246933471563352214e-09,1.413544339357031276e-07,-2.191435584109058254e-07,-3.172871387846498692e-08,1.916891108066920424e-07,-1.099831052897570771e-07,1.284913508925455972e-07,-4.753647075972367020e-08,-1.358729093681176892e-07,2.974709616410109447e-07,1.742558453088349779e-08,6.630081372804852435e-08,6.689878517818215187e-08,2.362093312058277661e-07,2.265894920583377825e-07,1.179010311602723959e-08,8.688829211678239517e-08,-9.401887268722930457e-08,-3.546050209024542710e-07,-1.010677550539185177e-07,4.509617212988814572e-08,2.499181164239416830e-07,6.059397872348881720e-09,-1.640763969135150546e-07,-1.755601886088697938e-07,8.028701259377157839e-09,1.562704077251453327e-09,3.157223602556769038e-07,-9.714648285807925276e-08,2.513953063498775009e-07,-5.549520309955369157e-08,1.868628451973108895e-08,1.865711425352856168e-07,-1.796441466694886913e-07,-5.076447706642284174e-08,-3.320957659980194876e-07,6.497472782029944938e-08,1.594036262986264774e-07,-1.921983283637018758e-08,-4.068725729666766711e-07,-9.412819679255335359e-08,-2.775448990632867208e-07,-4.273957632250358074e-09
-2.927623938830947736e-07,-2.681191624276380026e-08,6.543694297533875215e-08,-1.089639241058648622e-07,1.347570499632411156e-08,-1.166466461199888727e-07,-1.401783293886182946e-07,-3.103667438608681550e-07,1.074111182219894545e-07,-3.065873386276507517e-07,2.389070630215428537e-07,7.348955364250286948e-07,-6.071097118365287315e-07,3.935539609756233403e-07,-7.405403579241465195e-08,9.997896910363124334e-08,1.966057894264849892e-08,-4.494712300129322102e-07,-1.237295919054304250e-07,-8.067205499173724093e-07,-5.008546963836124633e-07,-1.380811340823129285e-07,5.034832994965654507e-09,6.131885044169393950e-08,-1.096178969817174220e-08,3.423303098770702491e-07,4.550686583115748363e-07,-2.523029820622468833e-07,2.381603536605325644e-07,-5.502640760823851451e-07,3.804837263032823103e-07,1.265375999537354801e-07,5.537747682637927937e-08,-1.422679929419246037e-07,-3.579384326712897746e-07,1.055662437465798575e-06,2.841224215899273986e-07,-1.036729031511640642e-07,-1.648994043534912635e-07,1.346252247458323836e-07,-6.403810175470425747e-07,8.694965458744263742e-08,-4.857367912336485460e-07,1.950692478658311302e-07,7.516741362678658334e-08,-1.317466171713022050e-07,-2.292252645474945894e-07,-9.431637408852111548e-07,-6.974907478252134752e-07,3.864871302994288271e-07,-1.589365012932830723e-07,-4.889405431640625466e-07,-3.487989488348830491e-07,-1.830717479833765537e-07,6.056591246306197718e-07,3.320899395475862548e-07,-1.764900936507274309e-08,-1.000129579153963277e-08,-2.136783905370975845e-07,-1.069940154252435605e-07,-1.605094439582899213e-07,1.120539039334289555e-07,3.227595755106449360e-07,-3.692794052767567337e-07
-2.573437996034044772e-07,1.054873735029104864e-07,-3.259591494497726671e-07,-2.794404565520380856e-07,-2.874299465105423224e-09,3.175175322667200817e-07,-1.237431774825381581e-07,1.627157644179533236e-07,1.443729331640497549e-07,-2.310050604137359187e-07,5.297615075505746063e-07,-1.478632896123599494e-07,9.194833694436965743e-08,-3.984242482601985103e-07,-1.859046818708520732e-07,2.660047186964220600e-07,3.694153747346717864e-07,-1.619263940710879979e-07,1.955799007191671990e-07,-7.966909976175884367e-08,-2.352866168564560212e-08,-3.896402489544925629e-08,1.710699990553621319e-07,-5.881215656700078398e-07,-7.545093438920957851e-08,2.598691253297147341e-07,6.301298327571203117e-08,5.603499531048328208e-08,8.606991173110145610e-07,9.073613682630821131e-07,-1.273944292279338697e-07,-1.938378915156135918e-07,-3.135434667456138413e-08,2.055694636737825931e-07,7.732225526524416637e-08,-1.085969415726140141e-06,2.576265671905275667e-07,-7.646759314638984506e-08,-2.225239725817118597e-08,7.176866745339793852e-08,4.328537670517107472e-07,1.679533028209334589e-07,-2.204514117920552962e-07,4.362981442795899056e-08,-1.073901572112845315e-07,-4.233924641994235571e-07,2.889493657676212024e-07,9.590704621587065049e-07,4.252792109582514968e-07,-3.747701100564881926e-07,-2.222202510893112049e-07,-5.446730710900737904e-07,1.072268531743247877e-07,-2.021331511059543118e-07,2.411397588275576709e-07,4.218061988581212063e-08,9.498203468183419318e-08,4.745321291466098046e-07,1.479899669476480994e-08,-1.101439011108595878e-07,-1.937066684831734165e-07,-1.992615068502345821e-07,-5.049969331594184041e-07,5.645612688454093586e-08
-2.419020859178999672e-07,1.830392619694976020e-07,-1.730441425706885639e-07,-2.664845624167355709e-07,8.761149388192279730e-07,8.672239459883712698e-07,7.377155384347133804e-07,1.065517594156517589e-07,-1.671745167186600156e-06,2.824288856118073454e-07,-2.137732280971249565e-06,-3.895454980806789536e-08,-5.208897846387117170e-07,-2.587415792731917463e-07,1.102771096661570027e-09,6.574742883458384313e-07,1.669931748438102659e-07,-3.215031370018550660e-07,-2.471451239216548856e-07,4.566536233596707461e-07,1.770440576365217566e-07,-5.425438303063856438e-07,-2.507714036426023085e-08,-2.855306879823160671e-09,1.586254967378408764e-07,-2.735954922172822990e-06,7.014270408944867086e-07,2.543822574807563797e-07,6.308104048002860509e-07,-4.089226308678917121e-07,6.769231930547903175e-08,-3.039369005364278564e-07,1.058426235545084637e-07,3.014519336375087732e-07,3.991258950009068940e-07,-1.737920882760590757e-07,7.119641622921335511e-07,-4.928844443696789313e-09,9.413779089584295434e-09,1.228674761932779802e-07,-3.277162363701791037e-07,-2.305552015968714841e-07,-2.466141424406487204e-08,-2.569232471216764679e-08,3.184513275300560053e-08,-1.858717723735026084e-06,-3.302990592146670679e-07,3.682430644857959123e-07,3.833970936284458730e-07,-2.852135025932511780e-07,-1.148884578583420080e-07,1.157983149369101739e-07,6.541337711496453267e-07,-1.898096257946235710e-07,-1.466149797124671750e-06,-1.146432566656585550e-07,6.961469267707798281e-08,6.689742235721496399e-07,3.081781585478893248e-07,-2.542494392798744229e-08,-3.631352001320919953e-07,4.538784708074672380e-07,-5.179326194593159016e-07,8.696334319324705575e-09
-1.550635886360396398e-07,-1.296363507208297960e-06,7.392760039692802820e-07,-3.537452073487656889e-07,-1.351409423477889504e-06,-2.054613474911093363e-07,-6.485296921709959861e-07,-4.970098643752862699e-07,9.380160008731763810e-07,1.085205440176650882e-06,-7.339834235608577728e-03,6.486047823273111135e-07,9.136234666584641673e-07,6.486645816039526835e-07,1.458109863960999064e-07,-1.440927803741942625e-07,4.504694217644100718e-08,-2.102906364598311484e-07,-2.621334544983255910e-07,1.094765806897157745e-07,-3.932065624212555122e-07,-4.783634821592386288e-08,5.453732399018917931e-08,-3.867568523219233612e-07,-1.720469953170322697e-07,-1.598786383283368195e-07,2.432352630421519279e-07,4.284492831629904686e-07,2.263340519448320265e-07,2.084534798996173777e-06,-8.807623999018687755e-07,2.628730157994141337e-07,3.942127762002201052e-07,3.192477322500053560e-07,-9.668418670116807334e-07,-1.286964561586501077e-07,1.515655014827643754e-07,5.069040298621985130e-07,1.304908778365643229e-06,-2.862168502204553988e-09,1.002964836516184732e-06,1.382337799782362708e-08,6.651110311395314056e-07,-1.997928933406001306e-07,-2.677454915556154447e-07,3.400394632535608253e-08,3.312688434675692406e-08,-3.154829286700078228e-08,-3.748871790776320267e-07,-2.603616167107247747e-07,-1.014090571516135242e-06,-1.114541305469174404e-06,-9.195679808726708870e-07,4.288762767146181432e-08,-1.206648931884046760e-07,5.551466415454342496e-07,7.740625562746572541e-08,-2.894738031500310171e-07,3.034294024928385625e-07,-2.465027364451088943e-07,5.358671160138328560e-07,-4.048866131256545486e-08,7.493753173548611812e-07,1.158411766510880625e-08
5.106422236167418305e-07,6.977465432100871112e-07,3.075681149766751332e-07,-1.072936512969135947e-07,3.638305088315973990e-07,-1.444688223273260519e-06,-2.563771488439670065e-07,-4.116727723157964647e-07,1.705627422779798508e-03,-1.068382971425307915e-06,-1.863233023868815508e-06,-3.512474791023123544e-07,-6.788179973682417767e-08,-3.684129410430614371e-07,8.312271120303194039e-07,1.192420768347801641e-06,8.741209711615738343e-08,5.008119501326291356e-07,-6.357714354976451432e-09,1.565871343700564466e-06,-2.901653317621821770e-07,-5.482836513692745939e-07,-1.108461873400301556e-07,6.919877648670080816e-08,2.355840820200683083e-07,-2.380576660243605147e-07,-5.669143092745798640e-07,-9.870713029158650897e-07,7.270237896591424942e-03,1.231590006500482559e-02,7.375711561508069281e-07,-2.879314422443712829e-07,-7.203857990134565625e-07,-3.315903143175091827e-07,4.860416424889990594e-08,-1.670170490797318053e-07,-1.934556763671935187e-07,-1.354976689071918372e-06,-6.247850592444592621e-07,8.006245479919016361e-07,-6.230500275705708191e-07,1.756938104335858952e-06,-5.318779585650190711e-07,5.440418249236245174e-07,-4.242019144840014633e-07,-7.768306318212125916e-07,-1.545427892324369168e-07,6.994466730247950181e-06,7.478243446712440345e-07,-1.416271828702519997e-07,9.295415566157316789e-07,1.281515338291683292e-08,7.403299946417973842e-07,-5.929246071900706738e-07,-1.695558324854573584e-07,-5.150670290277048480e-07,-8.993676203772338340e-08,9.703593661924969638e-08,-3.339924603551480686e-07,-8.431383662355074193e-07,-4.280286347579931316e-08,-1.511462102143923403e-07,3.874454819197126199e-07,1.480038804402283859e-06
-9.387382959857859532e-08,-1.308374777408971568e-07,-6.675338113382167649e-07,-1.401314193572034128e-07,-7.341287044937416795e-08,6.087948918320762459e-07,6.696292871311015915e-07,1.135173945954193186e-07,3.903076617461920250e-07,4.569789382458111504e-07,-9.504874753929470899e-08,-5.145732728806251544e-08,-1.626950307809238438e-07,-5.115895618246213417e-08,2.425148579732194776e-07,-1.135351368475312483e-07,1.009031507237523329e-07,-1.957942288299818756e-07,5.401133051918804995e-08,-5.636970712430411368e-08,2.208311968843190698e-07,2.674264294455497293e-07,6.009067732293260633e-08,-2.683776187950570602e-07,-8.051199529290897772e-08,-1.893594969715195475e-07,-3.894498661338730017e-07,-6.054691681356416666e-08,-1.848638646606559632e-07,2.020300087224313756e-07,1.730431478108584997e-07,-2.951816213681013323e-07,1.023022946355922613e-07,8.475479518210704555e-08,1.351203309241100214e-07,2.625353374696715036e-07,8.433119802475630422e-08,-2.679818678075207572e-08,1.819893213905743323e-07,-1.614937161775742425e-07,-1.040137789232176146e-07,-1.115122145733948855e-07,-7.352023772000393365e-07,-2.030607646474891226e-07,-8.938621931520174257e-08,8.760400760365882888e-08,3.053471857583645033e-07,-1.634155388785529794e-08,-4.518450325008416257e-08,-2.187380800933169667e-07,-3.400540649067806953e-08,-3.842959301891823998e-07,-9.426737079820668441e-08,-3.536111492508098308e-08,3.938326926800073124e-07,3.576117535430967109e-07,1.924304484646199853e-07,-1.718407958151146886e-07,2.090129243015326210e-07,8.105106807931861113e-09,-3.940459691875730641e-07,-2.155799734282481950e-07,-1.000300908771123432e-08,3.622346866904990748e-07
-3.472391938430519076e-07,-4.767693724261334864e-07,1.018418174680846278e-06,4.808366611541714519e-07,3.960047365580976475e-07,2.159107103943824768e-02,-4.805825142284447793e-07,-1.250638661076663993e-06,-5.827615037560462952e-03,4.837778955698013306e-02,1.100312247872352600e-01,6.498395350718055852e-07,1.400178553012665361e-05,3.528604793245904148e-06,-3.614591150835622102e-07,-6.029635812865308253e-08,-1.351859964415780269e-06,4.336985526265380031e-08,4.136256563924689544e-07,4.189244293684168952e-07,-4.866795393354550470e-07,8.624411407254228834e-09,-5.019779791837208904e-07,-5.737777541980904061e-07,-5.935730200690159108e-07,-5.441692337626591325e-05,8.941864848566183355e-07,-1.841724383666587528e-06,-6.062135071260854602e-06,-2.998283132910728455e-02,-7.159609367590746842e-07,-1.407373986239690566e-07,-1.249930846825009212e-06,-4.911979658572818153e-07,-3.822375731488136807e-07,-1.099879009416326880e-04,-1.372215940875776141e-08,-1.235999775417440105e-06,3.386053606391214998e-07,1.097719405152020045e-06,8.669742612710251706e-08,4.537164954854233656e-07,4.838249765271029901e-07,1.408993171025940683e-07,1.579747817004317767e-07,-5.765669470747525338e-07,2.975368715851800516e-07,1.545678544789552689e-02,5.775474676283920417e-08,6.143680479908653069e-07,-5.737022235052791075e-08,-5.478447064888314344e-07,-1.712342907467245823e-07,4.034608878100698348e-07,-1.646680175326764584e-05,6.634475994360400364e-06,-4.293770317076450738e-08,-4.280532834854966495e-07,-5.228309305493894499e-07,-3.747946664134360617e-07,1.023345703288214281e-06,-1.047725845637614839e-06,6.945949166947684716e-07,4.973158524990139995e-07
1.565444449624919798e-07,-5.089193777507716732e-08,9.210516509483568370e-07,1.156236564270329836e-07,-7.185520303210068960e-07,-4.847246941608318593e-07,-9.180222377835889347e-07,-6.337035642900445964e-07,2.555164201112347655e-06,-4.530361650267877849e-07,1.209103288601909298e-06,-6.916407642165722791e-07,2.178092728399860789e-08,-2.304090287452709163e-07,-8.737567469552232069e-08,-8.579973354017056408e-08,4.523255370258993935e-07,1.087465584248548112e-08,1.631897958986883168e-07,2.853193059593195358e-08,5.745270641455135774e-07,4.682016552237655560e-08,-2.825502747327846009e-07,2.384919355336023727e-07,2.210855996054306161e-07,2.069965830742148682e-06,4.625110605616100656e-08,6.399359904207813088e-07,1.095484549296088517e-06,9.583607152308104560e-07,1.726283187508670380e-07,2.807759926781727700e-07,5.913100764587397862e-08,-4.166877545230818214e-07,-4.892861582561636169e-08,-1.135512206928979140e-06,-3.301618107798276469e-07,7.463373208338452969e-07,-1.419695738746895586e-08,1.579470954027328844e-08,2.679161923424544511e-07,-9.469896156133472687e-08,6.251015065572573803e-07,5.157135163358361751e-08,-1.744701876305043697e-07,-9.624572783195617376e-08,-9.167221293182592490e-08,3.868993303512979764e-08,1.213146134659837116e-07,2.639507954427244840e-07,2.345636147538243677e-07,-8.160721876038223854e-08,5.307446144797722809e-07,-3.304128313175169751e-07,1.544231508887605742e-06,1.683234351901319314e-08,5.676928935827163514e-07,-3.825549867997324327e-07,3.324884687572193798e-07,-3.382714623967331136e-07,7.738345288998971228e-07,-3.796515102294506505e-07,9.000655722957162652e-07,-1.269911649615096394e-06
-1.570031997744081309e-07,7.157307777561072726e-07,-6.695749448226706591e-07,4.578449193104461301e-07,1.182419282486080192e-06,-2.666556611075066030e-06,-6.755677759429090656e-07,-4.891068670076492708e-07,5.057838931679725647e-02,-2.995274144268478267e-06,3.913817927241325378e-03,4.074719583968544612e-07,-4.690839361387588724e-08,-8.625882514934346545e-07,1.858508085206267424e-07,9.629134183342102915e-07,3.235142855828598840e-07,2.553103115587873617e-07,1.121638391055057582e-07,6.618323595830588602e-07,1.594133607341063907e-07,-3.601496416649752064e-07,2.220780714878856088e-07,1.049384295015443058e-07,-5.485886589440269745e-08,4.023999348282814026e-02,1.659793156250088941e-06,-9.976103001463343389e-07,2.948460169136524200e-02,4.498891159892082214e-02,2.921149757639796007e-07,-1.720365645496713114e-07,-5.488087140292918775e-07,2.775856842163193505e-07,3.821330665232380852e-07,-2.117739228424397879e-07,-5.363027639759820886e-07,-1.137145090979174711e-06,-8.985946209350004210e-08,3.992884956005582353e-07,-1.897760881774956943e-07,1.649939349590567872e-06,-1.421878209839633200e-06,4.368693566902948078e-07,-4.080780797721672570e-07,3.099162881881056819e-07,2.117741928486793768e-07,6.926802598172798753e-06,9.303918204750516452e-07,-7.354350373134366237e-07,5.475933448906289414e-07,9.054104310735056060e-08,-3.669165380415506661e-07,-1.484741858348570531e-07,-2.480744797139777802e-06,-3.155200545279512880e-07,2.329156529867759673e-07,4.407430083119834308e-07,-1.193430875900958199e-06,-2.977229485168209067e-07,3.901107561432581861e-07,-2.832980250389027788e-08,-5.950689114797569346e-07,1.445578504899458494e-06
1.646911407249262993e-08,2.039158886191216880e-08,-2.889387644700036617e-07,-2.324726011693201144e-07,4.609909467490069801e-07,7.637030989826598670e-07,1.108203719013545197e-06,1.583548510097898543e-07,-1.429370627192838583e-06,-2.281190489838991198e-07,-1.130317286879289895e-06,-1.649296024197610677e-07,-1.519052148069022223e-06,-1.859446115304308478e-06,1.938551292823831318e-07,1.609059381735278293e-06,3.176147629346814938e-07,-1.611265020073915366e-06,-3.440523812514584279e-07,2.530184417537384434e-07,3.137150770271546207e-07,-3.472835032880539075e-07,-1.146324564160750015e-07,4.244841420586453751e-07,2.827123353199567646e-07,-5.181792630537529476e-07,-4.288685886422172189e-07,7.050334716041106731e-08,-2.123469812431721948e-06,-3.239269062760286033e-06,9.586048008713987656e-07,-9.686864643754233839e-08,2.592198029560677242e-07,2.841790092134033330e-07,1.426385892955295276e-06,1.139793425863899756e-06,2.313050373459191178e-08,-1.022980200104939286e-06,-1.038375330608687364e-06,2.287988962734743836e-07,-1.803356099117081612e-06,1.580950311108608730e-06,-1.203648452019479009e-07,-3.692400412091956241e-07,-8.184677540157281328e-07,-1.579269905960245524e-06,-2.316984080152906245e-07,-7.357692766163381748e-07,1.371299049424123950e-06,-1.741824689815985039e-06,1.729099835756642278e-06,3.561955850273079704e-07,4.647779121569328709e-07,5.763460819707688643e-08,1.035190734910429455e-06,-1.299850282521219924e-06,9.140359935599917662e-08,-1.126891575609079155e-07,1.063068339135497808e-06,-1.694839966148720123e-07,-3.220679900550749153e-07,-1.781015868118629442e-07,-7.974875302352302242e-07,1.605186866981966887e-06
-1.326745405094698071e-06,9.249647519027348608e-07,-6.008403841406106949e-03,-2.230386371593340300e-06,1.471167779527604580e-04,8.251667022705078125e-02,1.426031376468017697e-04,1.776383444666862488e-02,-2.478485405445098877e-01,2.018232044065371156e-04,3.003721497952938080e-02,-1.624441893000039272e-06,-4.725895076990127563e-02,1.300647727475734428e-05,6.183169716678094119e-06,1.683504902757704258e-03,1.451130742680106778e-06,-3.727957978844642639e-02,-9.105740446102572605e-07,4.489439504595793551e-07,-4.689741879701614380e-03,-1.855166260611440521e-06,-6.921307544871524442e-07,3.082637488842010498e-02,1.070309622264176141e-06,-1.329989731311798096e-01,-3.895073756575584412e-02,1.420533936470746994e-02,-6.718693673610687256e-02,-1.767760068178176880e-01,2.674413379281759262e-03,-1.143006670645263512e-06,7.462810724973678589e-02,1.090072328224778175e-05,9.522177278995513916e-03,2.934453636407852173e-02,4.942283406853675842e-02,-5.641604161610302981e-07,-1.633164100348949432e-02,-1.133617843152023852e-06,-1.685626059770584106e-02,2.035971701843664050e-04,-6.028868483554106206e-06,-6.559571623802185059e-02,-2.586323395371437073e-02,-2.968086861073970795e-02,-1.746121540691092378e-07,-3.005068562924861908e-02,-5.099995061755180359e-03,-2.520899102091789246e-02,4.826179065275937319e-05,1.007998548629984725e-06,1.325650714534276631e-06,-1.017855311147286557e-06,6.564632803201675415e-02,-1.738121360540390015e-02,5.551199819819885306e-07,1.018719672174484003e-06,3.699213638901710510e-02,-2.179258217438473366e-06,-3.127537295222282410e-02,-1.276223002832921338e-07,-2.311450801789760590e-02,1.371278078295290470e-03
-5.873743020856636576e-07,-6.536809138424359844e-08,-9.957904012480867095e-07,8.105996585072716698e-08,3.876849348216637736e-07,4.114324951842718292e-07,-5.609537083728355356e-07,-6.801869858463760465e-07,-1.713168700234746211e-07,3.185569994457182474e-07,9.877712727757170796e-07,-2.179216807007833268e-07,3.898144882441556547e-07,3.409143403132475214e-07,1.238858544638787862e-07,3.165305884067493025e-07,2.678426085367391352e-07,3.748208143861120334e-08,-6.160416177181105013e-08,-4.535830822050002098e-09,7.429989778984236182e-08,-1.043090236407806515e-07,5.314176405590842478e-07,-3.193304465298751893e-08,-3.462157565081724897e-07,-8.934036621610630391e-09,1.004575622687298164e-07,-4.249601488481857814e-07,-3.836283610780810704e-07,-3.788876483667991124e-07,-5.073210331829614006e-07,-1.895123347139815451e-07,5.373978595457629126e-08,-1.462786087813583435e-07,2.299980081943431287e-07,-9.898059261104208417e-07,5.159902229934232309e-07,-7.503494998672977090e-07,3.651883417887802352e-08,-1.101629862887421041e-07,2.042118580902752001e-07,-8.241530480290748528e-08,-6.374861527547182050e-07,3.694712518154119607e-07,4.853336932342244836e-08,-9.344288400825462304e-07,-2.279725741516358539e-08,2.431621339837874984e-07,-6.178163403092185035e-07,-4.422409176640940132e-07,-5.344000797435910499e-08,-2.799109921625131392e-08,2.487375923010404222e-07,4.342905981502553914e-07,2.444944868784659775e-07,2.370400267182048992e-07,1.552561315065759118e-07,1.989479301300889347e-07,4.343908699411258567e-07,-7.141697011547876173e-08,1.259050605995071237e-07,8.584473221162625123e-08,4.378148901196254883e-07,5.780338483418745454e-07
-9.214530791723518632e-07,-1.847189139425609028e-07,-7.995373039193509612e-07,1.973982648451055866e-07,7.425561534546432085e-07,1.814952810264003347e-07,4.210915278690663399e-07,-6.900281732669100165e-07,-1.703015914245042950e-05,1.194510730329056969e-07,1.011853601085022092e-05,1.352211000948955189e-07,2.495293301763013005e-06,-4.638319808236701647e-07,-2.289509737352091179e-08,-1.039480466147324478e-07,-7.388737799374212045e-07,-4.534959998636622913e-07,3.822314909029955743e-07,1.083168626792030409e-06,7.703378059886745177e-07,-3.726309216744994046e-07,-1.816606243210117100e-07,-1.354196683678310364e-07,-3.419661425141384825e-07,-1.635265653021633625e-05,1.252247102456749417e-06,-7.057599304971517995e-07,4.841758141083118971e-07,-1.668007371335988864e-06,9.380646304180118022e-08,1.788701986527030385e-08,-1.960679583135060966e-07,-2.200198849777734722e-07,1.569197394246657495e-07,-3.827150976576376706e-06,7.191653708105150145e-07,-8.691255857229407411e-07,-2.209517049323039828e-07,1.602228252295390121e-07,-1.910965892193416948e-07,2.937499310462499125e-08,-2.315029092869735905e-07,-9.809047014641691931e-07,-5.195324348505891976e-08,-7.401453103739186190e-07,4.195930500827671494e-07,1.787204200809355825e-05,4.037485439312149538e-07,-4.954790142619458493e-07,2.351736156924744137e-07,-6.653144168922153767e-07,5.163163336874276865e-07,1.634447102105696104e-07,-5.183453595236642286e-07,4.900136900687357411e-07,1.315171260785064078e-07,9.362140218627246213e-08,-3.699624642194976332e-07,-5.825568223372101784e-07,-6.289204179665830452e-08,-6.619074497393739875e-07,-2.746631935224286281e-07,3.488771085358166602e-07
-1.083452332295564702e-07,2.208745257803457207e-07,5.556001951845246367e-07,-5.601323138648695021e-08,9.263748665944149252e-07,-5.489394879987230524e-06,-1.018368678273873229e-08,-1.441161856519102002e-07,-3.003684014402097091e-06,-5.037255732531775720e-07,-8.101862855255603790e-03,-2.082469308106738026e-07,-3.988088792539201677e-07,-2.436433703678630991e-07,4.489803302476502722e-07,-7.207415819721063599e-08,-4.469904126835899660e-07,8.679248821863438934e-07,1.021024402803050180e-07,3.292309997959819157e-07,-1.239218505588723929e-07,-1.216039038354210788e-07,-1.907361166786358808e-07,-1.858478810845554108e-07,1.278958450257050572e-07,-3.129020569758722559e-06,2.116871428370359354e-06,5.090916488370567095e-08,-3.009377223861520179e-06,-3.151155624436796643e-06,2.974412041112373117e-07,-5.489013332748982066e-08,4.093890311196446419e-07,2.992821919178823009e-07,1.420841755361834657e-07,-2.289994682769247447e-07,1.066629238266614266e-06,2.143340651628022897e-07,-8.817893331070081331e-07,8.204813894963081111e-08,1.151086692630087782e-07,-3.278043436694133561e-07,-9.853774827206507325e-07,-7.442520200129365548e-07,-6.647110240010078996e-08,4.197902114810858620e-07,-1.845631487640275736e-07,7.286816838814047514e-08,1.560358526830896153e-07,3.707015139298164286e-08,-2.620531347474752693e-07,1.965749731880350737e-07,4.443082843863521703e-07,-4.706283007749334502e-08,-2.338416379643604159e-06,-6.309289801720296964e-07,1.431692879805268603e-07,3.853114947105495958e-07,5.016095627752292785e-08,-5.461306500365026295e-07,-4.370820647636719514e-07,-6.877876046473829774e-08,-3.915528736797568854e-07,1.314628661930328235e-06
-6.496019011592579773e-08,-8.561312370147788897e-08,-3.242445600903920422e-08,-2.287848275273063336e-07,-9.156193137016543915e-09,5.054838769780189978e-09,-3.183109811288886704e-07,-1.256472472732639289e-07,1.449613336035326938e-07,5.786471746205279487e-08,-1.314136355290429492e-08,-1.402706146791388164e-07,-6.065031499247197644e-08,5.055438734302697412e-08,-4.040340684241527924e-08,1.035099046475806972e-07,-7.850869820913430885e-08,-6.755082893050712300e-08,6.783816530742114992e-08,-1.671401150815654546e-07,1.919683256801363314e-07,-2.916014629761320975e-08,1.611584679039879120e-07,-2.797984244296003453e-08,1.915922780426626559e-07,-1.493383905426526326e-07,-2.297197454481647583e-08,1.461993548446116620e-08,1.067509671770494606e-07,-2.662691827026719693e-07,6.746226688392198412e-08,-1.082813056996201340e-07,-6.376339456437563058e-08,-6.747605141299573006e-08,-2.180890987801831216e-07,-7.741261498495077831e-08,-1.243854939048105734e-07,2.493858630714385072e-07,1.673523257750275661e-07,-2.040916768919487367e-08,-1.341417004141476355e-07,1.180969544378740466e-08,3.288528205303009599e-08,-2.020284455284127034e-07,-1.732132801635088981e-07,-9.034187087308964692e-08,-1.144256955853961699e-07,1.410336523122168728e-07,3.188898389794303512e-08,1.764083208399824798e-07,1.150142168171441881e-07,-1.508831672936139512e-07,3.767075895666494034e-08,6.920564743495560833e-08,-3.929852425699209562e-07,1.665730735567194642e-07,3.104526413721941935e-08,-1.639456286284257658e-07,-9.400181966157106217e-08,5.134087643909879262e-08,1.869053534164777375e-07,8.928005890140866541e-09,7.980594318723888136e-08,1.344988191931406618e-07
1.409169243515862036e-07,-4.550848871076595969e-07,8.347403763764305040e-07,-8.017325114906270755e-08,-9.342216458207985852e-07,3.106546728304238059e-06,7.433671953549492173e-07,9.057445709004241508e-07,5.008972038922365755e-06,3.039256455394934164e-07,1.143925601354567334e-06,-9.049218760992516764e-07,-4.859875275542435702e-07,6.093129059081547894e-07,-4.848065486839914229e-07,-1.169315510196611285e-06,1.252352035407966468e-07,3.075774657190777361e-07,-1.837092895584646612e-07,-3.400510308892989997e-07,-1.163760316558182240e-06,6.134882823971565813e-07,-1.041252971845096909e-06,-5.604715980211949500e-08,-8.464093070870148949e-07,4.518295554589712992e-06,-2.540761897762422450e-06,-2.296087160402748850e-07,1.642397819523466751e-06,3.878844436258077621e-03,4.228328123190294718e-07,-9.576596085025812499e-07,3.415898675029893639e-08,8.992087963122230576e-09,2.240131067310358048e-07,1.891487841021444183e-06,-1.044983122255871422e-07,1.676977916531541268e-07,7.486141271328961011e-07,9.409199606125184800e-07,-7.468946137123566587e-07,-4.441868668436654843e-07,3.281238605268299580e-07,4.620981712832872290e-07,1.163144247584568802e-06,1.299377004215784837e-06,1.500577155866267276e-07,-2.038825186900794506e-06,-9.899791848511085846e-07,-8.156647481882828288e-07,-3.916700279660290107e-07,-2.439278148358425824e-07,-4.365645338566537248e-07,6.341260814224369824e-07,3.066167664655949920e-06,-1.232649765370297246e-06,3.547369544776302064e-07,-4.308707559630420292e-07,3.455785133610334015e-07,-1.011203380585357081e-06,-1.459041982343478594e-06,3.335102292112424038e-07,-1.077260662896151189e-06,-9.908001175062963739e-07
8.513065097304206574e-08,-1.445767505714457002e-08,-1.590850843058433384e-06,2.890465111704543233e-07,6.035469937160087284e-07,1.557123709972074721e-06,-6.649279384873807430e-07,-1.202809016831452027e-06,-7.473038294847356156e-07,1.571714165038429201e-06,5.799287464469671249e-03,4.357580110081471503e-07,-8.944284246581446496e-08,4.090400977929675719e-07,2.049274456794591970e-07,3.058764264096680563e-07,2.166704149431097903e-07,4.051390476433880394e-07,2.567191756952524884e-07,6.107580929892719723e-08,-7.069388061609060969e-07,4.978209133810196363e-08,-5.520880677067907527e-07,1.653660746114837821e-07,-7.903568643996550236e-07,-5.769386461906833574e-07,7.545665425823244732e-07,-1.453118301242284360e-07,1.348616418539450024e-08,-1.327511114368462586e-07,2.184699923191146809e-07,9.509066245527719730e-08,1.569141083734848507e-08,-2.479502256846899400e-07,1.845163382085956982e-07,-1.842551455411012284e-06,4.994656688239729192e-09,-2.329248758314861334e-07,4.773125965584767982e-07,6.519589987874496728e-07,4.794692358700558543e-07,1.937815738983772462e-07,-1.114031761062506121e-06,-5.954282755737949628e-08,2.702022356970701367e-07,-2.826570835168240592e-07,-3.946285787037595583e-08,1.915079565151245333e-06,-7.809661610735929571e-07,-1.644589175953115046e-08,-7.462476503405923722e-08,-4.629804379874258302e-07,2.243579757532643271e-07,5.044724815661538742e-08,-6.669042136309144553e-07,6.069461022661926108e-08,1.485233891429516007e-08,-8.918067351260106079e-07,1.642718316929858702e-08,2.673702397260058206e-07,1.119181888498133048e-06,5.853138773659338767e-08,1.619418128484539920e-07,2.272295915872746264e-07
-1.935171667355461977e-07,-8.329584488819818944e-08,8.851520760799758136e-07,-1.722933831160844420e-07,-4.121503849319196888e-08,-1.600450190153424046e-07,-1.154079711795930052e-07,-7.396197077014221577e-08,-3.316100674055633135e-07,1.209185995776351774e-07,-6.759378265996929258e-07,4.798635586666932795e-07,-3.579699425770854759e-09,3.008117346325889230e-07,1.433836249731257340e-08,-1.353954246496869018e-07,2.773981009340786841e-07,1.775053988239960745e-07,6.785891315530534484e-08,6.478060754488979001e-08,-6.975819388799209264e-08,1.049283966381153732e-07,-3.861963193685369333e-07,1.060482333059553639e-07,1.047417370614311949e-07,9.229820108203057316e-08,2.804444534376671072e-07,-1.208821061027265387e-07,-3.454545094427885488e-07,-2.766975342183286557e-07,2.033780361898607225e-07,-2.062093500398987089e-07,2.874368476568633923e-07,-1.399047135919317952e-07,-2.637841305386245949e-07,-2.275583277366877155e-08,-1.677454264381594840e-07,2.870207822525117081e-07,-1.669391025416189223e-07,-1.073624176228804572e-07,1.799317175255055190e-07,8.332081335993279936e-08,6.523939077851537149e-07,3.423133998481375784e-09,1.319405384947458515e-07,6.631553901570441667e-07,-1.132121596469914948e-07,2.277058364086315123e-08,-3.345122934206301579e-07,2.006075305871490855e-07,-7.954643166385721997e-08,-3.312381977593759075e-07,-3.392643748156842776e-07,-2.255749365076553659e-07,9.099530018374935025e-08,-4.751704452132798906e-08,2.157295142524162657e-07,-1.366594943874588353e-07,-4.169417255894813934e-09,3.514981870011979481e-07,-9.491032670894128387e-08,-8.697162456883233972e-08,5.835393039888003841e-07,-7.615916786107845837e-08
-4.352465339252375998e-07,-1.779332592377613764e-07,-9.489652370575640816e-07,3.719216863373731030e-07,1.020290824271796737e-06,-6.664022293989546597e-07,3.693924668368708808e-07,-6.760784572179545648e-07,-1.911093249873374589e-06,5.410273047345981468e-07,1.170909627035143785e-06,-2.219605903519550338e-07,3.580060692343067785e-08,-4.851199975064446335e-08,-2.114766495253661560e-08,-7.863180329081842501e-09,-8.666102644383499864e-07,-1.188364180393364222e-07,-2.368858247336902423e-07,3.369117678175825858e-07,-7.482110220280446811e-08,1.639339046732857241e-07,-8.019329200692482118e-09,-8.793960404318568180e-08,-4.758083491651632357e-07,-2.278585270687472075e-06,3.864384723328839755e-07,-1.530501890556479339e-06,-1.469634156592292129e-07,7.153717335313558578e-03,8.760176584132750577e-09,-2.451203897635423345e-07,-1.679499384010796348e-08,-6.551674687216291204e-07,1.379739842377603054e-07,-5.095866981719154865e-07,2.610608760278410045e-07,-1.045845237968023866e-06,1.038366814753999279e-08,7.898528338046162389e-07,-6.376158978582679993e-08,-2.171363888692212640e-08,-1.381613742523768451e-06,-9.111252552429505158e-08,3.111618411821837071e-07,-1.252621700587042142e-06,-2.550619342400750611e-07,9.393197046847490128e-07,-1.367663031714982935e-07,-8.609161739059345564e-08,-5.128175928348355228e-08,-2.444259621370292734e-07,-2.261626548261119751e-07,2.801644711780681973e-07,-9.919529020407935604e-07,-7.357391496043419465e-08,-3.859969055497458612e-08,-3.138488011700246716e-07,4.366343375750147970e-07,6.505266014755761717e-08,-3.108420898456643044e-08,1.534379094891846762e-07,5.194596610635926481e-07,1.001787836685252842e-06
-3.597222928419796517e-07,-4.591180413626716472e-07,-2.113230479494632164e-08,6.193089348016656004e-07,-1.009299381848904886e-07,-4.238248436649882933e-07,-1.307412503592786379e-06,-1.237819219568336848e-06,1.837754410871639266e-07,3.063476299303147243e-07,-5.377248726290417835e-07,4.910128268420521636e-07,1.282628090848447755e-06,8.212178954636328854e-07,-4.883969229041440485e-09,-1.882121694052329985e-07,2.759474284630414331e-07,9.571909913574927486e-07,1.236301585549881565e-07,3.966036103975056903e-07,3.946990148051554570e-07,-4.943228759657358751e-07,1.845976100867119385e-07,-7.341454875131603330e-07,1.632781354565793208e-09,4.527960015821008710e-07,1.220624653797131032e-06,-1.213135192301706411e-06,2.242886239400831982e-06,2.916250878115533851e-06,-7.441965408361284062e-07,1.891124590258641547e-08,-5.253158406048896722e-07,1.279173300616776032e-08,-1.089112060981278773e-06,-1.848088686529081315e-06,-2.773882386009063339e-07,-1.544516976537124719e-07,-9.992540839220964699e-08,6.204764417816477362e-07,8.264698863058583811e-07,1.585479907362241647e-07,-1.030673857371766644e-07,-8.163519993331647129e-08,1.246624947270902339e-06,5.264867581900034565e-07,1.432897622777318247e-08,1.020795707518118434e-06,2.940496202086251287e-08,9.641785254643764347e-07,-8.103920094981731381e-07,-1.037253355207212735e-06,2.155214531285309931e-07,2.948343968967037654e-08,-6.562695489265024662e-07,1.382768573421344627e-06,-1.395326449937783764e-07,-3.077521171235275688e-07,-6.640603942287270911e-07,-5.846426347488886677e-07,1.126406687035341747e-06,2.556269294018420624e-07,6.565230137312028091e-07,4.230202819144324167e-07
1.852153559411817696e-07,-1.833012390761723509e-07,8.450495556644455064e-07,-5.051496643204700376e-08,-5.264472520138951950e-07,-1.285343387280590832e-08,2.605489044071873650e-06,1.560692055591061944e-07,2.993832140418817289e-06,1.284034709669867880e-07,4.008867108495905995e-06,-8.318863820022670552e-07,6.303953909991832916e-07,1.024633093038573861e-06,-1.543846906315593515e-06,-8.822712338485416694e-09,2.250962438665737864e-08,1.255624283658107743e-06,-9.036969572662201244e-08,2.117466522122413153e-07,-8.815640626380627509e-07,8.288494086627906654e-07,1.757004071123446920e-07,6.087586257308430504e-07,-6.204662099662527908e-07,3.034340124941081740e-06,-4.111076577828498557e-06,-6.203026714501902461e-07,9.720379239297471941e-07,2.426667435884155566e-07,-1.510150013928068802e-06,-7.092582166023930768e-08,-1.833383720395431737e-07,1.266735409899411025e-07,2.114675652364894631e-07,1.652085416026238818e-06,-8.632389381091343239e-08,3.023712338290351909e-07,6.436210355786897708e-07,1.293507523314474383e-07,1.188256646855734289e-06,-2.641659762048220728e-07,8.988451583036294323e-08,6.740175422237371095e-07,-2.715488562898826785e-07,1.763374712027143687e-06,1.327835548181610648e-07,-1.894046135930693708e-06,-1.599519009687355720e-06,1.336014406660979148e-06,-1.651938532631902490e-06,-6.757813935109879822e-07,-8.463933340863150079e-07,-2.011736022211607633e-08,2.882149374272557907e-06,8.987243518276955001e-07,5.387486794461437967e-07,-1.423787011844979133e-06,-1.114588826567342039e-06,-5.458618446141372260e-08,-1.694786988082341850e-06,-1.888962941620775382e-07,2.076539118434084230e-07,-3.222351097065256909e-07
2.053441221505636349e-07,1.707187067268023384e-07,-1.191597789329534862e-07,1.953041532942734193e-07,-9.892878551909234375e-07,-5.821995046062511392e-07,6.751415781991454423e-08,7.911640409474784974e-08,-3.863267465931130573e-07,1.817431609651976032e-07,-7.439153364430239890e-07,-1.891142034082804457e-07,1.103710587813111488e-06,5.268767822030895331e-08,-4.409088560919371957e-08,2.915280674642417580e-07,4.298685780668165535e-07,1.215420581957005197e-07,7.513065725106571335e-08,-2.078478189559973544e-07,-2.553132105731492629e-07,-7.364899090589460684e-08,-2.706216548631346086e-07,-9.503924758291759645e-08,1.828783808832668001e-07,-6.989520784372871276e-07,1.097822291740158107e-06,5.255153041616722476e-07,2.079974450452937162e-07,3.520135578582994640e-07,2.716099061217391863e-07,-1.068928128233892494e-07,1.903393922475515865e-07,1.547256687217668514e-07,1.239393583318815217e-07,-1.376556156174046919e-06,-1.957490383119875332e-07,6.965062766539631411e-07,-1.886866982658830239e-07,-5.538354912459908519e-07,4.402577502560234279e-08,-3.139445539090957027e-07,2.037315880443202332e-07,-2.801976108912640484e-07,-2.860288077499717474e-07,4.996082125785505923e-08,-1.183917532898703939e-07,1.080663537322834600e-06,-5.684985993070768018e-08,-2.026427097234773100e-07,9.265130529456655495e-08,-8.547162337890767958e-07,3.275719961948198033e-07,-2.054623848835035460e-07,-1.251963567483471707e-06,4.135489461987162940e-07,6.245680417293897335e-09,2.116850055244867690e-07,1.919493683999462519e-07,-1.331647467850416433e-07,1.080281961662876711e-07,-1.427407170240257983e-07,-1.171993702087092970e-07,-1.343735078762620105e-07
9.261738398436136777e-08,-7.408802389363700058e-07,2.288524036941907980e-08,-5.805446789963752963e-09,-6.624782713515742216e-07,9.702351633222860983e-08,-4.669179816119140014e-07,-6.101807912273216061e-07,-2.314890394927715533e-07,-8.412706620219978504e-08,-1.542604479709552834e-07,8.128637318804976530e-07,1.029421468956570607e-06,3.042602259029081324e-08,-1.181790025839291047e-06,-7.620211022185685579e-07,-1.487680151512904558e-06,1.131942667598195840e-06,9.456540794872125844e-08,5.515236694009217899e-07,7.310466685339633841e-07,1.010350729302444961e-06,2.513222057132225018e-07,-6.366371394506131765e-07,-9.609444759917096235e-07,-1.230617272085510194e-06,2.790471569369401550e-07,-1.324022036897076759e-06,1.012388452181767207e-06,1.191369278785714414e-06,-1.233512421094928868e-06,3.084858235524734482e-07,-8.636630468572548125e-07,-8.686020578352326993e-07,-1.445158204660401680e-06,-5.139032737133675255e-07,2.696085914521972882e-07,5.591093810153324739e-09,1.261500301552587189e-06,2.322068723970005522e-07,1.027946041176619474e-06,-9.082436918106395751e-07,-4.914371629638480954e-07,-2.461149506416404620e-07,9.394406674800848123e-07,7.076292263263894711e-07,1.664695048475550720e-08,8.036313374759629369e-07,1.359549628432432655e-07,1.031928491102007683e-06,-1.163349224952980876e-06,-1.023048412207572255e-06,-9.351600169793528039e-07,-1.945103065281728050e-07,-6.291683689596538898e-07,7.556950549769680947e-07,8.150541930262988899e-07,-1.446153191864141263e-06,-8.665022619425144512e-07,-6.252936941564257722e-07,7.031383688627101947e-07,3.116538138669966429e-08,1.029705231303523760e-06,-8.322914482050691731e-07
-9.244757279702753294e-07,7.018026053629000671e-07,-1.114441147365141660e-06,-2.380280079705698881e-07,1.288174644287209958e-06,-3.877126346196746454e-06,-1.553442871227161959e-06,-2.252034505545452703e-07,-4.505810011323774233e-06,-1.752292973833391443e-06,-3.847100742859765887e-06,2.715092648486461258e-07,1.832052163308617310e-07,-1.519434817964793183e-06,1.225210297661760706e-07,1.140735207627585623e-06,-9.940057310586780659e-08,7.664501708859461360e-07,3.320144799090485321e-07,5.203835939937562216e-07,6.210684091456641909e-07,-1.207032937600160949e-06,-9.314697990703280084e-08,3.155781200803176034e-07,1.041522921241266886e-07,-4.261456524545792490e-06,2.233918849015026353e-06,-6.308849265224125702e-08,3.474843879303080030e-06,1.820814050734043121e-02,-6.179489986379849142e-08,-1.943770371326536406e-07,3.427514343457005452e-07,1.485752250118821394e-07,-2.091289701411369606e-07,-5.776147986580326688e-07,-7.701984117147731013e-08,-9.566173275743494742e-07,2.275907036164426245e-07,-1.498759303331098636e-07,-1.180767412733985111e-07,1.770441599546757061e-06,-1.609046080375264864e-06,2.422447380467929179e-07,-7.588195671814901289e-07,3.426285388741234783e-07,-3.166842645896394970e-07,1.112014956561324652e-06,1.054179620041395538e-06,3.183719172739074565e-07,5.683761514774232637e-07,-1.913957525800924486e-08,-1.549735628714188351e-07,-8.230469639158854989e-09,-2.963265160360606387e-06,-2.276250512522892677e-07,1.237566227274555786e-08,9.749497849043109454e-07,-1.865944000201125164e-06,-2.011122290923594846e-07,1.062871319845726248e-06,-1.680427033079467947e-07,1.219376486005785409e-06,1.193481580230582040e-06
1.568985794619948138e-07,-7.049803518732744578e-10,-1.178758111564093269e-06,-3.717883245712982898e-08,-1.130257629711195477e-07,2.562510417192243040e-07,2.519061581551795825e-07,2.240468575109844096e-07,1.556319375595194288e-07,2.336395823476777878e-07,-6.495171760434459429e-07,-2.245140109380372451e-07,8.118095706777239684e-08,-1.147038659610188915e-07,-1.940232579045186867e-07,-2.340026128422323382e-07,-6.322172652062363341e-08,-3.276433702126269054e-08,-1.322187586083600763e-07,3.548755245219581411e-08,-1.659162940370606520e-08,8.588628475081350189e-08,2.966675261006912478e-08,1.381141174761069124e-07,1.582263564614549978e-07,-1.820731654333940241e-08,2.354715888941427693e-08,-7.832831983023424982e-08,1.113063987645546149e-07,2.892079180583095877e-07,-3.446438512355598505e-08,-3.577795553155738162e-07,-2.775273912902775919e-07,-4.040744840949628269e-07,-4.344210822182503762e-07,2.050616387805348495e-07,2.303734305542093352e-07,1.606411927923545591e-07,-2.038021449379812111e-07,2.069711229069071123e-07,-1.323721932067201124e-07,-2.570815240687807091e-07,-9.022818403536803089e-07,2.136500221183723625e-08,-6.919773198887924082e-08,-1.569419367797308951e-07,3.435258122408413328e-07,-9.992230616262531839e-07,2.556092226768669207e-07,-4.519573906236473704e-07,8.140642648868379183e-08,-1.700240090940496884e-07,-1.785478502824844327e-07,-1.378676728336358792e-07,-2.810866028823966190e-08,6.488966874940160778e-08,1.014172923419209837e-07,-3.622221811383496970e-08,6.998278223591114511e-08,2.711899469431955367e-07,8.925398731207678793e-08,1.316747102464432828e-07,-2.087677728468406713e-07,1.811392991157845245e-07
5.872357888847545837e-08,3.636745589119527722e-07,3.769782210838457104e-07,-1.250857479817568674e-07,-2.150615614482376259e-07,-5.737022945595526835e-08,-5.811835990243707784e-08,-1.439995997998266830e-07,1.081264855429253657e-08,2.348277305941337545e-08,-6.222147703738301061e-07,2.176979023715830408e-07,1.314831354903844840e-09,1.916487413211598323e-08,-7.146624625420372467e-08,-2.055893446595291607e-07,-3.033282212072663242e-07,9.288497437864862150e-08,-2.480342118360567838e-07,4.153629049596929690e-07,-1.141103993518299831e-07,1.327808689666198916e-07,5.484522347387610353e-08,2.005056742859778751e-08,4.740324399676865141e-08,7.985219951933686389e-08,1.860332510261741845e-08,-1.626765850915035116e-07,8.838420626489096321e-07,1.010606297313643154e-06,-2.876616633784578880e-07,-1.056827869660992292e-07,-1.943936212001062813e-07,-9.425345126601314405e-08,1.096449437909541302e-07,1.494108801125548780e-07,-3.339000542723624676e-08,-7.419338743375192280e-08,-6.151532971898632240e-08,-1.388026760196225950e-07,-1.024436073748802301e-07,-2.109359513724484714e-07,5.327988787939830218e-07,1.175107158246646577e-07,5.112755996350415444e-09,2.680565955870406469e-07,1.256999411225478980e-07,-1.842873018631507875e-07,3.980007434734034177e-08,1.819875734554443625e-07,-1.024688671691365016e-07,5.665121349807122897e-08,2.542397226079629036e-07,-9.907510900575289270e-08,9.461159322654566495e-08,-9.097052355855339556e-08,6.641386818273531389e-08,-2.102200653553154552e-07,-2.535881726828392857e-08,-5.186669795875786804e-07,9.001132639241404831e-08,6.664570406655911938e-08,5.874104047620676283e-08,-7.449256145264371298e-08
-8.937495721283994499e-08,1.807203346970709390e-07,3.289702377173853165e-08,-1.499102211255376460e-07,1.454508833376166876e-07,2.215466139432464843e-07,-3.607974363717403321e-08,-5.047417630521522369e-07,7.265068120432260912e-07,4.077683115610852838e-07,1.794592477381229401e-02,-6.902590143909037579e-08,-1.214814773220496136e-07,-6.820188787060033064e-07,-1.624204912786808563e-07,7.577723692975268932e-08,3.910401744633418275e-07,-2.749343366303946823e-07,-1.203465558319294360e-07,-1.586289783972461009e-07,1.337429580416937824e-07,-3.489510618237545714e-07,2.676864028217096347e-07,-1.060764560634197551e-07,-3.453658337093656883e-07,8.794573886916623451e-07,-2.292636622769350652e-07,1.887414491363870184e-08,7.186920925050799269e-07,5.623653009934059810e-07,2.729448169702664018e-07,-8.332724377169142826e-08,-3.521628144653732306e-08,1.480302955769730033e-07,-7.135552095860475674e-07,3.658895408875650901e-08,-4.958333477134146960e-08,-1.059498160316252324e-07,-1.770306852222347516e-07,3.798405501242996252e-08,-6.799900376108780620e-08,-9.360353203646809561e-08,-7.730014885964919813e-07,7.732235474122717278e-08,-9.910996112694192561e-08,3.775760148982953979e-08,-2.726292791521700565e-07,2.333760029671338998e-08,3.752886357233364834e-07,-7.659572816010040697e-07,2.029795069802275975e-07,3.183650391924697232e-12,1.736610499847301980e-07,-7.857804718014449463e-08,6.206731200109061319e-07,4.706460288161906647e-07,1.383420880074481829e-07,3.564967130387231009e-07,4.907748802907008212e-07,1.717296385095323785e-07,5.401661269388569053e-07,2.345593053121319826e-08,-7.623293640790507197e-07,3.990068648818123620e-07
-1.433297427411162062e-07,-1.099323654329964484e-07,5.270789529276953544e-07,2.461752615090517793e-07,-2.409401815839373739e-07,-2.911936114458058000e-08,2.727457797391252825e-07,1.160061771088294336e-07,-1.611935118717156001e-08,1.987721702789713163e-07,3.192804342688759789e-06,2.165119212804711424e-07,3.312483158879331313e-07,-3.782557769227423705e-07,1.474305548754273332e-07,7.158345738389471080e-08,-2.680555724055011524e-07,2.134956389454600867e-07,-1.400484137548119179e-07,2.482294974015530897e-07,-4.479435631310479948e-07,1.140909233754427987e-08,1.861824188154059811e-07,-3.203032008514128393e-07,-3.350160113768652081e-07,-6.038766997562561301e-08,2.964131340377207380e-07,1.814885166595558985e-07,-4.401758957328638644e-08,-2.957691549454466440e-07,-2.630256403790554032e-07,-1.076526601195837429e-07,-9.806017686742052319e-08,2.462352313159499317e-07,9.437101056164465263e-08,-2.781450803013285622e-07,-6.801545993084801012e-08,-4.439619871732247702e-08,-3.507265589064445521e-08,-2.232992102335629170e-07,2.390948736774589634e-07,4.818827648023216170e-08,5.407719072536565363e-07,1.751904505908896681e-07,-2.918309007782227127e-07,2.784155697099777171e-07,1.600469516915836721e-07,-7.064537044243479613e-07,2.083516221773606958e-07,1.718099298386732698e-07,-3.861700008656043792e-07,-4.588966007190720120e-08,-2.082897054833665607e-08,2.995357704094203655e-07,-2.133862722075718921e-07,1.886003815343428869e-07,1.511748615179442368e-09,1.761270596034592018e-08,-1.570182632804062450e-07,4.633229977457631321e-08,-2.080336400922533358e-07,-1.340663970950117800e-07,6.828228293898064294e-08,-5.442032602331892122e-07
-2.179631195531328558e-07,-1.408246021128434222e-06,3.555353771389491158e-07,3.911591193173080683e-07,-8.766536438997718506e-07,-4.951547794007638004e-07,-3.437158468955203716e-08,-3.492289408768556314e-07,2.233616669400362298e-06,9.582381466088918387e-08,4.428642341736122034e-07,1.038081677506852429e-06,6.144743451841350179e-07,4.854030635215167422e-07,-1.647486101319373120e-06,-1.919987198562012054e-06,-1.714656264084624127e-06,1.310378934249456506e-06,1.592769791614045971e-07,2.516281654152408009e-07,3.155341516958287684e-07,1.240422534465324134e-06,-1.830395177648824756e-07,-1.204372097163286526e-06,-1.015885800370597281e-06,9.530619990982813761e-07,-1.285147732232871931e-06,-7.725051887064182665e-07,2.033564896919415332e-06,2.769211732811527327e-06,-5.443860118248267099e-07,-6.494393574030254968e-07,-1.163308638751914259e-06,-1.815482050915306900e-06,-1.167626010101230349e-06,-1.114001904056749481e-07,2.914949845944647677e-07,5.990666522848187014e-07,1.213032419400406070e-06,9.921490118358633481e-07,3.963741903589834692e-07,-1.228646510753605980e-06,-3.620390600644896040e-07,4.868801966040336993e-07,1.828644258239364717e-06,1.211067001349874772e-06,-2.814426807162817568e-07,3.080679675804276485e-07,-2.871695414796704426e-07,2.594603927263960941e-07,-1.229263830282434355e-06,-1.115861209655122366e-06,-1.124275854635925498e-06,2.208334990427829325e-07,7.118869689293205738e-07,4.189817843780474504e-07,5.179842332836415153e-07,-1.760298687258909922e-06,-8.615267006462090649e-07,-9.094165989154134877e-07,1.611843458704242948e-07,-1.545696591165324207e-06,-8.669567819197254721e-08,-1.385066980219562538e-06
