4.115442931652069092e-02
5.371844023466110229e-02
-4.940451383590698242e-01
2.749099768698215485e-02
-1.537319123744964600e-01
-2.495020255446434021e-02
-2.504524588584899902e-01
-9.898324310779571533e-02
-2.772555351257324219e-01
1.344586312770843506e-01
-2.012416720390319824e-01
2.504145354032516479e-02
-1.849474199116230011e-02
-6.748405843973159790e-02
1.028459519147872925e-01
7.410547137260437012e-02
-2.636573910713195801e-01
1.827526390552520752e-01
-3.860247135162353516e-01
1.569666117429733276e-01
-8.363587409257888794e-02
7.334074378013610840e-02
-9.172077476978302002e-02
2.437549233436584473e-01
4.009686410427093506e-02
-3.316275775432586670e-01
5.953911691904067993e-02
1.073256582021713257e-01
-5.376021191477775574e-02
9.423476457595825195e-02
3.857570514082908630e-02
3.469421342015266418e-02
4.231942445039749146e-02
-3.355614468455314636e-02
-1.530549377202987671e-01
6.039758399128913879e-02
-1.067771092057228088e-01
-1.305037736892700195e-02
6.529449950903654099e-03
5.210759863257408142e-02
2.263772487640380859e-01
-1.838398128747940063e-01
-4.896702170372009277e-01
-2.306685000658035278e-01
8.208430558443069458e-02
-2.578359246253967285e-01
3.091052174568176270e-01
-5.206904187798500061e-02
7.656458020210266113e-02
-1.041130870580673218e-01
-1.779446899890899658e-01
-4.168686270713806152e-02
1.218496486544609070e-01
8.563906699419021606e-02
1.741208881139755249e-01
2.316167950630187988e-01
-1.498810499906539917e-01
9.621798992156982422e-02
-2.703033387660980225e-01
-5.541773885488510132e-02
1.473333835601806641e-01
8.929174393415451050e-02
6.486894190311431885e-02
1.868784427642822266e-02
