3.340743109583854675e-02,-5.809090565890073776e-03,1.044286563992500305e-01,6.143052130937576294e-03,1.612622663378715515e-02,1.686024852097034454e-02,-4.370668530464172363e-02,7.276158779859542847e-02,1.053532510995864868e-01,-8.155105262994766235e-02,-6.058869510889053345e-02,8.335096761584281921e-03,-1.342795491218566895e-01,1.239412371069192886e-02,1.174477767199277878e-02,1.540245953947305679e-02
7.389014121145009995e-03,1.400416134856641293e-03,3.792406618595123291e-02,6.755574140697717667e-03,9.566544904373586178e-04,3.703103167936205864e-03,4.696599498856812716e-04,-1.134273968636989594e-02,-2.738234354183077812e-03,-4.250651691108942032e-04,4.419650416821241379e-03,-1.101519633084535599e-02,-7.069981656968593597e-04,-8.201976306736469269e-03,1.527713262476027012e-03,-6.940254941582679749e-03
-4.255288243293762207e-01,4.560916721820831299e-01,-1.515020281076431274e-01,-1.400565803050994873e-01,5.059649944305419922e-01,3.692498803138732910e-01,-4.993189871311187744e-01,-3.793405592441558838e-01,3.365519046783447266e-01,3.198063671588897705e-01,-2.425958395004272461e+00,-4.872250184416770935e-02,-3.061091303825378418e-01,6.482056379318237305e-01,6.121567487716674805e-01,3.613471090793609619e-01
-2.428565919399261475e-02,1.972304424270987511e-03,1.242861449718475342e-01,2.130172997713088989e-01,5.236794054508209229e-02,-1.560537330806255341e-02,8.749710023403167725e-02,-6.311600655317306519e-02,-1.117724459618330002e-02,-1.575957867316901684e-03,1.321690380573272705e-01,-3.711609244346618652e-01,-1.157729774713516235e-01,-2.896309792995452881e-01,6.837467849254608154e-02,-7.717664539813995361e-02
