8.491292646795045584e-08
-8.196967371532082325e-08
-7.067187875509262085e-02
-1.626952588558197021e-01
-7.390325516462326050e-02
3.860182762145996094e-01
-3.625387251377105713e-01
5.757654975013792864e-08
3.048230707645416260e-01
-3.653016090393066406e-01
3.208222091197967529e-01
-1.544380336999893188e-01
-1.760551631450653076e-01
-5.137950927019119263e-02
3.121636621654033661e-02
-4.301731948430642660e-08
-3.273220841037982609e-07
-6.633625179529190063e-02
-1.631730981443979545e-07
-6.723983585834503174e-02
2.466365396976470947e-01
-1.468212753534317017e-01
2.952053844928741455e-01
-3.889565467834472656e-01
-6.359510123729705811e-02
-6.550236046314239502e-02
-2.523503899574279785e-01
-1.222944376877421746e-07
3.216335475444793701e-01
-1.375449421026075925e-09
1.596702929873572430e-07
-2.483766081695648609e-07
3.087682998170748760e-08
3.261581994593143463e-03
2.371894419193267822e-01
5.806709527969360352e-01
1.169121079146862030e-02
-6.992230564355850220e-02
4.301850497722625732e-01
-6.411076337099075317e-02
2.861637682372020208e-08
-3.458083271980285645e-01
-4.682325638327711204e-08
1.166183238865414751e-07
-4.410879686474800110e-02
3.620303345996944699e-08
-1.108168934393916061e-08
-3.554743230342864990e-01
-5.267992988228797913e-02
2.177631728272899636e-07
4.338059425354003906e-01
-2.208894938230514526e-01
9.044284610126851476e-08
6.569886114448308945e-03
3.991126716136932373e-01
-2.040673494338989258e-01
8.591685229930590140e-08
-5.906526467924777535e-08
-1.305445067600885523e-07
2.016946375370025635e-01
-2.973384027882275404e-07
1.122988990687190380e-07
2.894569933414459229e-01
-1.025383440378391242e-07
