3.661178052425384521e-02
4.253927618265151978e-03
3.858566656708717346e-02
-2.001363085582852364e-03
3.116164123639464378e-03
1.514535844326019287e-01
3.420579060912132263e-02
1.731599271297454834e-01
5.553362891077995300e-02
-6.744293961673974991e-03
9.864223748445510864e-02
9.048864990472793579e-02
1.112995892763137817e-01
-1.122132502496242523e-02
1.850741505622863770e-01
-5.038178712129592896e-02
7.307219505310058594e-02
-2.126014558598399162e-03
7.563976943492889404e-02
8.774922788143157959e-02
8.313141018152236938e-02
2.042285054922103882e-01
2.741092070937156677e-02
8.261509239673614502e-02
8.798993378877639771e-02
9.223438054323196411e-02
1.473550200462341309e-01
1.707768738269805908e-01
1.298598349094390869e-01
1.207134202122688293e-01
3.002404272556304932e-01
1.035958006978034973e-01
-1.245416142046451569e-02
-5.526720359921455383e-02
-9.932211786508560181e-02
-6.841675937175750732e-02
3.888064622879028320e-02
1.260756980627775192e-02
2.908858656883239746e-02
1.984094455838203430e-02
1.108629852533340454e-01
-9.065519087016582489e-03
-5.213662981986999512e-02
-6.640498340129852295e-02
7.829274982213973999e-02
-6.360316276550292969e-02
4.447887092828750610e-02
-4.700192809104919434e-02
1.377095580101013184e-01
1.269365698099136353e-01
1.053001508116722107e-01
1.064792126417160034e-01
1.304145306348800659e-01
2.506996989250183105e-01
1.596263200044631958e-01
1.856972575187683105e-01
1.620255112648010254e-01
1.140027716755867004e-01
2.014010995626449585e-01
2.209852039813995361e-01
1.952017694711685181e-01
2.180618494749069214e-01
2.242698669433593750e-01
5.220190808176994324e-02
