3.880567848682403564e-02,-5.186645314097404480e-03,7.448260206729173660e-03,9.355133399367332458e-03,9.993269108235836029e-03,-3.655109182000160217e-02,3.202495351433753967e-02,3.278806433081626892e-02,-1.710084825754165649e-02,4.903955850750207901e-03,3.754824865609407425e-03,-7.252591103315353394e-02,2.769359946250915527e-02,1.001711934804916382e-02,1.522643771022558212e-02,2.012052386999130249e-02
-3.105152427451685071e-05,5.596069619059562683e-03,2.408708212897181511e-03,-5.948612932115793228e-03,-1.357920235022902489e-03,7.892441935837268829e-03,-3.727165283635258675e-03,1.826489716768264771e-02,6.793153006583452225e-04,-4.932533949613571167e-03,1.671909354627132416e-03,1.082846708595752716e-02,3.827479667961597443e-03,3.371202328708022833e-04,2.346314489841461182e-03,-2.355119679123163223e-03
6.908109188079833984e-01,2.721821069717407227e-01,2.179605960845947266e-01,1.642402410507202148e-01,2.305639386177062988e-01,-7.307245731353759766e-01,3.327268660068511963e-01,8.096035122871398926e-01,-4.259463846683502197e-01,1.450328677892684937e-01,2.421212047338485718e-01,-1.639501810073852539e+00,5.448605418205261230e-01,2.576822042465209961e-01,4.092077314853668213e-01,4.316880106925964355e-01
-1.485013775527477264e-02,1.733468472957611084e-02,5.576807633042335510e-02,-1.636233031749725342e-01,-6.440533697605133057e-02,1.808696985244750977e-01,2.045888081192970276e-02,4.680055081844329834e-01,1.364277023822069168e-02,-1.150610893964767456e-01,3.849744424223899841e-02,3.154698908329010010e-01,1.128072366118431091e-01,3.274565562605857849e-02,5.355507507920265198e-02,-2.366267144680023193e-02
