-8.964414894580841064e-02,9.200369939208030701e-03,8.067629486322402954e-02,5.094565078616142273e-02,2.137723937630653381e-02,3.298053890466690063e-02,1.620371080935001373e-02,-2.697378769516944885e-02,-8.132670074701309204e-02,-1.815513335168361664e-02,5.438471212983131409e-02,1.535574439913034439e-02,3.317623212933540344e-02,1.950713545083999634e-01,-6.651179492473602295e-02,-7.330363988876342773e-02
-4.672153852880001068e-03,-2.863455750048160553e-02,-8.694354444742202759e-03,3.878812491893768311e-02,2.749747596681118011e-03,-1.126759406179189682e-02,1.306105498224496841e-02,-1.714134216308593750e-02,4.243769217282533646e-03,-1.402794010937213898e-02,-6.479566451162099838e-03,4.120502271689474583e-04,1.848156750202178955e-02,-1.193459611386060715e-02,-1.560465432703495026e-02,9.561510756611824036e-03
-3.912777006626129150e-01,-3.740844726562500000e-01,-3.001661300659179688e-01,1.760292649269104004e-01,-3.433938026428222656e-01,2.368023991584777832e-01,2.406047135591506958e-01,-6.229003518819808960e-02,-3.185932338237762451e-01,-6.133819222450256348e-01,2.418493330478668213e-01,6.379575133323669434e-01,-2.352059185504913330e-01,2.448981553316116333e-01,-2.243980020284652710e-01,2.268009334802627563e-01
-2.509292587637901306e-02,-1.529501676559448242e-01,-2.692665159702301025e-02,1.092013344168663025e-01,1.463070884346961975e-02,-1.738294214010238647e-02,3.260436642449349165e-04,-1.099037230014801025e-01,8.789605461061000824e-03,-9.469173103570938110e-02,3.307773545384407043e-02,-1.104087335988879204e-03,-5.223240237683057785e-03,-6.082837283611297607e-02,-6.127599161118268967e-03,6.127809174358844757e-03
