1.214043200016021729e-01,2.390779182314872742e-02,5.065546929836273193e-02,-1.997908502817153931e-01,-3.456617593765258789e-01,-6.704104691743850708e-02,-1.177577301859855652e-02,1.841659098863601685e-01,1.950328797101974487e-01,-6.769971549510955811e-02,-1.128135714679956436e-02,-8.539943397045135498e-02,1.550289541482925415e-01,1.292485296726226807e-01,1.985115110874176025e-01,1.741819381713867188e-01
2.770949602127075195e-01,3.031184077262878418e-01,6.385824084281921387e-02,-1.560346931219100952e-01,-4.404845535755157471e-01,-1.126848906278610229e-01,6.612592190504074097e-02,2.681181728839874268e-01,8.963120728731155396e-02,-1.230601370334625244e-01,8.713012188673019409e-02,-6.106981635093688965e-02,2.458272427320480347e-01,4.444183707237243652e-01,9.349150210618972778e-02,5.087280869483947754e-01
2.536528408527374268e-01,3.337763249874114990e-01,-5.404104664921760559e-02,-5.313454661518335342e-03,-3.986332416534423828e-01,-1.095449402928352356e-01,-7.760073244571685791e-02,2.030618637800216675e-01,-1.488818973302841187e-01,-1.933653801679611206e-01,-7.864776998758316040e-02,7.108899205923080444e-02,1.991313546895980835e-01,2.676275074481964111e-01,-1.541302949190139771e-01,2.973269522190093994e-01
8.738053590059280396e-02,-2.876374684274196625e-02,7.206681370735168457e-02,4.874421358108520508e-01,4.618549048900604248e-01,5.490377545356750488e-01,6.950806826353073120e-02,1.919447630643844604e-01,3.855453431606292725e-01,5.527818202972412109e-01,8.487422764301300049e-02,-2.939852885901927948e-02,1.651253551244735718e-01,5.973993241786956787e-02,3.407025337219238281e-01,1.464646309614181519e-01
3.485427200794219971e-01,-2.303406447172164917e-01,6.845366209745407104e-02,6.252242326736450195e-01,6.337081789970397949e-01,5.837272405624389648e-01,9.020448476076126099e-02,-1.773193478584289551e-01,2.468469589948654175e-01,6.053828001022338867e-01,6.905465573072433472e-02,9.167719632387161255e-02,-1.854021847248077393e-01,2.862401008605957031e-01,3.754291832447052002e-01,6.069180369377136230e-01
2.699774205684661865e-01,3.319381475448608398e-01,1.152402162551879883e-01,-1.933836638927459717e-01,-2.952313423156738281e-01,-1.039021983742713928e-01,1.013778522610664368e-01,2.458062171936035156e-01,7.275155186653137207e-02,-1.383202075958251953e-01,1.197641789913177490e-01,-9.443901479244232178e-02,2.274963855743408203e-01,4.311186969280242920e-01,5.621065944433212280e-02,5.077015161514282227e-01
1.230210587382316589e-01,6.115220021456480026e-04,4.941902682185173035e-02,-2.062413543462753296e-01,-3.155200183391571045e-01,-1.135189086198806763e-01,-5.523712374269962311e-03,1.757631599903106689e-01,2.077010273933410645e-01,-1.060038805007934570e-01,-4.978257697075605392e-03,-1.153495088219642639e-01,1.492761522531509399e-01,1.326915323734283447e-01,2.117887288331985474e-01,1.758836954832077026e-01
2.222574204206466675e-01,2.807331979274749756e-01,1.298323571681976318e-01,-2.005217075347900391e-01,-2.054515630006790161e-01,-8.798836916685104370e-02,1.465819627046585083e-01,2.066916525363922119e-01,9.222767502069473267e-02,-1.341816186904907227e-01,1.511648893356323242e-01,-1.081847399473190308e-01,1.899149864912033081e-01,3.653744161128997803e-01,6.996484845876693726e-02,4.286290705204010010e-01
