-1.942076437444484327e-07,2.386656490216410020e-07,1.878202340321877273e-07,-1.539937422023740510e-08,4.399461772663926240e-08,-1.548401371564978035e-07,1.472976123295666184e-07,-7.123188083824061323e-08,-5.455574125790008111e-08,-1.900943544796973583e-07,-1.015026640516225598e-07,-1.548812349483341677e-07,1.867438896852036123e-07,-1.362228516654795385e-07,2.373558238843997970e-08,8.781812255165277747e-08,6.640004812652477995e-08,9.067584016975160921e-09,-6.961794696280776407e-08,1.374681701804547629e-08
4.164741840213537216e-03,-9.214836609316989779e-06,-1.328049802395980805e-05,-1.282361245102947578e-05,-1.321610579907428473e-05,-1.359398720524040982e-05,-1.339952268608612940e-05,-1.356901429971912876e-05,-1.407426134392153472e-05,-1.366858668916393071e-05,-1.325015182374045253e-05,-1.295009860768914223e-05,-1.228157088917214423e-05,-1.262669684365391731e-05,-1.238326603925088421e-05,-1.166095444204984233e-05,-1.193900880025466904e-05,-1.202182374981930479e-05,-1.170123050542315468e-05,-1.154028450400801376e-05
-2.350054728594841436e-07,6.768674154500331497e-08,-4.833175992757787753e-08,-1.148411996609866037e-07,1.302101537703492795e-07,2.356107700052234577e-07,1.621395568918160279e-07,1.070690487381398270e-07,-1.568755720882109017e-07,-8.009224217175869853e-08,-3.900582967730770179e-08,-5.188368490394168475e-08,7.234816745693706252e-09,8.590021138843439985e-08,-1.381445287051974447e-07,-1.065879970951755240e-07,1.587486906373669626e-07,-5.198124952698890411e-08,4.655451490975792694e-08,-7.587624395455350168e-08
1.324146986007690430e-03,-4.012340923509327695e-06,-4.371460818219929934e-06,-4.416951469465857372e-06,-4.387619810586329550e-06,-4.663950676331296563e-06,-4.473287390283076093e-06,-4.535711923381313682e-06,-4.638971404347103089e-06,-4.652642928704153746e-06,-4.512502982834121212e-06,-4.237811481289099902e-06,-3.924896191165316850e-06,-3.701692776303389110e-06,-3.198591457476140931e-06,-2.784458956739399582e-06,-3.668665158329531550e-06,-3.843422291538445279e-06,-3.948527137254131958e-06,-3.852172540064202622e-06
6.226199120283126831e-02,-3.942210972309112549e-02,-5.477743968367576599e-02,-4.922255501151084900e-02,-4.383987560868263245e-02,-3.592829406261444092e-02,-2.753063105046749115e-02,-2.001526392996311188e-02,-1.021301187574863434e-02,-1.088989782147109509e-03,5.346284713596105576e-03,1.543841417878866196e-02,2.737927436828613281e-02,3.897460550069808960e-02,5.115045607089996338e-02,6.255967170000076294e-02,7.517871260643005371e-02,8.698670566082000732e-02,9.816265106201171875e-02,1.110411509871482849e-01
3.256897255778312683e-02,-1.924546658992767334e-01,-1.747675538063049316e-01,-1.799975931644439697e-01,-1.844448149204254150e-01,-1.899235099554061890e-01,-1.966537386178970337e-01,-2.014905959367752075e-01,-2.085037380456924438e-01,-2.159788906574249268e-01,-2.224329262971878052e-01,-2.295677512884140015e-01,-2.388263642787933350e-01,-2.460110932588577271e-01,-2.518146038055419922e-01,-2.603618502616882324e-01,-2.664191424846649170e-01,-2.721588611602783203e-01,-2.799223363399505615e-01,-2.848925888538360596e-01
-2.516316612855007406e-07,1.647697729367791908e-07,3.527584340190514922e-07,1.632198092238468234e-07,2.301278527738759294e-07,9.990842642082498060e-08,-2.406539181265543448e-07,-2.402421728220360819e-07,-8.047177857406495605e-08,-6.300950161630680668e-08,5.633741295696381712e-08,-1.746374209687928669e-07,-1.912204083964752499e-07,-1.361864732096762509e-09,1.762333141641647671e-07,-3.384997455668781186e-07,-2.615036578390572686e-07,-3.434103845734171045e-08,-1.706167012116566184e-07,1.564015406074759085e-07
3.762514679692685604e-04,-1.197995841503143311e-01,-1.375177651643753052e-01,-1.443352848291397095e-01,-1.511551290750503540e-01,-1.584295183420181274e-01,-1.678034067153930664e-01,-1.735248714685440063e-01,-1.825480908155441284e-01,-1.924593448638916016e-01,-2.002581059932708740e-01,-2.097667008638381958e-01,-2.200673520565032959e-01,-2.301994413137435913e-01,-2.385904937982559204e-01,-2.488188892602920532e-01,-2.598851025104522705e-01,-2.683823406696319580e-01,-2.796253263950347900e-01,-2.888654768466949463e-01
2.268205037125881063e-07,-1.676600476230305503e-07,1.848414399319153745e-07,2.969076717818097677e-08,4.233260497699120606e-08,2.854450542599806795e-08,-1.847156596568311215e-07,6.954337550268974155e-08,-1.002557823426286632e-07,-1.312753710180913913e-07,-2.224893904667624156e-07,-8.443268484370491933e-08,4.681448118049047480e-08,-4.402164321959389781e-08,1.304828742831887212e-07,1.539132625794081832e-07,3.830907928659144090e-07,-7.199140128477665712e-08,6.990371392845418086e-09,1.488236307523038704e-07
-4.142856923863291740e-04,7.018880978648667224e-07,4.487196463287546067e-07,2.062170949557184940e-07,6.538383559018257074e-07,6.842788593530713115e-07,4.335027767865540227e-07,6.450310934269509744e-07,3.868438511744898278e-07,2.908941212353965966e-07,4.442719045982812531e-07,-4.863115493208169937e-03,-1.111491210758686066e-02,-1.611502468585968018e-02,-1.986942626535892487e-02,-2.571736462414264679e-02,-3.040915727615356445e-02,-3.402183949947357178e-02,-3.909975290298461914e-02,-4.304721578955650330e-02
-1.523066894151270390e-03,-3.062442839145660400e-01,-3.114787340164184570e-01,-3.168297111988067627e-01,-3.200490474700927734e-01,-3.244705796241760254e-01,-3.283296823501586914e-01,-3.334551155567169189e-01,-3.373072147369384766e-01,-3.427042365074157715e-01,-3.470158278942108154e-01,-3.520554006099700928e-01,-3.588428795337677002e-01,-3.630129992961883545e-01,-3.687216639518737793e-01,-3.758912086486816406e-01,-3.814374506473541260e-01,-3.859050571918487549e-01,-3.928701877593994141e-01,-3.984274864196777344e-01
5.278093367815017700e-02,-8.672561049461364746e-01,-7.521660327911376953e-01,-7.390526533126831055e-01,-7.270269393920898438e-01,-7.124674916267395020e-01,-6.987062692642211914e-01,-6.813756823539733887e-01,-6.633598804473876953e-01,-6.462326049804687500e-01,-6.259520649909973145e-01,-6.068483591079711914e-01,-5.894756317138671875e-01,-5.693255662918090820e-01,-5.507835149765014648e-01,-5.317230224609375000e-01,-5.153767466545104980e-01,-4.978186488151550293e-01,-4.830862879753112793e-01,-4.692689478397369385e-01
-1.826364314183592796e-03,2.737025113219715422e-07,6.320281613625411410e-07,7.335161740229523275e-07,4.959308625984704122e-07,7.127649723770446144e-07,4.652158338558365358e-07,6.951542559363588225e-07,6.992560770413547289e-07,8.268849569503800012e-07,7.241962975967908278e-07,8.737368943911860697e-07,4.974150442649261095e-07,8.124653732011211105e-07,8.261687867161526810e-07,7.427278205796028487e-07,1.151967328041791916e-03,3.795116208493709564e-03,6.549468263983726501e-03,9.560912847518920898e-03
5.061092600226402283e-02,5.832096934318542480e-01,4.381712377071380615e-01,4.216510951519012451e-01,4.060730636119842529e-01,3.932355642318725586e-01,3.779450356960296631e-01,3.655819892883300781e-01,3.533181548118591309e-01,3.405340313911437988e-01,3.280504345893859863e-01,3.191661536693572998e-01,3.087596297264099121e-01,2.986569106578826904e-01,2.901921570301055908e-01,2.809897363185882568e-01,2.728797793388366699e-01,2.649624049663543701e-01,2.579385340213775635e-01,2.518365085124969482e-01
3.213080763816833496e-02,-2.212463170289993286e-01,-2.106818407773971558e-01,-2.165728658437728882e-01,-2.216544449329376221e-01,-2.272215932607650757e-01,-2.346468418836593628e-01,-2.405261248350143433e-01,-2.466439604759216309e-01,-2.546728551387786865e-01,-2.611317038536071777e-01,-2.695207297801971436e-01,-2.777867615222930908e-01,-2.859639525413513184e-01,-2.920569479465484619e-01,-3.000217080116271973e-01,-3.064667582511901855e-01,-3.128247857093811035e-01,-3.207487761974334717e-01,-3.264630436897277832e-01
4.718850180506706238e-02,4.587403237819671631e-01,3.536068499088287354e-01,3.425160050392150879e-01,3.315007090568542480e-01,3.210254609584808350e-01,3.107427358627319336e-01,3.014456927776336670e-01,2.924210727214813232e-01,2.837735414505004883e-01,2.745718657970428467e-01,2.676343023777008057e-01,2.604877352714538574e-01,2.534062266349792480e-01,2.466774284839630127e-01,2.399249821901321411e-01,2.340481728315353394e-01,2.283315062522888184e-01,2.241466045379638672e-01,2.192380130290985107e-01
